{"learner":{"attributes":{"scikit_learn":"{\"_estimator_type\": \"classifier\"}"},"feature_names":["Year","Month","Day","City","Latitude","Longitude","Weekday","Daytime","GridID","CrimeByGrid","CrimeByCity"],"feature_types":["int","int","int","int","float","float","int","int","int","int","int"],"gradient_booster":{"model":{"gbtree_model_param":{"num_parallel_tree":"1","num_trees":"300"},"iteration_indptr":[0,3,6,9,12,15,18,21,24,27,30,33,36,39,42,45,48,51,54,57,60,63,66,69,72,75,78,81,84,87,90,93,96,99,102,105,108,111,114,117,120,123,126,129,132,135,138,141,144,147,150,153,156,159,162,165,168,171,174,177,180,183,186,189,192,195,198,201,204,207,210,213,216,219,222,225,228,231,234,237,240,243,246,249,252,255,258,261,264,267,270,273,276,279,282,285,288,291,294,297,300],"tree_info":[0,1,2,0,1,2,0,1,2,0,1,2,0,1,2,0,1,2,0,1,2,0,1,2,0,1,2,0,1,2,0,1,2,0,1,2,0,1,2,0,1,2,0,1,2,0,1,2,0,1,2,0,1,2,0,1,2,0,1,2,0,1,2,0,1,2,0,1,2,0,1,2,0,1,2,0,1,2,0,1,2,0,1,2,0,1,2,0,1,2,0,1,2,0,1,2,0,1,2,0,1,2,0,1,2,0,1,2,0,1,2,0,1,2,0,1,2,0,1,2,0,1,2,0,1,2,0,1,2,0,1,2,0,1,2,0,1,2,0,1,2,0,1,2,0,1,2,0,1,2,0,1,2,0,1,2,0,1,2,0,1,2,0,1,2,0,1,2,0,1,2,0,1,2,0,1,2,0,1,2,0,1,2,0,1,2,0,1,2,0,1,2,0,1,2,0,1,2,0,1,2,0,1,2,0,1,2,0,1,2,0,1,2,0,1,2,0,1,2,0,1,2,0,1,2,0,1,2,0,1,2,0,1,2,0,1,2,0,1,2,0,1,2,0,1,2,0,1,2,0,1,2,0,1,2,0,1,2,0,1,2,0,1,2,0,1,2,0,1,2,0,1,2,0,1,2,0,1,2,0,1,2,0,1,2,0,1,2,0,1,2,0,1,2,0,1,2,0,1,2],"trees":[{"base_weights":[3.290601E-1,-2.9826432E-1,4.4999906E-1,-6.920621E-1,1.97321E-1,-2.9955515E-1,-2.249995E-1,4.4999728E-1,-2.2499903E-1,-2.2499554E-1,4.499642E-1],"categories":[],"categories_nodes":[],"categories_segments":[],"categories_sizes":[],"default_left":[0,0,0,0,0,0,0,0,0,0,0],"id":0,"left_children":[1,3,-1,5,7,9,-1,-1,-1,-1,-1],"loss_changes":[9.870409E5,1.7075855E5,0E0,1.1086891E4,4.7808675E5,5.0829445E4,0E0,0E0,0E0,0E0,0E0],"parents":[2147483647,0,0,1,1,3,3,4,4,5,5],"right_children":[2,4,-1,6,8,10,-1,-1,-1,-1,-1],"split_conditions":[2.33437E5,4.7064E4,4.4999906E-1,4.32341E5,-7.659922E1,3.2919E4,-2.249995E-1,4.4999728E-1,-2.2499903E-1,-2.2499554E-1,4.499642E-1],"split_indices":[9,9,0,10,5,9,0,0,0,0,0],"split_type":[0,0,0,0,0,0,0,0,0,0,0],"sum_hessian":[1.3437208E6,8.749635E5,4.687573E5,4.875502E5,3.874133E5,6.2709773E4,4.248404E5,1.6311333E5,2.2429998E5,5.015555E4,1.2554222E4],"tree_param":{"num_deleted":"0","num_feature":"11","num_nodes":"11","size_leaf_vector":"1"}},{"base_weights":[-8.77367E-2,2.6706716E-1,-2.2499955E-1,-5.4078694E-2,4.499975E-1,4.1117924E-1,-6.2980896E-1,9.332947E-1,-2.2499813E-1,-2.2499901E-1,-3.4348223E-1,-2.2499588E-1,1.3659198E0,4.4997287E-1,-2.2499704E-1,4.4999757E-1,1.013312E-1],"categories":[],"categories_nodes":[],"categories_segments":[],"categories_sizes":[],"default_left":[0,0,0,0,0,0,0,0,0,0,0,0,0,0,0,0,0],"id":1,"left_children":[1,3,-1,5,-1,7,9,11,-1,-1,13,-1,15,-1,-1,-1,-1],"loss_changes":[3.157386E5,3.464411E5,0E0,1.859389E5,0E0,2.3275312E5,1.0676211E4,1.9285928E5,0E0,0E0,6.87372E4,0E0,2.9041375E4,0E0,0E0,0E0,0E0],"parents":[2147483647,0,0,1,1,3,3,5,5,6,6,7,7,10,10,12,12],"right_children":[2,4,-1,6,-1,8,10,12,-1,-1,14,-1,16,-1,-1,-1,-1],"split_conditions":[2.33437E5,1.45895E5,-2.2499955E-1,8.9E1,4.499975E-1,3.9032E4,1.34E2,8.631E3,-2.2499813E-1,-2.2499901E-1,1.35E2,-2.2499588E-1,-7.664542E1,4.4997287E-1,-2.2499704E-1,4.4999757E-1,1.013312E-1],"split_indices":[9,9,0,8,0,9,8,9,0,0,8,0,5,0,0,0,0],"split_type":[0,0,0,0,0,0,0,0,0,0,0,0,0,0,0,0,0],"sum_hessian":[1.3437208E6,8.749635E5,4.687573E5,6.941546E5,1.8080888E5,3.839102E5,3.1024444E5,2.6483066E5,1.1907955E5,2.185182E5,9.172622E4,5.4147996E4,2.1068266E5,1.6572443E4,7.515377E4,1.8637822E5,2.4304443E4],"tree_param":{"num_deleted":"0","num_feature":"11","num_nodes":"17","size_leaf_vector":"1"}},{"base_weights":[-2.4132355E-1,-5.532363E-1,9.959575E-1,1.4063182E0,-6.985652E-1,1.3353736E0,-2.2499491E-1,4.4999334E-1,4.8273164E-1,-7.3893785E-1,-1.6416752E-1,4.499973E-1,8.7917626E-1,4.4987968E-1,-2.2492711E-1,-4.4070587E-1,-2.2499977E-1,-2.249957E-1,4.4997537E-1,4.4998968E-1,-2.2498645E-1,4.499015E-1,-2.2499217E-1],"categories":[],"categories_nodes":[],"categories_segments":[],"categories_sizes":[],"default_left":[0,0,0,0,0,0,0,0,0,0,0,0,0,0,0,0,0,0,0,0,0,0,0],"id":2,"left_children":[1,3,5,7,9,11,-1,-1,13,15,17,-1,19,-1,-1,21,-1,-1,-1,-1,-1,-1,-1],"loss_changes":[5.1857478E5,3.056207E5,1.6032522E5,6.408828E3,2.1555188E4,1.7009125E4,0E0,0E0,8.55307E3,3.0639375E3,6.841456E4,0E0,6.074723E4,0E0,0E0,1.993827E4,0E0,0E0,0E0,0E0,0E0,0E0,0E0],"parents":[2147483647,0,0,1,1,2,2,3,3,4,4,5,5,8,8,9,9,10,10,12,12,15,15],"right_children":[2,4,6,8,10,12,-1,-1,14,16,18,-1,20,-1,-1,22,-1,-1,-1,-1,-1,-1,-1],"split_conditions":[1.11E2,1.0734E4,6.4397E4,8.631E3,1.08E2,4.6587E4,-2.2499491E-1,4.4999334E-1,2.018E3,1.3114E4,3.9950188E1,4.499973E-1,3E0,4.4987968E-1,-2.2492711E-1,2.018E3,-2.2499977E-1,-2.249957E-1,4.4997537E-1,4.4998968E-1,-2.2498645E-1,4.499015E-1,-2.2499217E-1],"split_indices":[8,9,9,9,8,9,0,0,0,9,4,0,3,0,0,0,0,0,0,0,0,0,0],"split_type":[0,0,0,0,0,0,0,0,0,0,0,0,0,0,0,0,0,0,0,0,0,0,0],"sum_hessian":[1.3437208E6,1.0731781E6,2.7054266E5,7.4095555E4,9.990826E5,2.2650888E5,4.4033773E4,6.727288E4,6.8226665E3,9.2890525E5,7.017733E4,1.6644533E5,6.006355E4,3.738222E3,3.0844443E3,3.322222E4,8.9568306E5,5.1905332E4,1.8271998E4,4.349111E4,1.6572443E4,4.5666665E3,2.8655555E4],"tree_param":{"num_deleted":"0","num_feature":"11","num_nodes":"23","size_leaf_vector":"1"}},{"base_weights":[2.5370213E-1,-2.4921498E-1,3.0274656E-1,-6.103474E-1,1.5473905E-1,-2.4505562E-1,-2.0060636E-1,3.0274594E-1,-2.0060584E-1,-6.7899185E-1,3.322003E-1,-2.0060131E-1,-2.1285097E-1],"categories":[],"categories_nodes":[],"categories_segments":[],"categories_sizes":[],"default_left":[0,0,0,0,0,0,0,0,0,0,0,0,0],"id":3,"left_children":[1,3,-1,5,7,9,-1,-1,-1,11,-1,-1,-1],"loss_changes":[5.0128144E5,1.1555153E5,0E0,8.912531E3,2.6304344E5,3.3800934E4,0E0,0E0,0E0,1.3255859E1,0E0,0E0,0E0],"parents":[2147483647,0,0,1,1,3,3,4,4,5,5,9,9],"right_children":[2,4,-1,6,8,10,-1,-1,-1,12,-1,-1,-1],"split_conditions":[2.33437E5,4.7064E4,3.0274656E-1,4.32341E5,-7.659922E1,3.2919E4,-2.0060636E-1,3.0274594E-1,-2.0060584E-1,3.2865E4,3.322003E-1,-2.0060131E-1,-2.1285097E-1],"split_indices":[9,9,0,10,5,9,0,0,0,9,0,0,0],"split_type":[0,0,0,0,0,0,0,0,0,0,0,0,0],"sum_hessian":[1.319402E6,7.9209344E5,5.2730856E5,4.1821306E5,3.738804E5,5.7594855E4,3.6061822E5,1.8348738E5,1.9039302E5,4.3604227E4,1.3990626E4,3.2599855E4,1.1004372E4],"tree_param":{"num_deleted":"0","num_feature":"11","num_nodes":"13","size_leaf_vector":"1"}},{"base_weights":[-7.100057E-2,2.0778033E-1,-2.0060629E-1,4.889629E-1,-5.351402E-1,-2.0060359E-1,6.0664386E-1,-2.0060559E-1,-2.8924388E-1,3.7818116E-1,3.0274603E-1,3.0273592E-1,-2.0060383E-1,7.8948903E-1,-2.0060495E-1,3.0274618E-1,-5.33622E-2],"categories":[],"categories_nodes":[],"categories_segments":[],"categories_sizes":[],"default_left":[0,0,0,0,0,0,0,0,0,0,0,0,0,0,0,0,0],"id":4,"left_children":[1,3,-1,5,7,-1,9,-1,11,13,-1,-1,-1,15,-1,-1,-1],"loss_changes":[2.0843962E5,1.7820206E5,0E0,8.430683E4,7.6912266E3,0E0,5.165628E4,0E0,4.0612594E4,1.5429847E5,0E0,0E0,0E0,5.466839E4,0E0,0E0,0E0],"parents":[2147483647,0,0,1,1,3,3,4,4,6,6,8,8,9,9,13,13],"right_children":[2,4,-1,6,8,-1,10,-1,12,14,-1,-1,-1,16,-1,-1,-1],"split_conditions":[2.33437E5,1.11E2,-2.0060629E-1,8.631E3,1.34E2,-2.0060359E-1,1.23819E5,-2.0060559E-1,1.35E2,3.9032E4,3.0274603E-1,3.0273592E-1,-2.0060383E-1,-7.664542E1,-2.0060495E-1,3.0274618E-1,-5.33622E-2],"split_indices":[9,8,0,9,8,0,9,0,8,9,0,0,0,5,0,0,0],"split_type":[0,0,0,0,0,0,0,0,0,0,0,0,0,0,0,0,0],"sum_hessian":[1.2509581E6,8.5306244E5,3.9789575E5,6.188419E5,2.3422056E5,5.7103496E4,5.617384E5,1.5178514E5,8.243543E4,3.5834512E5,2.0339323E5,1.8642459E4,6.379297E4,2.5726658E5,1.0107855E5,2.0965822E5,4.760836E4],"tree_param":{"num_deleted":"0","num_feature":"11","num_nodes":"17","size_leaf_vector":"1"}},{"base_weights":[-2.0077482E-1,-4.7996345E-1,7.090334E-1,9.5590234E-1,-6.1855465E-1,9.148287E-1,-2.0060171E-1,3.0274433E-1,3.6531723E-1,-6.5810275E-1,-1.3493946E-1,3.027459E-1,6.3444537E-1,3.0269372E-1,-2.0053391E-1,-3.761042E-1,-6.690243E-1,-2.0060247E-1,3.0273607E-1,3.0274248E-1,-2.0059407E-1,3.0270317E-1,-2.0059896E-1,-6.7244005E-1,-6.6838497E-1,-2.0060498E-1,-2.128506E-1,-1.9475883E-1,-2.0060647E-1],"categories":[],"categories_nodes":[],"categories_segments":[],"categories_sizes":[],"default_left":[0,0,0,0,0,0,0,0,0,0,0,0,0,0,0,0,0,0,0,0,0,0,0,0,0,0,0,0,0],"id":5,"left_children":[1,3,5,7,9,11,-1,-1,13,15,17,-1,19,-1,-1,21,23,-1,-1,-1,-1,-1,-1,25,27,-1,-1,-1,-1],"loss_changes":[3.1111903E5,1.8650856E5,8.1543875E4,2.5939219E3,1.6347594E4,6.6171094E3,0E0,0E0,4.5416016E3,2.4332188E3,3.9455766E4,0E0,3.0757322E4,0E0,0E0,1.1939451E4,1.21875E0,0E0,0E0,0E0,0E0,0E0,0E0,1.6195312E1,3.28125E0,0E0,0E0,0E0,0E0],"parents":[2147483647,0,0,1,1,2,2,3,3,4,4,5,5,8,8,9,9,10,10,12,12,15,15,16,16,23,23,24,24],"right_children":[2,4,6,8,10,12,-1,-1,14,16,18,-1,20,-1,-1,22,24,-1,-1,-1,-1,-1,-1,26,28,-1,-1,-1,-1],"split_conditions":[1.11E2,1.0734E4,6.4397E4,8.631E3,1.08E2,4.6587E4,-2.0060171E-1,3.0274433E-1,2.018E3,1.3114E4,3.9950188E1,3.027459E-1,3E0,3.0269372E-1,-2.0053391E-1,2.018E3,3.2919E4,-2.0060247E-1,3.0273607E-1,3.0274248E-1,-2.0059407E-1,3.0270317E-1,-2.0059896E-1,-7.664542E1,3.7177E4,-2.0060498E-1,-2.128506E-1,-1.9475883E-1,-2.0060647E-1],"split_indices":[8,9,9,9,8,9,0,0,0,9,4,0,3,0,0,0,9,0,0,0,0,0,0,5,9,0,0,0,0],"split_type":[0,0,0,0,0,0,0,0,0,0,0,0,0,0,0,0,0,0,0,0,0,0,0,0,0,0,0,0,0],"sum_hessian":[1.2248366E6,9.3723275E5,2.876038E5,8.249917E4,8.547336E5,2.5022647E5,3.737734E4,7.567576E4,6.823416E3,7.901204E5,6.4613258E4,1.8723558E5,6.2990883E4,4.205149E3,2.618267E3,2.9460896E4,7.6065944E5,4.4058957E4,2.0554303E4,4.8923465E4,1.4067415E4,5.1370728E3,2.4323822E4,1.1975131E5,6.409081E5,1.0874697E5,1.1004346E4,1.0001845E4,6.309063E5],"tree_param":{"num_deleted":"0","num_feature":"11","num_nodes":"29","size_leaf_vector":"1"}},{"base_weights":[2.1540406E-1,-2.2164391E-1,2.4233523E-1,-5.5897796E-1,1.3289164E-1,-2.2178598E-1,-1.85235E-1,2.4233477E-1,-1.8530126E-1,-6.380542E-1,2.6705682E-1,-1.8517503E-1,-2.0711246E-1],"categories":[],"categories_nodes":[],"categories_segments":[],"categories_sizes":[],"default_left":[0,0,0,0,0,0,0,0,0,0,0,0,0],"id":6,"left_children":[1,3,-1,5,7,9,-1,-1,-1,11,-1,-1,-1],"loss_changes":[3.033779E5,8.064539E4,0E0,6.8125703E3,1.6653977E5,2.363786E4,0E0,0E0,0E0,4.001758E1,0E0,0E0,0E0],"parents":[2147483647,0,0,1,1,3,3,4,4,5,5,9,9],"right_children":[2,4,-1,6,8,10,-1,-1,-1,12,-1,-1,-1],"split_conditions":[2.33437E5,4.7064E4,2.4233523E-1,4.32341E5,-7.659922E1,3.2919E4,-1.85235E-1,2.4233477E-1,-1.8530126E-1,3.2865E4,2.6705682E-1,-1.8517503E-1,-2.0711246E-1],"split_indices":[9,9,0,10,5,9,0,0,0,9,0,0,0],"split_type":[0,0,0,0,0,0,0,0,0,0,0,0,0],"sum_hessian":[1.171801E6,6.743083E5,4.974927E5,3.455363E5,3.2877203E5,5.1064703E4,2.9447162E5,1.7311256E5,1.5565947E5,3.7155836E4,1.3908867E4,2.6594105E4,1.056173E4],"tree_param":{"num_deleted":"0","num_feature":"11","num_nodes":"13","size_leaf_vector":"1"}},{"base_weights":[-6.1451677E-2,1.7751287E-1,-1.8530175E-1,4.066143E-1,-4.883274E-1,-1.8529876E-1,4.991686E-1,-1.8530098E-1,-2.5818324E-1,3.1682414E-1,2.4233478E-1,2.4232653E-1,-1.8529901E-1,6.357545E-1,-1.8530023E-1,2.2533856E-1,-1.9089535E-1],"categories":[],"categories_nodes":[],"categories_segments":[],"categories_sizes":[],"default_left":[0,0,0,0,0,0,0,0,0,0,0,0,0,0,0,0,0],"id":7,"left_children":[1,3,-1,5,7,-1,9,-1,11,13,-1,-1,-1,15,-1,-1,-1],"loss_changes":[1.4388328E5,1.1550673E5,0E0,5.340732E4,5.769949E3,0E0,2.9074953E4,0E0,2.672556E4,9.679674E4,0E0,0E0,0E0,3.5537945E4,0E0,0E0,0E0],"parents":[2147483647,0,0,1,1,3,3,4,4,6,6,8,8,9,9,13,13],"right_children":[2,4,-1,6,8,-1,10,-1,12,14,-1,-1,-1,16,-1,-1,-1],"split_conditions":[2.33437E5,1.11E2,-1.8530175E-1,8.631E3,1.34E2,-1.8529876E-1,1.23819E5,-1.8530098E-1,1.35E2,3.9032E4,2.4233478E-1,2.4232653E-1,-1.8529901E-1,8.9E1,-1.8530023E-1,2.2533856E-1,-1.9089535E-1],"split_indices":[9,8,0,9,8,0,9,0,8,9,0,0,0,8,0,0,0],"split_type":[0,0,0,0,0,0,0,0,0,0,0,0,0,0,0,0,0],"sum_hessian":[1.0825025E6,7.5719556E5,3.2530697E5,5.633569E5,1.9383869E5,4.668618E4,5.166707E5,1.2409489E5,6.97438E4,3.2477784E5,1.9189284E5,1.758856E4,5.2155234E4,2.421391E5,8.263874E4,2.2200423E5,2.013486E4],"tree_param":{"num_deleted":"0","num_feature":"11","num_nodes":"17","size_leaf_vector":"1"}},{"base_weights":[-1.7767987E-1,-4.3501046E-1,5.814259E-1,7.697137E-1,-5.6780213E-1,7.378135E-1,-1.8529662E-1,3.3404416E-1,8.0916584E-1,-6.076345E-1,-1.04730695E-1,2.423347E-1,5.234395E-1,-1.8522096E-1,2.4228041E-1,2.4233319E-1,2.4961539E-1,-3.2968205E-1,-6.1870164E-1,-1.8529749E-1,2.4965042E-1,2.4233182E-1,-1.852881E-1,2.4962306E-1,-1.8529357E-1,-6.2910146E-1,-1.8530199E-1,-1.8434133E-1,-1.9972877E-1],"categories":[],"categories_nodes":[],"categories_segments":[],"categories_sizes":[],"default_left":[0,0,0,0,0,0,0,0,0,0,0,0,0,0,0,0,0,0,0,0,0,0,0,0,0,0,0,0,0],"id":8,"left_children":[1,3,5,7,9,11,-1,13,15,17,19,-1,21,-1,-1,-1,-1,23,25,-1,-1,-1,-1,-1,-1,27,-1,-1,-1],"loss_changes":[2.0436675E5,1.2499667E5,4.966868E4,1.3330664E3,1.2981031E4,3.5140938E3,0E0,2.903521E3,1.5898438E0,1.9932031E3,2.67883E4,0E0,1.8707758E4,0E0,0E0,0E0,0E0,8.302642E3,6.28125E0,0E0,0E0,0E0,0E0,0E0,0E0,2.9638672E1,0E0,0E0,0E0],"parents":[2147483647,0,0,1,1,2,2,3,3,4,4,5,5,7,7,8,8,9,9,10,10,12,12,17,17,18,18,25,25],"right_children":[2,4,6,8,10,12,-1,14,16,18,20,-1,22,-1,-1,-1,-1,24,26,-1,-1,-1,-1,-1,-1,28,-1,-1,-1],"split_conditions":[1.11E2,1.0734E4,6.4397E4,8E0,1.08E2,4.6587E4,-1.8529662E-1,3.41512E1,8.631E3,1.3114E4,3.9950188E1,2.423347E-1,3E0,-1.8522096E-1,2.4228041E-1,2.4233319E-1,2.4961539E-1,2.018E3,4.32341E5,-1.8529749E-1,2.4965042E-1,2.4233182E-1,-1.852881E-1,2.4962306E-1,-1.8529357E-1,8.7E1,-1.8530199E-1,-1.8434133E-1,-1.9972877E-1],"split_indices":[8,9,9,8,8,9,0,4,9,9,4,0,3,0,0,0,0,0,10,0,0,0,0,0,0,8,0,0,0],"split_type":[0,0,0,0,0,0,0,0,0,0,0,0,0,0,0,0,0,0,0,0,0,0,0,0,0,0,0,0,0],"sum_hessian":[1.04620206E6,7.8133606E5,2.6486603E5,7.757238E4,7.037637E5,2.3430739E5,3.0558645E4,6.442075E3,7.113031E4,6.4802194E5,5.5741715E4,1.7664878E5,5.765861E4,2.140728E3,4.301347E3,6.709565E4,4.0346604E3,2.4815268E4,6.232067E5,3.6021324E4,1.972039E4,4.615733E4,1.150128E4,4.9287646E3,1.9886504E4,5.602419E4,5.671825E5,4.005656E4,1.5967635E4],"tree_param":{"num_deleted":"0","num_feature":"11","num_nodes":"29","size_leaf_vector":"1"}},{"base_weights":[1.9350475E-1,-2.018963E-1,2.1020684E-1,-5.176715E-1,1.1994783E-1,-1.6264704E-1,-1.751742E-1,2.1021248E-1,-1.7507067E-1,-6.014791E-1,2.4773608E-1,-1.7518717E-1,-1.926853E-1],"categories":[],"categories_nodes":[],"categories_segments":[],"categories_sizes":[],"default_left":[0,0,0,0,0,0,0,0,0,0,0,0,0],"id":9,"left_children":[1,3,-1,5,7,9,-1,-1,-1,11,-1,-1,-1],"loss_changes":[1.973609E5,5.620296E4,0E0,6.5646016E3,1.1189895E5,1.9040121E4,0E0,0E0,0E0,2.1359375E1,0E0,0E0,0E0],"parents":[2147483647,0,0,1,1,3,3,4,4,5,5,9,9],"right_children":[2,4,-1,6,8,10,-1,-1,-1,12,-1,-1,-1],"split_conditions":[2.33437E5,4.7064E4,2.1020684E-1,4.32341E5,-7.659922E1,3.2919E4,-1.751742E-1,2.1021248E-1,-1.7507067E-1,3.2865E4,2.4773608E-1,-1.7518717E-1,-1.926853E-1],"split_indices":[9,9,0,10,5,9,0,0,0,9,0,0,0],"split_type":[0,0,0,0,0,0,0,0,0,0,0,0,0],"sum_hessian":[9.84139E5,5.5301175E5,4.3112722E5,2.7913738E5,2.7387438E5,4.3893723E4,2.3524364E5,1.5002619E5,1.23848195E5,3.0398281E4,1.3495443E4,2.1277107E4,9.121174E3],"tree_param":{"num_deleted":"0","num_feature":"11","num_nodes":"13","size_leaf_vector":"1"}},{"base_weights":[-5.563593E-2,1.5859173E-1,-1.7507127E-1,3.5721648E-1,-4.576578E-1,-1.7506738E-1,4.3570644E-1,-1.750702E-1,-2.3855093E-1,2.7772543E-1,2.1020636E-1,2.1019948E-1,-1.750677E-1,5.4336023E-1,-1.7506829E-1,2.1122435E-1,-4.230864E-2],"categories":[],"categories_nodes":[],"categories_segments":[],"categories_sizes":[],"default_left":[0,0,0,0,0,0,0,0,0,0,0,0,0,0,0,0,0],"id":10,"left_children":[1,3,-1,5,7,-1,9,-1,11,13,-1,-1,-1,15,-1,-1,-1],"loss_changes":[1.01411695E5,7.807366E4,0E0,3.561909E4,4.2890195E3,0E0,1.8637812E4,0E0,1.8386268E4,6.3816082E4,0E0,0E0,0E0,2.3449195E4,0E0,0E0,0E0],"parents":[2147483647,0,0,1,1,3,3,4,4,6,6,8,8,9,9,13,13],"right_children":[2,4,-1,6,8,-1,10,-1,12,14,-1,-1,-1,16,-1,-1,-1],"split_conditions":[2.33437E5,1.11E2,-1.7507127E-1,8.631E3,1.34E2,-1.7506738E-1,1.23819E5,-1.750702E-1,1.35E2,3.9032E4,2.1020636E-1,2.1019948E-1,-1.750677E-1,-7.664542E1,-1.7506829E-1,2.1122435E-1,-4.230864E-2],"split_indices":[9,8,0,9,8,0,9,0,8,9,0,0,0,5,0,0,0],"split_type":[0,0,0,0,0,0,0,0,0,0,0,0,0,0,0,0,0],"sum_hessian":[8.9666706E5,6.378417E5,2.5882538E5,4.8236878E5,1.5547292E5,3.7145023E4,4.4522375E5,9.873394E4,5.6738992E4,2.789292E5,1.6629458E5,1.5242711E4,4.149628E4,2.1318103E5,6.574815E4,1.7263877E5,4.0542266E4],"tree_param":{"num_deleted":"0","num_feature":"11","num_nodes":"17","size_leaf_vector":"1"}},{"base_weights":[-1.6403207E-1,-4.0666434E-1,5.109916E-1,6.6846794E-1,-5.34821E-1,6.425832E-1,-1.7506517E-1,2.9469717E-1,7.0147824E-1,-5.7383233E-1,-9.551025E-2,2.1020828E-1,4.615795E-1,-1.7533247E-1,2.1015702E-1,2.1020709E-1,2.1427287E-1,-3.0847088E-1,-5.846715E-1,-1.750662E-1,2.1430792E-1,2.1020319E-1,-1.7505446E-1,2.1427932E-1,-1.7541823E-1,-5.914042E-1,-5.83367E-1,-1.7540641E-1,-1.9309263E-1,-1.6963263E-1,-1.7508551E-1],"categories":[],"categories_nodes":[],"categories_segments":[],"categories_sizes":[],"default_left":[0,0,0,0,0,0,0,0,0,0,0,0,0,0,0,0,0,0,0,0,0,0,0,0,0,0,0,0,0,0,0],"id":11,"left_children":[1,3,5,7,9,11,-1,13,15,17,19,-1,21,-1,-1,-1,-1,23,25,-1,-1,-1,-1,-1,-1,27,29,-1,-1,-1,-1],"loss_changes":[1.4033512E5,8.684458E4,3.2631242E4,8.2805273E2,9.651391E3,2.126875E3,0E0,1.9445858E3,1.19140625E-1,1.4875312E3,1.8155E4,0E0,1.2282514E4,0E0,0E0,0E0,0E0,5.7359385E3,4.015625E0,0E0,0E0,0E0,0E0,0E0,0E0,2.7894531E1,1.5625E0,0E0,0E0,0E0,0E0],"parents":[2147483647,0,0,1,1,2,2,3,3,4,4,5,5,7,7,8,8,9,9,10,10,12,12,17,17,18,18,25,25,26,26],"right_children":[2,4,6,8,10,12,-1,14,16,18,20,-1,22,-1,-1,-1,-1,24,26,-1,-1,-1,-1,-1,-1,28,30,-1,-1,-1,-1],"split_conditions":[1.11E2,1.0734E4,6.4397E4,8E0,1.08E2,4.6587E4,-1.7506517E-1,3.41512E1,8.631E3,1.3114E4,3.9950188E1,2.1020828E-1,3E0,-1.7533247E-1,2.1015702E-1,2.1020709E-1,2.1427287E-1,2.018E3,3.2919E4,-1.750662E-1,2.1430792E-1,2.1020319E-1,-1.7505446E-1,2.1427932E-1,-1.7541823E-1,-7.664542E1,3.7177E4,-1.7540641E-1,-1.9309263E-1,-1.6963263E-1,-1.7508551E-1],"split_indices":[8,9,9,8,8,9,0,4,9,9,4,0,3,0,0,0,0,0,9,0,0,0,0,0,0,5,9,0,0,0,0],"split_type":[0,0,0,0,0,0,0,0,0,0,0,0,0,0,0,0,0,0,0,0,0,0,0,0,0,0,0,0,0,0,0],"sum_hessian":[8.568361E5,6.302852E5,2.2655094E5,6.7128266E4,5.631569E5,2.0223731E5,2.4313627E4,5.448268E3,6.1679996E4,5.1722622E5,4.5930676E4,1.5308625E5,4.9151062E4,1.7205693E3,3.7276985E3,5.814633E4,3.5336702E3,2.0299047E4,4.9692716E5,2.865992E4,1.7270756E4,4.0000125E4,9.15094E3,4.3166606E3,1.5982387E4,8.0582484E4,4.163447E5,7.141313E4,9.169357E3,5.7882964E3,4.1055638E5],"tree_param":{"num_deleted":"0","num_feature":"11","num_nodes":"31","size_leaf_vector":"1"}},{"base_weights":[1.7874834E-1,-4.9077886E-1,4.3566686E-1,-1.5034235E-1,-1.6807567E-1,5.098423E-1,-1.680144E-1,-5.8316964E-1,2.2055654E-1,6.339507E-1,-1.1195391E-1,-1.6806747E-1,-1.8825874E-1,1.9095717E-1,2.5170988E-1,-1.6801557E-1,1.9095136E-1,-1.6784382E-1,1.9086227E-1],"categories":[],"categories_nodes":[],"categories_segments":[],"categories_sizes":[],"default_left":[0,0,0,0,0,0,0,0,0,0,0,0,0,0,0,0,0,0,0],"id":12,"left_children":[1,3,5,7,-1,9,-1,11,-1,13,15,-1,-1,-1,17,-1,-1,-1,-1],"loss_changes":[1.3702873E5,5.2248086E3,4.2520055E4,1.4351604E4,0E0,4.1346844E4,0E0,2.5248047E1,0E0,4.3914062E2,2.9899242E4,0E0,0E0,0E0,9.323978E2,0E0,0E0,0E0,0E0],"parents":[2147483647,0,0,1,1,2,2,3,3,5,5,7,7,9,9,10,10,14,14],"right_children":[2,4,6,8,-1,10,-1,12,-1,14,16,-1,-1,-1,18,-1,-1,-1,-1],"split_conditions":[4.7064E4,4.32341E5,-7.509935E1,3.2919E4,-1.6807567E-1,1.07E2,-1.680144E-1,3.2865E4,2.2055654E-1,-7.51014E1,3E0,-1.6806747E-1,-1.8825874E-1,1.9095717E-1,2.33437E5,-1.6801557E-1,1.9095136E-1,-1.6784382E-1,1.9086227E-1],"split_indices":[9,10,5,9,0,8,0,9,0,5,3,0,0,0,9,0,0,0,0],"split_type":[0,0,0,0,0,0,0,0,0,0,0,0,0,0,0,0,0,0,0],"sum_hessian":[7.9661194E5,2.2091322E5,5.756987E5,3.744187E4,1.8347136E5,5.35786E5,3.9912688E4,2.514964E4,1.229223E4,4.4663844E5,8.914757E4,1.6584822E4,8.564817E3,4.4365116E5,2.9872686E3,5.5762887E4,3.338468E4,9.604711E2,2.0267975E3],"tree_param":{"num_deleted":"0","num_feature":"11","num_nodes":"19","size_leaf_vector":"1"}},{"base_weights":[-5.129612E-2,1.4674982E-1,-1.6801764E-1,3.2613572E-1,-4.3680367E-1,-1.6801319E-1,3.9596358E-1,-1.6801642E-1,-2.2552647E-1,2.5306046E-1,1.9095537E-1,1.9094412E-1,-1.6801356E-1,4.8551026E-1,-1.6801469E-1,1.726409E-1,-1.734604E-1],"categories":[],"categories_nodes":[],"categories_segments":[],"categories_sizes":[],"default_left":[0,0,0,0,0,0,0,0,0,0,0,0,0,0,0,0,0],"id":13,"left_children":[1,3,-1,5,7,-1,9,-1,11,13,-1,-1,-1,15,-1,-1,-1],"loss_changes":[7.262315E4,5.430972E4,0E0,2.4555734E4,3.1763848E3,0E0,1.2644719E4,0E0,1.2960576E4,4.36154E4,0E0,0E0,0E0,1.7172742E4,0E0,0E0,0E0],"parents":[2147483647,0,0,1,1,3,3,4,4,6,6,8,8,9,9,13,13],"right_children":[2,4,-1,6,8,-1,10,-1,12,14,-1,-1,-1,16,-1,-1,-1],"split_conditions":[2.33437E5,1.11E2,-1.6801764E-1,8.631E3,1.34E2,-1.6801319E-1,1.23819E5,-1.6801642E-1,1.35E2,3.9032E4,1.9095537E-1,1.9094412E-1,-1.6801356E-1,8.9E1,-1.6801469E-1,1.726409E-1,-1.734604E-1],"split_indices":[9,8,0,9,8,0,9,0,8,9,0,0,0,8,0,0,0],"split_type":[0,0,0,0,0,0,0,0,0,0,0,0,0,0,0,0,0],"sum_hessian":[7.2076344E5,5.188079E5,2.0195553E5,3.968237E5,1.2198422E5,2.8983924E4,3.6783975E5,7.704024E4,4.494398E4,2.3075817E5,1.3708158E5,1.2564964E4,3.2379016E4,1.794561E5,5.1302086E4,1.6546312E5,1.3992966E4],"tree_param":{"num_deleted":"0","num_feature":"11","num_nodes":"17","size_leaf_vector":"1"}},{"base_weights":[-1.5427792E-1,2.0276755E-1,-1.6801773E-1,-2.669167E-1,5.9552336E-1,1.9095239E-1,-5.648658E-1,6.3923526E-1,4.235147E-1,-5.601241E-1,-6.0941094E-1,6.500585E-1,1.9095467E-1,1.9095188E-1,-1.6799684E-1,-1.6819659E-1,-1.6403161E-1,-1.6795549E-1,-1.8859561E-1,1.9093855E-1,1.9687928E-1],"categories":[],"categories_nodes":[],"categories_segments":[],"categories_sizes":[],"default_left":[0,0,0,0,0,0,0,0,0,0,0,0,0,0,0,0,0,0,0,0,0],"id":14,"left_children":[1,3,-1,5,7,-1,9,11,13,15,17,19,-1,-1,-1,-1,-1,-1,-1,-1,-1],"loss_changes":[9.900071E4,6.705312E4,0E0,4.4557664E4,1.488125E3,0E0,2.5949219E1,4.234375E0,8.403578E3,4.9609375E-1,1.1056641E1,2.2529297E0,0E0,0E0,0E0,0E0,0E0,0E0,0E0,0E0,0E0],"parents":[2147483647,0,0,1,1,3,3,4,4,6,6,7,7,8,8,9,9,10,10,11,11],"right_children":[2,4,-1,6,8,-1,10,12,14,16,18,20,-1,-1,-1,-1,-1,-1,-1,-1,-1],"split_conditions":[6.4397E4,8.9E1,-1.6801773E-1,8.631E3,4.6587E4,1.9095239E-1,8.7E1,1.1E2,3E0,-7.659922E1,-7.664542E1,7.941E3,1.9095467E-1,1.9095188E-1,-1.6799684E-1,-1.6819659E-1,-1.6403161E-1,-1.6795549E-1,-1.8859561E-1,1.9093855E-1,1.9687928E-1],"split_indices":[9,8,0,9,9,0,8,8,3,5,5,9,0,0,0,0,0,0,0,0,0],"split_type":[0,0,0,0,0,0,0,0,0,0,0,0,0,0,0,0,0,0,0,0,0],"sum_hessian":[6.833163E5,3.6348638E5,3.1982994E5,1.655321E5,1.9795428E5,4.1052844E4,1.2447925E5,1.5784023E5,4.011404E4,1.1251572E5,1.1963536E4,3.164952E4,1.2619072E5,3.2973516E4,7.1405234E3,1.0817116E5,4.3445596E3,3.3541926E3,8.609344E3,9.950863E3,2.1698656E4],"tree_param":{"num_deleted":"0","num_feature":"11","num_nodes":"21","size_leaf_vector":"1"}},{"base_weights":[1.6971856E-1,-4.6191683E-1,4.0997416E-1,-9.45737E-2,-1.6319329E-1,4.7869432E-1,-1.6305189E-1,-5.62796E-1,2.1209946E-1,5.929847E-1,-1.071389E-1,-1.6320996E-1,-1.7891331E-1,1.7860368E-1,2.381639E-1,-1.6305335E-1,1.785976E-1,-1.6283904E-1,1.7849606E-1],"categories":[],"categories_nodes":[],"categories_segments":[],"categories_sizes":[],"default_left":[0,0,0,0,0,0,0,0,0,0,0,0,0,0,0,0,0,0,0],"id":15,"left_children":[1,3,5,7,-1,9,-1,11,-1,13,15,-1,-1,-1,17,-1,-1,-1,-1],"loss_changes":[9.5690664E4,5.237746E3,2.9931828E4,1.1908739E4,0E0,2.8529523E4,0E0,1.2296387E1,0E0,2.9852344E2,2.1322486E4,0E0,0E0,0E0,6.574937E2,0E0,0E0,0E0,0E0],"parents":[2147483647,0,0,1,1,2,2,3,3,5,5,7,7,9,9,10,10,14,14],"right_children":[2,4,6,8,-1,10,-1,12,-1,14,16,-1,-1,-1,18,-1,-1,-1,-1],"split_conditions":[4.7064E4,4.32341E5,-7.509935E1,3.2919E4,-1.6319329E-1,1.07E2,-1.6305189E-1,3.2865E4,2.1209946E-1,-7.51014E1,3E0,-1.6320996E-1,-1.7891331E-1,1.7860368E-1,2.33437E5,-1.6305335E-1,1.785976E-1,-1.6283904E-1,1.7849606E-1],"split_indices":[9,10,5,9,0,8,0,9,0,5,3,0,0,0,9,0,0,0,0],"split_type":[0,0,0,0,0,0,0,0,0,0,0,0,0,0,0,0,0,0,0],"sum_hessian":[6.305624E5,1.7375556E5,4.568068E5,3.1728025E4,1.4202755E5,4.2609722E5,3.0709596E4,2.0028861E4,1.1699164E4,3.5653975E5,6.955745E4,1.2860563E4,7.1682974E3,3.5418247E5,2.3572854E3,4.2905004E4,2.6652453E4,7.391102E2,1.6181752E3],"tree_param":{"num_deleted":"0","num_feature":"11","num_nodes":"19","size_leaf_vector":"1"}},{"base_weights":[-4.850586E-2,1.3758415E-1,-1.6305596E-1,3.028802E-1,-4.2227006E-1,-1.6305028E-1,3.6647224E-1,-1.6305447E-1,-2.1659166E-1,2.3280472E-1,1.7860237E-1,1.7858768E-1,-1.630508E-1,5.5261254E-1,-2.9445207E-1,1.8403548E-1,-1.667928E-1,1.6536113E-2,-1.7176183E-1],"categories":[],"categories_nodes":[],"categories_segments":[],"categories_sizes":[],"default_left":[0,0,0,0,0,0,0,0,0,0,0,0,0,0,0,0,0,0,0],"id":16,"left_children":[1,3,-1,5,7,-1,9,-1,11,13,-1,-1,-1,15,17,-1,-1,-1,-1],"loss_changes":[5.2390246E4,3.82519E4,0E0,1.7176547E4,2.3495293E3,0E0,9.08043E3,0E0,9.275283E3,3.1597488E4,0E0,0E0,0E0,7.86716E3,6.877585E3,0E0,0E0,0E0,0E0],"parents":[2147483647,0,0,1,1,3,3,4,4,6,6,8,8,9,9,13,13,14,14],"right_children":[2,4,-1,6,8,-1,10,-1,12,14,-1,-1,-1,16,18,-1,-1,-1,-1],"split_conditions":[2.33437E5,1.11E2,-1.6305596E-1,8.631E3,1.34E2,-1.6305028E-1,1.23819E5,-1.6305447E-1,1.35E2,3.2919E4,1.7860237E-1,1.7858768E-1,-1.630508E-1,8.9E1,3.40511E1,1.8403548E-1,-1.667928E-1,1.6536113E-2,-1.7176183E-1],"split_indices":[9,8,0,9,8,0,9,0,8,9,0,0,0,8,4,0,0,0,0],"split_type":[0,0,0,0,0,0,0,0,0,0,0,0,0,0,0,0,0,0,0],"sum_hessian":[5.687331E5,4.133454E5,1.553877E5,3.1912478E5,9.422062E4,2.2301012E4,2.9682375E5,5.9276332E4,3.4944285E4,1.8738584E5,1.0943792E5,1.0031133E4,2.4913152E4,1.166386E5,7.0747234E4,1.1057094E5,6.0676636E3,3.1345219E4,3.940202E4],"tree_param":{"num_deleted":"0","num_feature":"11","num_nodes":"19","size_leaf_vector":"1"}},{"base_weights":[-1.4875874E-1,1.8869044E-1,-1.6305621E-1,-2.5951067E-1,5.5715585E-1,1.7859799E-1,-5.480075E-1,5.971165E-1,3.9868134E-1,-5.440564E-1,-5.830504E-1,6.0414326E-1,1.7860097E-1,1.7859793E-1,-1.6302921E-1,-1.6334926E-1,-1.5964311E-1,-1.632128E-1,-1.7914355E-1,1.7858197E-1,1.8244149E-1],"categories":[],"categories_nodes":[],"categories_segments":[],"categories_sizes":[],"default_left":[0,0,0,0,0,0,0,0,0,0,0,0,0,0,0,0,0,0,0,0,0],"id":17,"left_children":[1,3,-1,5,7,-1,9,11,13,15,17,19,-1,-1,-1,-1,-1,-1,-1,-1,-1],"loss_changes":[7.113013E4,4.754232E4,0E0,3.2032629E4,1.00028906E3,0E0,1.3130859E1,1.2226562E0,5.8952573E3,1.6992188E-1,5.0776367E0,5.390625E-1,0E0,0E0,0E0,0E0,0E0,0E0,0E0,0E0,0E0],"parents":[2147483647,0,0,1,1,3,3,4,4,6,6,7,7,8,8,9,9,10,10,11,11],"right_children":[2,4,-1,6,8,-1,10,12,14,16,18,20,-1,-1,-1,-1,-1,-1,-1,-1,-1],"split_conditions":[6.4397E4,8.9E1,-1.6305621E-1,8.631E3,4.6587E4,1.7859799E-1,8.7E1,1.1E2,3E0,-7.659922E1,-7.664542E1,7.941E3,1.7860097E-1,1.7859793E-1,-1.6302921E-1,-1.6334926E-1,-1.5964311E-1,-1.632128E-1,-1.7914355E-1,1.7858197E-1,1.8244149E-1],"split_indices":[9,8,0,9,9,0,8,8,3,5,5,9,0,0,0,0,0,0,0,0,0],"split_type":[0,0,0,0,0,0,0,0,0,0,0,0,0,0,0,0,0,0,0,0,0],"sum_hessian":[5.3395975E5,2.8787762E5,2.4608211E5,1.298854E5,1.5799222E5,3.277364E4,9.711176E4,1.2617373E5,3.181849E4,8.728666E4,9.825101E3,2.5432613E4,1.0074111E5,2.6324252E4,5.4942383E3,8.4127016E4,3.15964E3,2.6183484E3,7.206752E3,7.944166E3,1.7488447E4],"tree_param":{"num_deleted":"0","num_feature":"11","num_nodes":"21","size_leaf_vector":"1"}},{"base_weights":[1.6318806E-1,-4.492083E-1,3.936812E-1,-9.013928E-2,-1.5972033E-1,4.585847E-1,-1.5951133E-1,-5.466E-1,1.9240262E-1,5.6604534E-1,-1.03784904E-1,-1.5960163E-1,-1.7136584E-1,5.682596E-1,2.2888146E-1,-1.5951324E-1,1.703179E-1,1.7231536E-1,1.703129E-1,-1.5923895E-1,1.7019497E-1],"categories":[],"categories_nodes":[],"categories_segments":[],"categories_sizes":[],"default_left":[0,0,0,0,0,0,0,0,0,0,0,0,0,0,0,0,0,0,0,0,0],"id":18,"left_children":[1,3,5,7,-1,9,-1,11,-1,13,15,-1,-1,17,19,-1,-1,-1,-1,-1,-1],"loss_changes":[6.933772E4,4.0125938E3,2.1435629E4,8.437588E3,0E0,2.015461E4,0E0,5.288086E0,0E0,2.0889844E2,1.5375302E4,0E0,0E0,6.171875E-1,4.7041687E2,0E0,0E0,0E0,0E0,0E0,0E0],"parents":[2147483647,0,0,1,1,2,2,3,3,5,5,7,7,9,9,10,10,13,13,14,14],"right_children":[2,4,6,8,-1,10,-1,12,-1,14,16,-1,-1,18,20,-1,-1,-1,-1,-1,-1],"split_conditions":[4.7064E4,4.32341E5,-7.509935E1,3.2919E4,-1.5972033E-1,1.07E2,-1.5951133E-1,3.2865E4,1.9240262E-1,-7.51014E1,3E0,-1.5960163E-1,-1.7136584E-1,3.40511E1,2.33437E5,-1.5951324E-1,1.703179E-1,1.7231536E-1,1.703129E-1,-1.5923895E-1,1.7019497E-1],"split_indices":[9,10,5,9,0,8,0,9,0,5,3,0,0,4,9,0,0,0,0,0,0],"split_type":[0,0,0,0,0,0,0,0,0,0,0,0,0,0,0,0,0,0,0,0,0],"sum_hessian":[4.9122097E5,1.3432703E5,3.5689394E5,2.5268324E4,1.0905871E5,3.335036E5,2.339034E4,1.5559254E4,9.70907E3,2.7999972E5,5.350388E4,9.782639E3,5.7766147E3,2.7817222E5,1.8275208E3,3.2679082E4,2.0824797E4,2.283282E4,2.5533939E5,5.6306116E2,1.2644596E3],"tree_param":{"num_deleted":"0","num_feature":"11","num_nodes":"21","size_leaf_vector":"1"}},{"base_weights":[-4.6109866E-2,1.310773E-1,-1.595166E-1,2.8590462E-1,-4.119745E-1,-1.5950918E-1,3.4489873E-1,-1.5951467E-1,-2.1033868E-1,2.1778402E-1,1.703238E-1,1.7030424E-1,-1.5950994E-1,4.205936E-1,-5.341532E-1,1.7150632E-1,-3.1656325E-2,-1.613785E-1,-1.5942687E-1],"categories":[],"categories_nodes":[],"categories_segments":[],"categories_sizes":[],"default_left":[0,0,0,0,0,0,0,0,0,0,0,0,0,0,0,0,0,0,0],"id":19,"left_children":[1,3,-1,5,7,-1,9,-1,11,13,-1,-1,-1,15,17,-1,-1,-1,-1],"loss_changes":[3.8093594E4,2.7272732E4,0E0,1.2174662E4,1.7373623E3,0E0,6.668658E3,0E0,6.7045E3,2.2861725E4,0E0,0E0,0E0,9.385578E3,4.296875E-2,0E0,0E0,0E0,0E0],"parents":[2147483647,0,0,1,1,3,3,4,4,6,6,8,8,9,9,13,13,14,14],"right_children":[2,4,-1,6,8,-1,10,-1,12,14,-1,-1,-1,16,18,-1,-1,-1,-1],"split_conditions":[2.33437E5,1.11E2,-1.595166E-1,8.631E3,1.34E2,-1.5950918E-1,1.23819E5,-1.5951467E-1,1.35E2,3.9032E4,1.703238E-1,1.7030424E-1,-1.5950994E-1,-7.664542E1,3.40511E1,1.7150632E-1,-3.1656325E-2,-1.613785E-1,-1.5942687E-1],"split_indices":[9,8,0,9,8,0,9,0,8,9,0,0,0,5,4,0,0,0,0],"split_type":[0,0,0,0,0,0,0,0,0,0,0,0,0,0,0,0,0,0,0],"sum_hessian":[4.4271922E5,3.2436694E5,1.1835227E5,2.5240517E5,7.196176E4,1.6986094E4,2.3541908E5,4.5148668E4,2.681309E4,1.499104E5,8.550867E4,7.837539E3,1.897555E4,1.1806643E5,3.1843977E4,9.1724195E4,2.634223E4,1.3282691E4,1.8561285E4],"tree_param":{"num_deleted":"0","num_feature":"11","num_nodes":"19","size_leaf_vector":"1"}},{"base_weights":[-1.4519314E-1,1.7788963E-1,-1.5951297E-1,-2.5519422E-1,5.314116E-1,1.7031744E-1,-5.3566533E-1,5.6893253E-1,3.8185385E-1,-1.5979484E-1,-5.6164056E-1,1.7208555E-1,1.7032135E-1,1.7031811E-1,-1.5948169E-1,-1.5955418E-1,-1.7152321E-1],"categories":[],"categories_nodes":[],"categories_segments":[],"categories_sizes":[],"default_left":[0,0,0,0,0,0,0,0,0,0,0,0,0,0,0,0,0],"id":20,"left_children":[1,3,-1,5,7,-1,9,11,13,-1,15,-1,-1,-1,-1,-1,-1],"loss_changes":[5.138768E4,3.4318055E4,0E0,2.325121E4,6.923047E2,0E0,5.5878906E0,2.2851562E-1,4.203283E3,0E0,2.0429688E0,0E0,0E0,0E0,0E0,0E0,0E0],"parents":[2147483647,0,0,1,1,3,3,4,4,6,6,7,7,8,8,10,10],"right_children":[2,4,-1,6,8,-1,10,12,14,-1,16,-1,-1,-1,-1,-1,-1],"split_conditions":[6.4397E4,8.9E1,-1.5951297E-1,8.631E3,4.6587E4,1.7031744E-1,8.7E1,1.1E2,3E0,-1.5979484E-1,-7.664542E1,1.7208555E-1,1.7032135E-1,1.7031811E-1,-1.5948169E-1,-1.5955418E-1,-1.7152321E-1],"split_indices":[9,8,0,9,9,0,8,8,3,0,5,0,0,0,0,0,0],"split_type":[0,0,0,0,0,0,0,0,0,0,0,0,0,0,0,0,0],"sum_hessian":[4.1150497E5,2.2414581E5,1.8735917E5,1.0073733E5,1.23408484E5,2.5606193E4,7.513113E4,9.865514E4,2.4753344E4,6.733479E4,7.7963403E3,1.9946055E4,7.8709086E4,2.0568408E4,4.1849365E3,1.9879343E3,5.808406E3],"tree_param":{"num_deleted":"0","num_feature":"11","num_nodes":"17","size_leaf_vector":"1"}},{"base_weights":[1.578953E-1,-4.3411523E-1,3.814857E-1,-8.2503185E-2,-1.571131E-1,4.4390428E-1,-1.5695933E-1,-5.3994596E-1,1.8303168E-1,5.469488E-1,-1.0140781E-1,-1.570099E-1,-1.6892898E-1,5.490683E-1,2.2236012E-1,-1.5696178E-1,1.6460508E-1,1.6599266E-1,1.646055E-1,-1.5660495E-1,1.6445073E-1],"categories":[],"categories_nodes":[],"categories_segments":[],"categories_sizes":[],"default_left":[0,0,0,0,0,0,0,0,0,0,0,0,0,0,0,0,0,0,0,0,0],"id":21,"left_children":[1,3,5,7,-1,9,-1,11,-1,13,15,-1,-1,17,19,-1,-1,-1,-1,-1,-1],"loss_changes":[4.9969355E4,3.260164E3,1.5473531E4,6.65901E3,0E0,1.4403539E4,0E0,4.563965E0,0E0,1.4819531E2,1.1171399E4,0E0,0E0,4.296875E-2,3.3989658E2,0E0,0E0,0E0,0E0,0E0,0E0],"parents":[2147483647,0,0,1,1,2,2,3,3,5,5,7,7,9,9,10,10,13,13,14,14],"right_children":[2,4,6,8,-1,10,-1,12,-1,14,16,-1,-1,18,20,-1,-1,-1,-1,-1,-1],"split_conditions":[4.7064E4,4.32341E5,-7.509935E1,3.2919E4,-1.571131E-1,1.07E2,-1.5695933E-1,3.2865E4,1.8303168E-1,-7.51014E1,3E0,-1.570099E-1,-1.6892898E-1,3.40511E1,2.33437E5,-1.5696178E-1,1.6460508E-1,1.6599266E-1,1.646055E-1,-1.5660495E-1,1.6445073E-1],"split_indices":[9,10,5,9,0,8,0,9,0,5,3,0,0,4,9,0,0,0,0,0,0],"split_type":[0,0,0,0,0,0,0,0,0,0,0,0,0,0,0,0,0,0,0,0,0],"sum_hessian":[3.7750144E5,1.0348871E5,2.7401272E5,2.101565E4,8.247306E4,2.5632789E5,1.7684824E4,1.265663E4,8.3590205E3,2.1558923E5,4.0738652E4,7.3887134E3,5.267916E3,2.1418992E5,1.3993137E3,2.4707746E4,1.6030907E4,1.763777E4,1.9655216E5,4.258259E2,9.734878E2],"tree_param":{"num_deleted":"0","num_feature":"11","num_nodes":"21","size_leaf_vector":"1"}},{"base_weights":[-4.4137433E-2,1.2639044E-1,-1.5696633E-1,2.7341902E-1,-4.0459418E-1,-1.5695408E-1,3.289932E-1,-1.5696365E-1,-2.0589732E-1,2.0665205E-1,1.646126E-1,1.6458695E-1,-1.5695746E-1,5.031118E-1,-2.661775E-1,1.6884361E-1,-1.6006106E-1,1.4084774E-2,-1.6280176E-1],"categories":[],"categories_nodes":[],"categories_segments":[],"categories_sizes":[],"default_left":[0,0,0,0,0,0,0,0,0,0,0,0,0,0,0,0,0,0,0],"id":22,"left_children":[1,3,-1,5,7,-1,9,-1,11,13,-1,-1,-1,15,17,-1,-1,-1,-1],"loss_changes":[2.7849172E4,1.9626812E4,0E0,8.716259E3,1.2847998E3,0E0,4.947041E3,0E0,4.8795986E3,1.6571594E4,0E0,0E0,0E0,4.4972266E3,3.9444192E3,0E0,0E0,0E0,0E0],"parents":[2147483647,0,0,1,1,3,3,4,4,6,6,8,8,9,9,13,13,14,14],"right_children":[2,4,-1,6,8,-1,10,-1,12,14,-1,-1,-1,16,18,-1,-1,-1,-1],"split_conditions":[2.33437E5,1.11E2,-1.5696633E-1,8.631E3,1.34E2,-1.5695408E-1,1.23819E5,-1.5696365E-1,1.35E2,3.2919E4,1.646126E-1,1.6458695E-1,-1.5695746E-1,8.9E1,3.40511E1,1.6884361E-1,-1.6006106E-1,1.4084774E-2,-1.6280176E-1],"split_indices":[9,8,0,9,8,0,9,0,8,9,0,0,0,8,4,0,0,0,0],"split_type":[0,0,0,0,0,0,0,0,0,0,0,0,0,0,0,0,0,0,0],"sum_hessian":[3.4088138E5,2.5139802E5,8.948337E4,1.968822E5,5.451581E4,1.2839051E4,1.8404316E5,3.413581E4,2.038E4,1.1821888E5,6.582427E4,6.0329688E3,1.4347032E4,7.266103E4,4.555785E4,6.87048E4,3.9562322E3,2.1364117E4,2.4193734E4],"tree_param":{"num_deleted":"0","num_feature":"11","num_nodes":"19","size_leaf_vector":"1"}},{"base_weights":[-1.4157176E-1,1.7077853E-1,-1.5696429E-1,-2.5363788E-1,5.1444906E-1,1.6460413E-1,-5.2753323E-1,5.5020976E-1,3.7015438E-1,-1.5716907E-1,-5.5469424E-1,5.5587995E-1,1.6460927E-1,1.646052E-1,-1.5692018E-1,-1.5694414E-1,-1.6906309E-1,1.6455366E-1,1.6768342E-1],"categories":[],"categories_nodes":[],"categories_segments":[],"categories_sizes":[],"default_left":[0,0,0,0,0,0,0,0,0,0,0,0,0,0,0,0,0,0,0],"id":23,"left_children":[1,3,-1,5,7,-1,9,11,13,-1,15,17,-1,-1,-1,-1,-1,-1,-1],"loss_changes":[3.7520617E4,2.5247053E4,0E0,1.7019564E4,4.9332812E2,0E0,5.4121094E0,3.5351562E-1,3.0299678E3,0E0,1.6035156E0,5.6152344E-2,0E0,0E0,0E0,0E0,0E0,0E0,0E0],"parents":[2147483647,0,0,1,1,3,3,4,4,6,6,7,7,8,8,10,10,11,11],"right_children":[2,4,-1,6,8,-1,10,12,14,-1,16,18,-1,-1,-1,-1,-1,-1,-1],"split_conditions":[6.4397E4,8.9E1,-1.5696429E-1,8.631E3,4.6587E4,1.6460413E-1,8.7E1,1.1E2,3E0,-1.5716907E-1,-7.664542E1,7.941E3,1.6460927E-1,1.646052E-1,-1.5692018E-1,-1.5694414E-1,-1.6906309E-1,1.6455366E-1,1.6768342E-1],"split_indices":[9,8,0,9,9,0,8,8,3,0,5,9,0,0,0,0,0,0,0],"split_type":[0,0,0,0,0,0,0,0,0,0,0,0,0,0,0,0,0,0,0],"sum_hessian":[3.1475234E5,1.7308981E5,1.4166253E5,7.74469E4,9.564291E4,1.9709908E4,5.7736992E4,7.664505E4,1.8997857E4,5.0937594E4,6.7993994E3,1.6060569E4,6.0584477E4,1.5833564E4,3.1642932E3,1.5026663E3,5.2967334E3,4.7709204E3,1.1289649E4],"tree_param":{"num_deleted":"0","num_feature":"11","num_nodes":"19","size_leaf_vector":"1"}},{"base_weights":[1.5465721E-1,-4.2756164E-1,3.7400907E-1,-8.0943525E-2,-1.5530616E-1,4.3442392E-1,-1.5510571E-1,-5.297758E-1,1.7338839E-1,5.3388506E-1,-9.970258E-2,-1.551263E-1,-1.6399837E-1,5.359276E-1,2.1768552E-1,-1.5510899E-1,1.6058312E-1,1.627506E-1,1.6058438E-1,-1.5463977E-1,1.6038479E-1],"categories":[],"categories_nodes":[],"categories_segments":[],"categories_sizes":[],"default_left":[0,0,0,0,0,0,0,0,0,0,0,0,0,0,0,0,0,0,0,0,0],"id":24,"left_children":[1,3,5,7,-1,9,-1,11,-1,13,15,-1,-1,17,19,-1,-1,-1,-1,-1,-1],"loss_changes":[3.682741E4,2.4651055E3,1.1275381E4,4.816495E3,0E0,1.0420703E4,0E0,1.7929688E0,0E0,1.0668359E2,8.1603223E3,0E0,0E0,4.0625E-1,2.4727339E2,0E0,0E0,0E0,0E0,0E0,0E0],"parents":[2147483647,0,0,1,1,2,2,3,3,5,5,7,7,9,9,10,10,13,13,14,14],"right_children":[2,4,6,8,-1,10,-1,12,-1,14,16,-1,-1,18,20,-1,-1,-1,-1,-1,-1],"split_conditions":[4.7064E4,4.32341E5,-7.509935E1,3.2919E4,-1.5530616E-1,1.07E2,-1.5510571E-1,3.2865E4,1.7338839E-1,-7.51014E1,3E0,-1.551263E-1,-1.6399837E-1,3.40511E1,2.33437E5,-1.5510899E-1,1.6058312E-1,1.627506E-1,1.6058438E-1,-1.5463977E-1,1.6038479E-1],"split_indices":[9,10,5,9,0,8,0,9,0,5,3,0,0,4,9,0,0,0,0,0,0],"split_type":[0,0,0,0,0,0,0,0,0,0,0,0,0,0,0,0,0,0,0,0,0],"sum_hessian":[2.8836347E5,7.891113E4,2.0945234E5,1.6284338E4,6.2626793E4,1.9615298E5,1.3299353E4,9.686376E3,6.5979624E3,1.653607E5,3.0792275E4,5.5486064E3,4.1377695E3,1.642987E5,1.0620057E3,1.8580686E4,1.2211589E4,1.4631861E4,1.4966684E5,3.2034015E2,7.416655E2],"tree_param":{"num_deleted":"0","num_feature":"11","num_nodes":"21","size_leaf_vector":"1"}},{"base_weights":[-4.261152E-2,1.222916E-1,-1.5511498E-1,2.6265216E-1,-3.9925304E-1,-1.5510002E-1,3.153346E-1,-1.5511137E-1,-2.0269811E-1,1.9641852E-1,1.6059287E-1,1.6056015E-1,-1.5510318E-1,3.856081E-1,-1.5603778E-1,1.6156921E-1,-2.1965666E-2],"categories":[],"categories_nodes":[],"categories_segments":[],"categories_sizes":[],"default_left":[0,0,0,0,0,0,0,0,0,0,0,0,0,0,0,0,0],"id":25,"left_children":[1,3,-1,5,7,-1,9,-1,11,13,-1,-1,-1,15,-1,-1,-1],"loss_changes":[2.041225E4,1.4173245E4,0E0,6.266211E3,9.504033E2,0E0,3.7379482E3,0E0,3.5687107E3,1.2574757E4,0E0,0E0,0E0,5.1501133E3,0E0,0E0,0E0],"parents":[2147483647,0,0,1,1,3,3,4,4,6,6,8,8,9,9,13,13],"right_children":[2,4,-1,6,8,-1,10,-1,12,14,-1,-1,-1,16,-1,-1,-1],"split_conditions":[2.33437E5,1.11E2,-1.5511498E-1,8.631E3,1.34E2,-1.5510002E-1,1.23819E5,-1.5511137E-1,1.35E2,3.9032E4,1.6059287E-1,1.6056015E-1,-1.5510318E-1,-7.664542E1,-1.5603778E-1,1.6156921E-1,-2.1965666E-2],"split_indices":[9,8,0,9,8,0,9,0,8,9,0,0,0,5,0,0,0],"split_type":[0,0,0,0,0,0,0,0,0,0,0,0,0,0,0,0,0],"sum_hessian":[2.6090303E5,1.9360978E5,6.729326E4,1.5255417E5,4.10556E4,9.655326E3,1.4289886E5,2.5670824E4,1.5384778E4,9.275721E4,5.0141645E4,4.595472E3,1.0789307E4,7.338247E4,1.9374744E4,5.5035496E4,1.8346969E4],"tree_param":{"num_deleted":"0","num_feature":"11","num_nodes":"17","size_leaf_vector":"1"}},{"base_weights":[-1.403361E-1,1.6348557E-1,-1.5511271E-1,-2.5289822E-1,5.0178653E-1,1.6058283E-1,-5.207046E-1,1.6090953E-1,3.618723E-1,-1.553947E-1,-5.406315E-1,1.6058317E-1,-1.5505372E-1,-1.5501955E-1,-1.6409278E-1],"categories":[],"categories_nodes":[],"categories_segments":[],"categories_sizes":[],"default_left":[0,0,0,0,0,0,0,0,0,0,0,0,0,0,0],"id":26,"left_children":[1,3,-1,5,7,-1,9,-1,11,-1,13,-1,-1,-1,-1],"loss_changes":[2.7304908E4,1.8602754E4,0E0,1.2496045E4,3.523203E2,0E0,2.118164E0,0E0,2.2008706E3,0E0,5.1916504E-1,0E0,0E0,0E0,0E0],"parents":[2147483647,0,0,1,1,3,3,4,4,6,6,8,8,10,10],"right_children":[2,4,-1,6,8,-1,10,-1,12,-1,14,-1,-1,-1,-1],"split_conditions":[6.4397E4,8.9E1,-1.5511271E-1,8.631E3,4.6587E4,1.6058283E-1,8.7E1,1.6090953E-1,3E0,-1.553947E-1,-7.664542E1,1.6058317E-1,-1.5505372E-1,-1.5501955E-1,-1.6409278E-1],"split_indices":[9,8,0,9,9,0,8,0,3,0,5,0,0,0,0],"split_type":[0,0,0,0,0,0,0,0,0,0,0,0,0,0,0],"sum_hessian":[2.3857006E5,1.3206078E5,1.0650928E5,5.9198727E4,7.2862055E4,1.5013088E4,4.418564E4,5.8421E4,1.4441059E4,3.8898473E4,5.287165E3,1.2061292E4,2.3797666E3,1.1264094E3,4.160756E3],"tree_param":{"num_deleted":"0","num_feature":"11","num_nodes":"15","size_leaf_vector":"1"}},{"base_weights":[1.5147217E-1,-4.1509533E-1,3.677601E-1,-7.368234E-2,-1.5390413E-1,4.2693245E-1,-1.5375136E-1,-5.2600724E-1,1.6877304E-1,5.24196E-1,-9.846819E-2,-1.537544E-1,-1.6228943E-1,1.578576E-1,2.1427134E-1,-1.5375571E-1,1.5771061E-1,-1.5313444E-1,1.574519E-1],"categories":[],"categories_nodes":[],"categories_segments":[],"categories_sizes":[],"default_left":[0,0,0,0,0,0,0,0,0,0,0,0,0,0,0,0,0,0,0],"id":27,"left_children":[1,3,5,7,-1,9,-1,11,-1,13,15,-1,-1,-1,17,-1,-1,-1,-1],"loss_changes":[2.6781705E4,2.0185615E3,8.238863E3,3.873766E3,0E0,7.5738047E3,0E0,1.3103027E0,0E0,7.724219E1,5.983548E3,0E0,0E0,0E0,1.8075761E2,0E0,0E0,0E0,0E0],"parents":[2147483647,0,0,1,1,2,2,3,3,5,5,7,7,9,9,10,10,14,14],"right_children":[2,4,6,8,-1,10,-1,12,-1,14,16,-1,-1,-1,18,-1,-1,-1,-1],"split_conditions":[4.7064E4,4.32341E5,-7.509935E1,3.2919E4,-1.5390413E-1,1.07E2,-1.5375136E-1,3.2865E4,1.6877304E-1,-7.51014E1,3E0,-1.537544E-1,-1.6228943E-1,1.578576E-1,2.33437E5,-1.5375571E-1,1.5771061E-1,-1.5313444E-1,1.574519E-1],"split_indices":[9,10,5,9,0,8,0,9,0,5,3,0,0,0,9,0,0,0,0],"split_type":[0,0,0,0,0,0,0,0,0,0,0,0,0,0,0,0,0,0,0],"sum_hessian":[2.1854952E5,6.038078E4,1.5816873E5,1.345809E4,4.692269E4,1.4820662E5,9.9621E3,7.8661294E3,5.5919604E3,1.25055945E5,2.3150688E4,4.154122E3,3.7120073E3,1.2425504E5,8.0090955E2,1.3918116E4,9.23257E3,2.4006586E2,5.608437E2],"tree_param":{"num_deleted":"0","num_feature":"11","num_nodes":"19","size_leaf_vector":"1"}},{"base_weights":[-4.1221894E-2,1.1902888E-1,-1.5376368E-1,2.5380057E-1,-3.9534298E-1,-1.5374438E-1,3.0407283E-1,-1.5375823E-1,-2.0031354E-1,1.87895E-1,1.5772332E-1,1.5768108E-1,-1.5374672E-1,4.7496846E-1,-2.4607818E-1,1.6106743E-1,-1.5613413E-1,1.2310923E-2,-1.5779261E-1],"categories":[],"categories_nodes":[],"categories_segments":[],"categories_sizes":[],"default_left":[0,0,0,0,0,0,0,0,0,0,0,0,0,0,0,0,0,0,0],"id":28,"left_children":[1,3,-1,5,7,-1,9,-1,11,13,-1,-1,-1,15,17,-1,-1,-1,-1],"loss_changes":[1.5005255E4,1.027778E4,0E0,4.525743E3,7.033794E2,0E0,2.8391094E3,0E0,2.6187422E3,9.012013E3,0E0,0E0,0E0,2.6838857E3,2.3145024E3,0E0,0E0,0E0,0E0],"parents":[2147483647,0,0,1,1,3,3,4,4,6,6,8,8,9,9,13,13,14,14],"right_children":[2,4,-1,6,8,-1,10,-1,12,14,-1,-1,-1,16,18,-1,-1,-1,-1],"split_conditions":[2.33437E5,1.11E2,-1.5376368E-1,8.631E3,1.34E2,-1.5374438E-1,1.23819E5,-1.5375823E-1,1.35E2,3.2919E4,1.5772332E-1,1.5768108E-1,-1.5374672E-1,8.9E1,3.40511E1,1.6106743E-1,-1.5613413E-1,1.2310923E-2,-1.5779261E-1],"split_indices":[9,8,0,9,8,0,9,0,8,9,0,0,0,8,4,0,0,0,0],"split_type":[0,0,0,0,0,0,0,0,0,0,0,0,0,0,0,0,0,0,0],"sum_hessian":[1.9866439E5,1.4825739E5,5.0406996E4,1.174774E5,3.0780002E4,7.232089E3,1.10245305E5,1.9226209E4,1.1553793E4,7.233595E4,3.790935E4,3.4742544E3,8.0795386E3,4.3536465E4,2.8799488E4,4.098719E4,2.5492751E3,1.4216872E4,1.4582615E4],"tree_param":{"num_deleted":"0","num_feature":"11","num_nodes":"19","size_leaf_vector":"1"}},{"base_weights":[-1.3806865E-1,1.587293E-1,-1.5376271E-1,-2.5398007E-1,4.9343544E-1,1.5771109E-1,-5.16332E-1,1.5809208E-1,3.5593086E-1,-1.5396962E-1,-5.359664E-1,1.5771055E-1,-1.5368198E-1,-1.5361145E-1,-1.6237026E-1],"categories":[],"categories_nodes":[],"categories_segments":[],"categories_sizes":[],"default_left":[0,0,0,0,0,0,0,0,0,0,0,0,0,0,0],"id":29,"left_children":[1,3,-1,5,7,-1,9,-1,11,-1,13,-1,-1,-1,-1],"loss_changes":[2.0056271E4,1.3906072E4,0E0,9.221806E3,2.5616113E2,0E0,1.7773438E0,0E0,1.6072842E3,0E0,2.9992676E-1,0E0,0E0,0E0,0E0],"parents":[2147483647,0,0,1,1,3,3,4,4,6,6,8,8,10,10],"right_children":[2,4,-1,6,8,-1,10,-1,12,-1,14,-1,-1,-1,-1],"split_conditions":[6.4397E4,8.9E1,-1.5376271E-1,8.631E3,4.6587E4,1.5771109E-1,8.7E1,1.5809208E-1,3E0,-1.5396962E-1,-7.664542E1,1.5771055E-1,-1.5368198E-1,-1.5361145E-1,-1.6237026E-1],"split_indices":[9,8,0,9,9,0,8,0,3,0,5,0,0,0,0],"split_type":[0,0,0,0,0,0,0,0,0,0,0,0,0,0,0],"sum_hessian":[1.8045289E5,1.0066726E5,7.978563E4,4.5080723E4,5.5586535E4,1.1349659E4,3.3731062E4,4.468482E4,1.0901715E4,2.9155156E4,4.5759062E3,9.118963E3,1.782752E3,8.4334064E2,3.7325654E3],"tree_param":{"num_deleted":"0","num_feature":"11","num_nodes":"15","size_leaf_vector":"1"}},{"base_weights":[1.4983967E-1,-4.1184843E-1,3.644796E-1,-7.328472E-2,-1.5294291E-1,4.2243138E-1,-1.5275681E-1,-5.193673E-1,1.6353536E-1,5.1748914E-1,-9.756808E-2,-1.5274213E-1,-1.5907887E-1,5.194376E-1,2.1172498E-1,-1.527626E-1,1.5563712E-1,1.5749873E-1,1.5564904E-1,-1.519363E-1,1.5529646E-1],"categories":[],"categories_nodes":[],"categories_segments":[],"categories_sizes":[],"default_left":[0,0,0,0,0,0,0,0,0,0,0,0,0,0,0,0,0,0,0,0,0],"id":30,"left_children":[1,3,5,7,-1,9,-1,11,-1,13,15,-1,-1,17,19,-1,-1,-1,-1,-1,-1],"loss_changes":[1.9933229E4,1.5160801E3,6.0568896E3,2.8304985E3,0E0,5.545297E3,0E0,3.9416504E-1,0E0,5.6396484E1,4.399479E3,0E0,0E0,4.4921875E-2,1.3258514E2,0E0,0E0,0E0,0E0,0E0,0E0],"parents":[2147483647,0,0,1,1,2,2,3,3,5,5,7,7,9,9,10,10,13,13,14,14],"right_children":[2,4,6,8,-1,10,-1,12,-1,14,16,-1,-1,18,20,-1,-1,-1,-1,-1,-1],"split_conditions":[4.7064E4,4.32341E5,-7.509935E1,3.2919E4,-1.5294291E-1,1.07E2,-1.5275681E-1,3.2865E4,1.6353536E-1,-7.51014E1,3E0,-1.5274213E-1,-1.5907887E-1,3.40511E1,2.33437E5,-1.527626E-1,1.5563712E-1,1.5749873E-1,1.5564904E-1,-1.519363E-1,1.5529646E-1],"split_indices":[9,10,5,9,0,8,0,9,0,5,3,0,0,4,9,0,0,0,0,0,0],"split_type":[0,0,0,0,0,0,0,0,0,0,0,0,0,0,0,0,0,0,0,0,0],"sum_hessian":[1.6533545E5,4.571185E4,1.196236E5,1.0258659E4,3.545319E4,1.1218286E5,7.4407407E3,5.959764E3,4.298895E3,9.4844875E4,1.7337982E4,3.0988489E3,2.8609153E3,9.4243625E4,6.012551E2,1.0395456E4,6.942527E3,9.200766E3,8.504286E4,1.7941582E2,4.218393E2],"tree_param":{"num_deleted":"0","num_feature":"11","num_nodes":"21","size_leaf_vector":"1"}},{"base_weights":[-4.012919E-2,1.1592754E-1,-1.5277284E-1,2.456386E-1,-3.924696E-1,-1.5274805E-1,2.9374486E-1,-1.5276575E-1,-1.9853698E-1,-1.5457137E-1,3.2717338E-1,1.5559904E-1,-1.5275024E-1,2.2385786E-1,1.5565386E-1,1.0844218E-1,-1.5327355E-1],"categories":[],"categories_nodes":[],"categories_segments":[],"categories_sizes":[],"default_left":[0,0,0,0,0,0,0,0,0,0,0,0,0,0,0,0,0],"id":31,"left_children":[1,3,-1,5,7,-1,9,-1,11,-1,13,-1,-1,15,-1,-1,-1],"loss_changes":[1.1040369E4,7.462584E3,0E0,3.27392E3,5.2073315E2,0E0,2.292313E3,0E0,1.9264546E3,0E0,1.6117529E3,0E0,0E0,5.3482207E3,0E0,0E0,0E0],"parents":[2147483647,0,0,1,1,3,3,4,4,6,6,8,8,10,10,13,13],"right_children":[2,4,-1,6,8,-1,10,-1,12,-1,14,-1,-1,16,-1,-1,-1],"split_conditions":[2.33437E5,1.11E2,-1.5277284E-1,8.631E3,1.34E2,-1.5274805E-1,1E0,-1.5276575E-1,1.35E2,-1.5457137E-1,7.2729E4,1.5559904E-1,-1.5275024E-1,3.9032E4,1.5565386E-1,1.0844218E-1,-1.5327355E-1],"split_indices":[9,8,0,9,8,0,8,0,8,0,9,0,0,9,0,0,0],"split_type":[0,0,0,0,0,0,0,0,0,0,0,0,0,0,0,0,0],"sum_hessian":[1.5080573E5,1.1316176E5,3.7643977E4,9.015928E4,2.3002475E4,5.4013438E3,8.475794E4,1.4357487E4,8.644987E3,3.3627878E3,8.139515E4,2.612481E3,6.032507E3,5.2889055E4,2.8506098E4,4.4546402E4,8.342651E3],"tree_param":{"num_deleted":"0","num_feature":"11","num_nodes":"17","size_leaf_vector":"1"}},{"base_weights":[-1.3806096E-1,1.5283829E-1,-1.527727E-1,-2.552024E-1,4.8681706E-1,1.5563893E-1,-5.1237583E-1,1.5592082E-1,3.516253E-1,-1.5302823E-1,-1.5799959E-1,1.5563697E-1,-1.5266405E-1],"categories":[],"categories_nodes":[],"categories_segments":[],"categories_sizes":[],"default_left":[0,0,0,0,0,0,0,0,0,0,0,0,0],"id":32,"left_children":[1,3,-1,5,7,-1,9,-1,11,-1,-1,-1,-1],"loss_changes":[1.4642604E4,1.0360827E4,0E0,6.811805E3,1.858789E2,0E0,5.6884766E-1,0E0,1.1783352E3,0E0,0E0,0E0,0E0],"parents":[2147483647,0,0,1,1,3,3,4,4,6,6,8,8],"right_children":[2,4,-1,6,8,-1,10,-1,12,-1,-1,-1,-1],"split_conditions":[6.4397E4,8.9E1,-1.527727E-1,8.631E3,4.6587E4,1.5563893E-1,8.7E1,1.5592082E-1,3E0,-1.5302823E-1,-1.5799959E-1,1.5563697E-1,-1.5266405E-1],"split_indices":[9,8,0,9,9,0,8,0,3,0,0,0,0],"split_type":[0,0,0,0,0,0,0,0,0,0,0,0,0],"sum_hessian":[1.356076E5,7.6025836E4,5.958176E4,3.4218906E4,4.180693E4,8.53391E3,2.5684994E4,3.361812E4,8.1888076E3,2.2179947E4,3.5050479E3,6.8571187E3,1.3316891E3],"tree_param":{"num_deleted":"0","num_feature":"11","num_nodes":"13","size_leaf_vector":"1"}},{"base_weights":[1.4726552E-1,-3.9140224E-1,3.611421E-1,-2.8386882E-2,-1.5222299E-1,4.1844192E-1,-1.5202294E-1,-5.1507986E-1,1.6230078E-1,5.123469E-1,-9.69087E-2,-1.5204825E-1,-1.5702312E-1,1.5428156E-1,2.0977093E-1,-1.5203069E-1,1.5412793E-1,-1.5092856E-1,1.5367651E-1],"categories":[],"categories_nodes":[],"categories_segments":[],"categories_sizes":[],"default_left":[0,0,0,0,0,0,0,0,0,0,0,0,0,0,0,0,0,0,0],"id":33,"left_children":[1,3,5,7,-1,9,-1,11,-1,13,15,-1,-1,-1,17,-1,-1,-1,-1],"loss_changes":[1.441366E4,1.4973745E3,4.453623E3,2.3868313E3,0E0,4.0654668E3,0E0,5.3955078E-2,0E0,4.128125E1,3.2412104E3,0E0,0E0,0E0,9.7484535E1,0E0,0E0,0E0,0E0],"parents":[2147483647,0,0,1,1,2,2,3,3,5,5,7,7,9,9,10,10,14,14],"right_children":[2,4,6,8,-1,10,-1,12,-1,14,16,-1,-1,-1,18,-1,-1,-1,-1],"split_conditions":[4.7064E4,4.32341E5,-7.509935E1,3.2919E4,-1.5222299E-1,1.07E2,-1.5202294E-1,3.2865E4,1.6230078E-1,-7.51014E1,3E0,-1.5204825E-1,-1.5702312E-1,1.5428156E-1,2.33437E5,-1.5203069E-1,1.5412793E-1,-1.5092856E-1,1.5367651E-1],"split_indices":[9,10,5,9,0,8,0,9,0,5,3,0,0,0,9,0,0,0,0],"split_type":[0,0,0,0,0,0,0,0,0,0,0,0,0,0,0,0,0,0,0],"sum_hessian":[1.2510721E5,3.5555812E4,8.95514E4,8.611051E3,2.6944762E4,8.4005664E4,5.5457334E3,4.6427207E3,3.9683298E3,7.105782E4,1.2947846E4,2.3633743E3,2.2793467E3,7.060792E4,4.4989514E2,7.7478906E3,5.1999546E3,1.3383118E2,3.1606396E2],"tree_param":{"num_deleted":"0","num_feature":"11","num_nodes":"19","size_leaf_vector":"1"}},{"base_weights":[-3.9329115E-2,1.1045051E-1,-1.5204458E-1,2.3242918E-1,-3.9035842E-1,1.0997599E-1,1.5415019E-1,-1.5203516E-1,-1.9723183E-1,2.4403237E-1,-1.5268937E-1,1.540782E-1,-1.5201469E-1,3.2868508E-1,-1.5386383E-1,-1.520037E-1,1.2320225E-1],"categories":[],"categories_nodes":[],"categories_segments":[],"categories_sizes":[],"default_left":[0,0,0,0,0,0,0,0,0,0,0,0,0,0,0,0,0],"id":34,"left_children":[1,3,-1,5,7,9,-1,-1,11,13,-1,-1,-1,15,-1,-1,-1],"loss_changes":[8.096337E3,5.3496826E3,0E0,2.426566E3,3.8556323E2,4.0715935E3,0E0,0E0,1.4197869E3,2.5845938E3,0E0,0E0,0E0,2.4849126E3,0E0,0E0,0E0],"parents":[2147483647,0,0,1,1,3,3,4,4,5,5,8,8,9,9,13,13],"right_children":[2,4,-1,6,8,10,-1,-1,12,14,-1,-1,-1,16,-1,-1,-1],"split_conditions":[2.33437E5,1.11E2,-1.5204458E-1,1.23819E5,1.34E2,3.9032E4,1.5415019E-1,-1.5203516E-1,1.35E2,8.9E1,-1.5268937E-1,1.540782E-1,-1.5201469E-1,8.631E3,-1.5386383E-1,-1.520037E-1,1.2320225E-1],"split_indices":[9,8,0,9,8,9,0,0,8,8,0,0,0,9,0,0,0],"split_type":[0,0,0,0,0,0,0,0,0,0,0,0,0,0,0,0,0],"sum_hessian":[1.1562729E5,8.757089E4,2.8056398E4,7.041976E4,1.715113E4,4.906885E4,2.1350904E4,1.0699416E4,6.451715E3,4.03336E4,8.735252E3,1.9567562E3,4.494959E3,3.6276965E4,4.056636E3,3.241816E3,3.303515E4],"tree_param":{"num_deleted":"0","num_feature":"11","num_nodes":"17","size_leaf_vector":"1"}},{"base_weights":[-1.3514037E-1,1.4810936E-1,-1.5204547E-1,-2.6049432E-1,4.8329106E-1,1.5413144E-1,-5.095693E-1,1.5455903E-1,3.4847796E-1,-1.5231761E-1,-1.5621245E-1,1.5412769E-1,-1.5189862E-1],"categories":[],"categories_nodes":[],"categories_segments":[],"categories_sizes":[],"default_left":[0,0,0,0,0,0,0,0,0,0,0,0,0],"id":35,"left_children":[1,3,-1,5,7,-1,9,-1,11,-1,-1,-1,-1],"loss_changes":[1.0810301E4,7.9811826E3,0E0,5.064818E3,1.37521E2,0E0,1.430664E-1,0E0,8.6628455E2,0E0,0E0,0E0,0E0],"parents":[2147483647,0,0,1,1,3,3,4,4,6,6,8,8],"right_children":[2,4,-1,6,8,-1,10,-1,12,-1,-1,-1,-1],"split_conditions":[6.4397E4,8.9E1,-1.5204547E-1,8.631E3,4.6587E4,1.5413144E-1,8.7E1,1.5455903E-1,3E0,-1.5231761E-1,-1.5621245E-1,1.5412769E-1,-1.5189862E-1],"split_indices":[9,8,0,9,9,0,8,0,3,0,0,0,0],"split_type":[0,0,0,0,0,0,0,0,0,0,0,0,0],"sum_hessian":[1.0268201E5,5.8273395E4,4.4408617E4,2.62606E4,3.2012793E4,6.391413E3,1.9869186E4,2.5884092E4,6.128701E3,1.7087146E4,2.782039E3,5.136025E3,9.926763E2],"tree_param":{"num_deleted":"0","num_feature":"11","num_nodes":"13","size_leaf_vector":"1"}},{"base_weights":[1.469722E-1,-1.5192612E-1,3.134692E-1,4.2500648E-1,-2.0789117E-1,4.7526437E-1,-1.5146741E-1,1.5302135E-1,-5.017392E-1,1.6845283E-1,5.0859314E-1,-3.033913E-1,-1.5149774E-1,1.6143447E-1,-1.5257552E-1,1.531506E-1,2.0821054E-1,1.4815252E-1,-1.5029435E-1,-1.5001644E-1,1.524208E-1],"categories":[],"categories_nodes":[],"categories_segments":[],"categories_sizes":[],"default_left":[0,0,0,0,0,0,0,0,0,0,0,0,0,0,0,0,0,0,0,0,0],"id":36,"left_children":[1,-1,3,5,7,9,-1,-1,11,13,15,17,-1,-1,-1,-1,19,-1,-1,-1,-1],"loss_changes":[1.0278594E4,0E0,4.378602E3,2.8990186E3,2.799893E3,6.016572E2,0E0,0E0,5.9230957E0,1.4437561E3,3.0330078E1,2.4579002E1,0E0,0E0,0E0,0E0,7.179581E1,0E0,0E0,0E0,0E0],"parents":[2147483647,0,0,2,2,3,3,4,4,5,5,8,8,9,9,10,10,11,11,16,16],"right_children":[2,-1,4,6,8,10,-1,-1,12,14,16,18,-1,-1,-1,-1,20,-1,-1,-1,-1],"split_conditions":[3.5439E4,-1.5192612E-1,1.07E2,-7.509935E1,-1.2265064E2,3.9032E4,-1.5146741E-1,1.5302135E-1,-1.22643524E2,2.018E3,-7.51014E1,1.33E2,-1.5149774E-1,1.6143447E-1,-1.5257552E-1,1.531506E-1,2.33437E5,1.4815252E-1,-1.5029435E-1,-1.5001644E-1,1.524208E-1],"split_indices":[9,0,8,5,5,9,0,0,5,0,5,8,0,0,0,0,9,0,0,0,0],"split_type":[0,0,0,0,0,0,0,0,0,0,0,0,0,0,0,0,0,0,0,0,0],"sum_hessian":[9.4480414E4,1.9185957E4,7.529445E4,6.202526E4,1.3269193E4,5.8845355E4,3.1799067E3,3.8534004E3,9.415793E3,5.7665806E3,5.3078773E4,1.5346167E2,9.262331E3,3.7301353E3,2.0364453E3,5.2742914E4,3.3585788E2,3.0182474E1,1.232792E2,9.969978E1,2.3615811E2],"tree_param":{"num_deleted":"0","num_feature":"11","num_nodes":"21","size_leaf_vector":"1"}},{"base_weights":[-3.8810942E-2,1.0665627E-1,-1.515073E-1,2.2347692E-1,-3.887852E-1,1.0377744E-1,1.530513E-1,-1.5149498E-1,-1.9621898E-1,2.2918658E-1,-1.5197638E-1,1.5295601E-1,-1.5146779E-1,3.980574E-1,-1.4910448E-1,-1.514533E-1,1.5377538E-1,4.945698E-2,-1.5843737E-1],"categories":[],"categories_nodes":[],"categories_segments":[],"categories_sizes":[],"default_left":[0,0,0,0,0,0,0,0,0,0,0,0,0,0,0,0,0,0,0],"id":37,"left_children":[1,3,-1,5,7,9,-1,-1,11,13,-1,-1,-1,15,17,-1,-1,-1,-1],"loss_changes":[5.953348E3,3.8725288E3,0E0,1.8579397E3,2.8555884E2,2.9238525E3,0E0,0E0,1.0477133E3,2.024264E3,0E0,0E0,0E0,2.2656243E3,1.1638993E3,0E0,0E0,0E0,0E0],"parents":[2147483647,0,0,1,1,3,3,4,4,5,5,8,8,9,9,13,13,14,14],"right_children":[2,4,-1,6,8,10,-1,-1,12,14,-1,-1,-1,16,18,-1,-1,-1,-1],"split_conditions":[2.33437E5,1.11E2,-1.515073E-1,1.23819E5,1.34E2,3.9032E4,1.530513E-1,-1.5149498E-1,1.35E2,-7.664542E1,-1.5197638E-1,1.5295601E-1,-1.5146779E-1,8.631E3,3.2919E4,-1.514533E-1,1.5377538E-1,4.945698E-2,-1.5843737E-1],"split_indices":[9,8,0,9,8,9,0,0,8,5,0,0,0,9,9,0,0,0,0],"split_type":[0,0,0,0,0,0,0,0,0,0,0,0,0,0,0,0,0,0,0],"sum_hessian":[8.7781414E4,6.690621E4,2.0875205E4,5.4140832E4,1.2765373E4,3.819511E4,1.5945723E4,7.960337E3,4.8050366E3,3.168546E4,6.5096504E3,1.4614365E3,3.3435999E3,2.1906326E4,9.779134E3,2.465508E3,1.9440818E4,5.3489224E3,4.4302114E3],"tree_param":{"num_deleted":"0","num_feature":"11","num_nodes":"19","size_leaf_vector":"1"}},{"base_weights":[-1.3625455E-1,-3.6549023E-1,3.1443435E-1,4.872693E-1,-4.917923E-1,4.7614846E-1,-1.5147957E-1,2.0848975E-1,1.5317023E-1,-1.9545932E-1,-1.5174963E-1,1.5328228E-1,3.461572E-1,-1.5066472E-1,1.526324E-1,1.5448365E-1,-1.5155588E-1,1.530213E-1,-1.513115E-1],"categories":[],"categories_nodes":[],"categories_segments":[],"categories_sizes":[],"default_left":[0,0,0,0,0,0,0,0,0,0,0,0,0,0,0,0,0,0,0],"id":38,"left_children":[1,3,5,7,9,11,-1,13,-1,15,-1,-1,17,-1,-1,-1,-1,-1,-1],"loss_changes":[7.9459316E3,5.4910503E3,3.4361025E3,4.261194E1,1.8464062E2,9.777051E1,0E0,1.0887374E2,0E0,4.4257828E2,0E0,0E0,6.381732E2,0E0,0E0,0E0,0E0,0E0,0E0],"parents":[2147483647,0,0,1,1,2,2,3,3,4,4,5,5,7,7,9,9,12,12],"right_children":[2,4,6,8,10,12,-1,14,-1,16,-1,-1,18,-1,-1,-1,-1,-1,-1],"split_conditions":[1.08E2,1.0734E4,6.4397E4,8E0,1.3114E4,4.6587E4,-1.5147957E-1,3.41512E1,1.5317023E-1,2.018E3,-1.5174963E-1,1.5328228E-1,3E0,-1.5066472E-1,1.526324E-1,1.5448365E-1,-1.5155588E-1,1.530213E-1,-1.513115E-1],"split_indices":[8,9,9,8,9,9,0,4,0,0,0,0,3,0,0,0,0,0,0],"split_type":[0,0,0,0,0,0,0,0,0,0,0,0,0,0,0,0,0,0,0],"sum_hessian":[7.69084E4,5.0978957E4,2.592944E4,6.576078E3,4.440288E4,2.1655771E4,4.273669E3,5.0795523E2,6.068123E3,2.0092491E3,4.239363E4,1.7081057E4,4.574715E3,1.5067339E2,3.5728183E2,6.098364E2,1.3994128E3,3.8358672E3,7.388474E2],"tree_param":{"num_deleted":"0","num_feature":"11","num_nodes":"19","size_leaf_vector":"1"}},{"base_weights":[1.4478293E-1,-1.5149425E-1,3.1164286E-1,4.2233878E-1,-2.0716313E-1,4.722011E-1,-1.5105636E-1,1.522045E-1,-5.0039434E-1,1.6548963E-1,5.0583893E-1,-3.012181E-1,-1.5109755E-1,1.5828547E-1,-1.5186027E-1,1.5232122E-1,2.0686351E-1,1.4581677E-1,-1.4949118E-1,-1.4911716E-1,1.5140252E-1],"categories":[],"categories_nodes":[],"categories_segments":[],"categories_sizes":[],"default_left":[0,0,0,0,0,0,0,0,0,0,0,0,0,0,0,0,0,0,0,0,0],"id":39,"left_children":[1,-1,3,5,7,9,-1,-1,11,13,15,17,-1,-1,-1,-1,19,-1,-1,-1,-1],"loss_changes":[7.6488965E3,0E0,3.2238076E3,2.1359834E3,2.0685098E3,4.528291E2,0E0,0E0,4.399048E0,1.0559657E3,2.2348633E1,1.8139917E1,0E0,0E0,0E0,0E0,5.2932877E1,0E0,0E0,0E0,0E0],"parents":[2147483647,0,0,2,2,3,3,4,4,5,5,8,8,9,9,10,10,11,11,16,16],"right_children":[2,-1,4,6,8,10,-1,-1,12,14,16,18,-1,-1,-1,-1,20,-1,-1,-1,-1],"split_conditions":[3.5439E4,-1.5149425E-1,1.07E2,-7.509935E1,-1.2265064E2,3.9032E4,-1.5105636E-1,1.522045E-1,-1.22643524E2,2.018E3,-7.51014E1,1.33E2,-1.5109755E-1,1.5828547E-1,-1.5186027E-1,1.5232122E-1,2.33437E5,1.4581677E-1,-1.4949118E-1,-1.4911716E-1,1.5140252E-1],"split_indices":[9,0,8,5,5,9,0,0,5,0,5,8,0,0,0,0,9,0,0,0,0],"split_type":[0,0,0,0,0,0,0,0,0,0,0,0,0,0,0,0,0,0,0,0,0],"sum_hessian":[7.0546625E4,1.441431E4,5.6132316E4,4.6261777E4,9.870538E3,4.389813E4,2.3636501E3,2.8719E3,6.9986387E3,4.3391816E3,3.9558945E4,1.1434963E2,6.884289E3,2.8193823E3,1.5197996E3,3.9308645E4,2.5030272E2,2.260121E1,9.174842E1,7.421523E1,1.7608748E2],"tree_param":{"num_deleted":"0","num_feature":"11","num_nodes":"21","size_leaf_vector":"1"}},{"base_weights":[-3.8158536E-2,1.048701E-1,-1.5111005E-1,2.1884225E-1,-3.876018E-1,1.0107512E-1,1.5224431E-1,-1.5109384E-1,-1.9543037E-1,2.219451E-1,-1.5144715E-1,1.5211815E-1,-1.5105778E-1,3.0725807E-1,-1.5235366E-1,-1.5105382E-1,1.1433523E-1],"categories":[],"categories_nodes":[],"categories_segments":[],"categories_sizes":[],"default_left":[0,0,0,0,0,0,0,0,0,0,0,0,0,0,0,0,0],"id":40,"left_children":[1,3,-1,5,7,9,-1,-1,11,13,-1,-1,-1,15,-1,-1,-1],"loss_changes":[4.3958096E3,2.8346553E3,0E0,1.3940149E3,2.1156421E2,2.1333362E3,0E0,0E0,7.740492E2,1.5121407E3,0E0,0E0,0E0,1.3022656E3,0E0,0E0,0E0],"parents":[2147483647,0,0,1,1,3,3,4,4,5,5,8,8,9,9,13,13],"right_children":[2,4,-1,6,8,10,-1,-1,12,14,-1,-1,-1,16,-1,-1,-1],"split_conditions":[2.33437E5,1.11E2,-1.5111005E-1,1.23819E5,1.34E2,3.9032E4,1.5224431E-1,-1.5109384E-1,1.35E2,8.9E1,-1.5144715E-1,1.5211815E-1,-1.5105778E-1,8.631E3,-1.5235366E-1,-1.5105382E-1,1.1433523E-1],"split_indices":[9,8,0,9,8,9,0,0,8,8,0,0,0,9,0,0,0],"split_type":[0,0,0,0,0,0,0,0,0,0,0,0,0,0,0,0,0],"sum_hessian":[6.601545E4,5.0500824E4,1.5514627E4,4.10104E4,9.490429E3,2.912748E4,1.1882916E4,5.916238E3,3.574191E3,2.4283775E4,4.843705E3,1.0894598E3,2.4847312E3,2.1742629E4,2.5411472E3,1.8148452E3,1.9927783E4],"tree_param":{"num_deleted":"0","num_feature":"11","num_nodes":"17","size_leaf_vector":"1"}},{"base_weights":[-1.3339062E-1,1.411103E-1,-1.5111303E-1,-2.6443675E-1,4.7764185E-1,1.5222833E-1,-1.5170623E-1,1.5255216E-1,3.4442812E-1,1.5220433E-1,-1.5084688E-1],"categories":[],"categories_nodes":[],"categories_segments":[],"categories_sizes":[],"default_left":[0,0,0,0,0,0,0,0,0,0,0],"id":41,"left_children":[1,3,-1,5,7,-1,-1,-1,9,-1,-1],"loss_changes":[5.8642114E3,4.5217983E3,0E0,2.7981824E3,7.427295E1,0E0,0E0,0E0,4.708318E2,0E0,0E0],"parents":[2147483647,0,0,1,1,3,3,4,4,8,8],"right_children":[2,4,-1,6,8,-1,-1,-1,10,-1,-1],"split_conditions":[6.4397E4,8.9E1,-1.5111303E-1,8.631E3,4.6587E4,1.5222833E-1,-1.5170623E-1,1.5255216E-1,3E0,1.5220433E-1,-1.5084688E-1],"split_indices":[9,8,0,9,9,0,0,0,3,0,0],"split_type":[0,0,0,0,0,0,0,0,0,0,0],"sum_hessian":[5.7686805E4,3.312981E4,2.4556996E4,1.5024418E4,1.8105393E4,3.5774656E3,1.1446952E4,1.4697252E4,3.4081406E3,2.8588145E3,5.49326E2],"tree_param":{"num_deleted":"0","num_feature":"11","num_nodes":"11","size_leaf_vector":"1"}},{"base_weights":[1.450493E-1,-1.5113752E-1,3.124485E-1,4.2117217E-1,-2.0661466E-1,4.6993232E-1,-1.5074295E-1,1.5159594E-1,-4.9938107E-1,2.1463455E-1,5.054695E-1,-2.9890004E-1,-1.5079866E-1,-1.5137786E-1,1.5215158E-1,5.073883E-1,2.0565833E-1,1.432232E-1,-1.486525E-1,1.577221E-1,1.5165733E-1,-1.4815228E-1,1.5052393E-1],"categories":[],"categories_nodes":[],"categories_segments":[],"categories_sizes":[],"default_left":[0,0,0,0,0,0,0,0,0,0,0,0,0,0,0,0,0,0,0,0,0,0,0],"id":42,"left_children":[1,-1,3,5,7,9,-1,-1,11,13,15,17,-1,-1,-1,19,21,-1,-1,-1,-1,-1,-1],"loss_changes":[5.7871406E3,0E0,2.390272E3,1.5773789E3,1.5292258E3,3.0167334E2,0E0,0E0,3.2694092E0,8.557819E2,1.6692871E1,1.3389929E1,0E0,0E0,0E0,7.265625E-1,3.905293E1,0E0,0E0,0E0,0E0,0E0,0E0],"parents":[2147483647,0,0,2,2,3,3,4,4,5,5,8,8,9,9,10,10,11,11,15,15,16,16],"right_children":[2,-1,4,6,8,10,-1,-1,12,14,16,18,-1,-1,-1,20,22,-1,-1,-1,-1,-1,-1],"split_conditions":[3.5439E4,-1.5113752E-1,1.07E2,-7.509935E1,-1.2265064E2,3.40511E1,-1.5074295E-1,1.5159594E-1,-1.22643524E2,3.9032E4,-7.51014E1,1.33E2,-1.5079866E-1,-1.5137786E-1,1.5215158E-1,3.7177E4,2.33437E5,1.432232E-1,-1.486525E-1,1.577221E-1,1.5165733E-1,-1.4815228E-1,1.5052393E-1],"split_indices":[9,0,8,5,5,4,0,0,5,9,5,8,0,0,0,9,9,0,0,0,0,0,0],"split_type":[0,0,0,0,0,0,0,0,0,0,0,0,0,0,0,0,0,0,0,0,0,0,0],"sum_hessian":[5.3278547E4,1.0926257E4,4.235229E4,3.5017637E4,7.334652E3,3.326219E4,1.7554468E3,2.137081E3,5.197571E3,4.0651714E3,2.919702E4,8.517864E1,5.112392E3,1.1751768E3,2.8899946E3,2.9010658E4,1.8636183E2,1.6924353E1,6.8254295E1,2.648818E3,2.636184E4,5.5225456E1,1.3113638E2],"tree_param":{"num_deleted":"0","num_feature":"11","num_nodes":"23","size_leaf_vector":"1"}},{"base_weights":[-3.77099E-2,1.00884E-1,-1.5081523E-1,2.0962636E-1,-3.8669768E-1,9.46962E-2,1.516494E-1,-1.5079369E-1,-1.947798E-1,3.1542015E-1,-2.457424E-1,1.5148087E-1,-1.5074557E-1,-4.215162E-1,4.4923887E-1,6.5169014E-2,-5.135664E-1,4.0510762E-2,-1.5094836E-1,1.5295926E-1,-1.5192842E-1,1.5297857E-1,-1.5128773E-1,-1.5072627E-1,-1.5598823E-1],"categories":[],"categories_nodes":[],"categories_segments":[],"categories_sizes":[],"default_left":[0,0,0,0,0,0,0,0,0,0,0,0,0,0,0,0,0,0,0,0,0,0,0,0,0],"id":43,"left_children":[1,3,-1,5,7,9,-1,-1,11,13,15,-1,-1,17,19,21,23,-1,-1,-1,-1,-1,-1,-1,-1],"loss_changes":[3.2339956E3,2.049797E3,0E0,1.0748293E3,1.5678076E2,1.7108972E3,0E0,0E0,5.722736E2,1.3623448E3,7.457782E2,0E0,0E0,9.654886E1,6.775759E2,1.0501768E3,8.154297E-2,0E0,0E0,0E0,0E0,0E0,0E0,0E0,0E0],"parents":[2147483647,0,0,1,1,3,3,4,4,5,5,8,8,9,9,10,10,13,13,14,14,15,15,16,16],"right_children":[2,4,-1,6,8,10,-1,-1,12,14,16,-1,-1,18,20,22,24,-1,-1,-1,-1,-1,-1,-1,-1],"split_conditions":[2.33437E5,1.11E2,-1.5081523E-1,1.23819E5,1.34E2,3.2919E4,1.516494E-1,-1.5079369E-1,1.35E2,1.0734E4,3.40511E1,1.5148087E-1,-1.5074557E-1,8E0,2E0,3.9032E4,8.5E1,4.0510762E-2,-1.5094836E-1,1.5295926E-1,-1.5192842E-1,1.5297857E-1,-1.5128773E-1,-1.5072627E-1,-1.5598823E-1],"split_indices":[9,8,0,9,8,9,0,0,8,9,4,0,0,8,3,9,8,0,0,0,0,0,0,0,0],"split_type":[0,0,0,0,0,0,0,0,0,0,0,0,0,0,0,0,0,0,0,0,0,0,0,0,0],"sum_hessian":[5.0178746E4,3.8657727E4,1.1521019E4,3.1608783E4,7.0489443E3,2.2766533E4,8.84225E3,4.393173E3,2.6557715E3,1.3811741E4,8.954793E3,8.109794E2,1.844792E3,2.122275E3,1.1689466E4,4.1444E3,4.8103926E3,2.714204E2,1.8508546E3,1.0992588E4,6.96878E2,2.3270427E3,1.8173572E3,1.7827001E3,3.0276926E3],"tree_param":{"num_deleted":"0","num_feature":"11","num_nodes":"25","size_leaf_vector":"1"}},{"base_weights":[-1.3526817E-1,-3.6058062E-1,3.1261754E-1,4.8267642E-1,-4.8746863E-1,4.71852E-1,-1.5076488E-1,1.98568E-1,1.5177439E-1,-1.7117631E-1,-1.5100038E-1,1.5180302E-1,3.4312025E-1,-1.4921847E-1,1.5090446E-1,1.5257387E-1,-1.5075637E-1,1.5159567E-1,-1.5046129E-1],"categories":[],"categories_nodes":[],"categories_segments":[],"categories_sizes":[],"default_left":[0,0,0,0,0,0,0,0,0,0,0,0,0,0,0,0,0,0,0],"id":44,"left_children":[1,3,5,7,9,11,-1,13,-1,15,-1,-1,17,-1,-1,-1,-1,-1,-1],"loss_changes":[4.353877E3,3.0715505E3,1.874604E3,2.4689331E1,1.2512158E2,5.294873E1,0E0,6.0752026E1,0E0,2.690267E2,0E0,0E0,3.477556E2,0E0,0E0,0E0,0E0,0E0,0E0],"parents":[2147483647,0,0,1,1,2,2,3,3,4,4,5,5,7,7,9,9,12,12],"right_children":[2,4,6,8,10,12,-1,14,-1,16,-1,-1,18,-1,-1,-1,-1,-1,-1],"split_conditions":[1.08E2,1.0734E4,6.4397E4,8E0,1.3114E4,4.6587E4,-1.5076488E-1,3.41512E1,1.5177439E-1,2.018E3,-1.5100038E-1,1.5180302E-1,3E0,-1.4921847E-1,1.5090446E-1,1.5257387E-1,-1.5075637E-1,1.5159567E-1,-1.5046129E-1],"split_indices":[8,9,9,8,9,9,0,4,0,0,0,0,3,0,0,0,0,0,0],"split_type":[0,0,0,0,0,0,0,0,0,0,0,0,0,0,0,0,0,0,0],"sum_hessian":[4.314222E4,2.8703096E4,1.4439124E4,3.7537925E3,2.4949303E4,1.2079868E4,2.3592559E3,2.8454263E2,3.4692498E3,1.1922991E3,2.3757004E4,9.544399E3,2.5354683E3,8.6399765E1,1.9814288E2,3.9054962E2,8.0174945E2,2.1273562E3,4.0811197E2],"tree_param":{"num_deleted":"0","num_feature":"11","num_nodes":"19","size_leaf_vector":"1"}},{"base_weights":[1.444261E-1,-1.5083666E-1,3.1137028E-1,4.1960093E-1,-2.061964E-1,4.6813285E-1,-1.5049791E-1,1.5113679E-1,-4.9860525E-1,2.1379374E-1,5.035307E-1,-2.9624707E-1,-1.5057321E-1,-1.5094146E-1,1.5155703E-1,5.054429E-1,2.0444256E-1,1.4020358E-1,-1.4770691E-1,1.5561046E-1,1.5122119E-1,-1.470416E-1,1.497024E-1],"categories":[],"categories_nodes":[],"categories_segments":[],"categories_sizes":[],"default_left":[0,0,0,0,0,0,0,0,0,0,0,0,0,0,0,0,0,0,0,0,0,0,0],"id":45,"left_children":[1,-1,3,5,7,9,-1,-1,11,13,15,17,-1,-1,-1,19,21,-1,-1,-1,-1,-1,-1],"loss_changes":[4.280571E3,0E0,1.7642161E3,1.1647949E3,1.1311508E3,2.2266113E2,0E0,0E0,2.432373E0,6.3215454E2,1.2318848E1,9.882755E0,0E0,0E0,0E0,1.3085938E-1,2.8820086E1,0E0,0E0,0E0,0E0,0E0,0E0],"parents":[2147483647,0,0,2,2,3,3,4,4,5,5,8,8,9,9,10,10,11,11,15,15,16,16],"right_children":[2,-1,4,6,8,10,-1,-1,12,14,16,18,-1,-1,-1,20,22,-1,-1,-1,-1,-1,-1],"split_conditions":[3.5439E4,-1.5083666E-1,1.07E2,-7.509935E1,-1.2265064E2,3.40511E1,-1.5049791E-1,1.5113679E-1,-1.22643524E2,3.9032E4,-7.51014E1,1.33E2,-1.5057321E-1,-1.5094146E-1,1.5155703E-1,3.7177E4,2.33437E5,1.4020358E-1,-1.4770691E-1,1.5561046E-1,1.5122119E-1,-1.470416E-1,1.497024E-1],"split_indices":[9,0,8,5,5,4,0,0,5,9,5,8,0,0,0,9,9,0,0,0,0,0,0],"split_type":[0,0,0,0,0,0,0,0,0,0,0,0,0,0,0,0,0,0,0,0,0,0,0],"sum_hessian":[3.9614582E4,8.122598E3,3.1491984E4,2.6045652E4,5.446333E3,2.4742701E4,1.3029512E3,1.5885409E3,3.8577922E3,3.0237297E3,2.171897E4,6.345951E1,3.7943328E3,8.736163E2,2.1501135E3,2.1580305E4,1.3866548E2,1.2684946E1,5.0774563E1,1.9888054E3,1.95915E4,4.109652E1,9.756897E1],"tree_param":{"num_deleted":"0","num_feature":"11","num_nodes":"23","size_leaf_vector":"1"}},{"base_weights":[-3.7423026E-2,1.0053898E-1,-1.5059543E-1,2.0859751E-1,-3.8600498E-1,9.430531E-2,1.5120853E-1,-1.505666E-1,-1.9425961E-1,3.1312442E-1,-2.441009E-1,1.5098268E-1,-1.5050226E-1,-4.1287854E-1,4.470081E-1,6.508071E-2,-1.529733E-1,3.476084E-2,-1.5065286E-1,1.5218602E-1,-1.5129425E-1,1.521582E-1,-1.5090184E-1],"categories":[],"categories_nodes":[],"categories_segments":[],"categories_sizes":[],"default_left":[0,0,0,0,0,0,0,0,0,0,0,0,0,0,0,0,0,0,0,0,0,0,0],"id":46,"left_children":[1,3,-1,5,7,9,-1,-1,11,13,15,-1,-1,17,19,21,-1,-1,-1,-1,-1,-1,-1],"loss_changes":[2.39369E3,1.5140562E3,0E0,7.9559424E2,1.1619348E2,1.2583221E3,0E0,0E0,4.2335324E2,1.0032608E3,5.484591E2,0E0,0E0,7.594794E1,4.99922E2,7.7528033E2,0E0,0E0,0E0,0E0,0E0,0E0,0E0],"parents":[2147483647,0,0,1,1,3,3,4,4,5,5,8,8,9,9,10,10,13,13,14,14,15,15],"right_children":[2,4,-1,6,8,10,-1,-1,12,14,16,-1,-1,18,20,22,-1,-1,-1,-1,-1,-1,-1],"split_conditions":[2.33437E5,1.11E2,-1.5059543E-1,1.23819E5,1.34E2,3.2919E4,1.5120853E-1,-1.505666E-1,1.35E2,1.0734E4,3.40511E1,1.5098268E-1,-1.5050226E-1,8E0,2E0,3.9032E4,-1.529733E-1,3.476084E-2,-1.5065286E-1,1.5218602E-1,-1.5129425E-1,1.521582E-1,-1.5090184E-1],"split_indices":[9,8,0,9,8,9,0,0,8,9,4,0,0,8,3,9,0,0,0,0,0,0,0],"split_type":[0,0,0,0,0,0,0,0,0,0,0,0,0,0,0,0,0,0,0,0,0,0,0],"sum_hessian":[3.734601E4,2.8795367E4,8.5506455E3,2.3562783E4,5.2325835E3,1.69909E4,6.5718833E3,3.2604648E3,1.9721189E3,1.0318719E4,6.672181E3,6.030771E2,1.3690419E3,1.606292E3,8.712427E3,3.0847988E3,3.5873823E3,2.3204025E2,1.3742518E3,8.193715E3,5.1871155E2,1.7347993E3,1.3499995E3],"tree_param":{"num_deleted":"0","num_feature":"11","num_nodes":"23","size_leaf_vector":"1"}},{"base_weights":[-1.3482925E-1,-3.5932288E-1,3.116762E-1,4.7864452E-1,-4.8659307E-1,4.7038335E-1,-1.5052748E-1,1.9553559E-1,1.5128481E-1,-1.7037793E-1,-1.5073782E-1,1.5132196E-1,3.4210923E-1,-1.4870898E-1,1.5043695E-1,1.5166566E-1,-1.504452E-1,1.5113638E-1,-1.5011919E-1],"categories":[],"categories_nodes":[],"categories_segments":[],"categories_sizes":[],"default_left":[0,0,0,0,0,0,0,0,0,0,0,0,0,0,0,0,0,0,0],"id":47,"left_children":[1,3,5,7,9,11,-1,13,-1,15,-1,-1,17,-1,-1,-1,-1,-1,-1],"loss_changes":[3.2146448E3,2.276144E3,1.3854276E3,2.0328796E1,9.2867676E1,3.9012695E1,0E0,5.0012444E1,0E0,1.9870229E2,0E0,0E0,2.5706396E2,0E0,0E0,0E0,0E0,0E0,0E0],"parents":[2147483647,0,0,1,1,2,2,3,3,4,4,5,5,7,7,9,9,12,12],"right_children":[2,4,6,8,10,12,-1,14,-1,16,-1,-1,18,-1,-1,-1,-1,-1,-1],"split_conditions":[1.08E2,1.0734E4,6.4397E4,8E0,1.3114E4,4.6587E4,-1.5052748E-1,3.41512E1,1.5128481E-1,2.018E3,-1.5073782E-1,1.5132196E-1,3E0,-1.4870898E-1,1.5043695E-1,1.5166566E-1,-1.504452E-1,1.5113638E-1,-1.5011919E-1],"split_indices":[8,9,9,8,9,9,0,4,0,0,0,0,3,0,0,0,0,0,0],"split_type":[0,0,0,0,0,0,0,0,0,0,0,0,0,0,0,0,0,0,0],"sum_hessian":[3.2068123E4,2.1339342E4,1.072878E4,2.8133083E3,1.8526033E4,8.9776045E3,1.751176E3,2.3433205E2,2.5789763E3,8.857056E2,1.7640328E4,7.093267E3,1.8843374E3,7.170142E1,1.6263063E2,2.9104025E2,5.9466534E2,1.5812872E3,3.0305014E2],"tree_param":{"num_deleted":"0","num_feature":"11","num_nodes":"19","size_leaf_vector":"1"}},{"base_weights":[1.4390232E-1,-1.5061022E-1,3.1056303E-1,4.1843387E-1,-2.0587222E-1,4.668004E-1,-1.5029866E-1,1.507833E-1,-4.979954E-1,2.05353E-1,5.012024E-1,-2.9306465E-1,-1.504003E-1,1.5407565E-1,-1.5059245E-1,1.5092832E-1,2.0312862E-1,1.3659759E-1,-1.4657803E-1,-1.4569822E-1,1.4886425E-1],"categories":[],"categories_nodes":[],"categories_segments":[],"categories_sizes":[],"default_left":[0,0,0,0,0,0,0,0,0,0,0,0,0,0,0,0,0,0,0,0,0],"id":48,"left_children":[1,-1,3,5,7,9,-1,-1,11,13,15,17,-1,-1,-1,-1,19,-1,-1,-1,-1],"loss_changes":[3.168433E3,0E0,1.3033911E3,8.608616E2,8.37009E2,1.6527051E2,0E0,0E0,1.8121338E0,4.6676117E2,9.060791E0,7.2914853E0,0E0,0E0,0E0,0E0,2.126744E1,0E0,0E0,0E0,0E0],"parents":[2147483647,0,0,2,2,3,3,4,4,5,5,8,8,9,9,10,10,11,11,16,16],"right_children":[2,-1,4,6,8,10,-1,-1,12,14,16,18,-1,-1,-1,-1,20,-1,-1,-1,-1],"split_conditions":[3.5439E4,-1.5061022E-1,1.07E2,-7.509935E1,-1.2265064E2,3.9032E4,-1.5029866E-1,1.507833E-1,-1.22643524E2,2.018E3,-7.51014E1,1.33E2,-1.504003E-1,1.5407565E-1,-1.5059245E-1,1.5092832E-1,2.33437E5,1.3659759E-1,-1.4657803E-1,-1.4569822E-1,1.4886425E-1],"split_indices":[9,0,8,5,5,9,0,0,5,0,5,8,0,0,0,0,9,0,0,0,0],"split_type":[0,0,0,0,0,0,0,0,0,0,0,0,0,0,0,0,0,0,0,0,0],"sum_hessian":[2.9429674E4,6.0355063E3,2.3394168E4,1.9352158E4,4.042008E3,1.8385484E4,9.6667523E2,1.1798384E3,2.8621697E3,2.1387131E3,1.62467705E4,4.730816E1,2.8148616E3,1.4897836E3,6.489297E2,1.6143614E4,1.0315622E2,9.524451E0,3.7783707E1,3.059557E1,7.256065E1],"tree_param":{"num_deleted":"0","num_feature":"11","num_nodes":"21","size_leaf_vector":"1"}},{"base_weights":[-3.719792E-2,1.0023305E-1,-1.5043008E-1,2.0771435E-1,-3.8545015E-1,9.3932845E-2,1.508798E-1,-1.5039144E-1,-1.9379553E-1,3.1101152E-1,-2.42889E-1,1.5057652E-1,-1.5030518E-1,-4.0339917E-1,4.45334E-1,6.5011516E-2,-1.5217E-1,2.9763974E-2,-1.5041712E-1,1.5160953E-1,-1.5078194E-1,1.5154147E-1,-1.5059958E-1],"categories":[],"categories_nodes":[],"categories_segments":[],"categories_sizes":[],"default_left":[0,0,0,0,0,0,0,0,0,0,0,0,0,0,0,0,0,0,0,0,0,0,0],"id":49,"left_children":[1,3,-1,5,7,9,-1,-1,11,13,15,-1,-1,17,19,21,-1,-1,-1,-1,-1,-1,-1],"loss_changes":[1.7720282E3,1.1187983E3,0E0,5.893984E2,8.6134094E1,9.262834E2,0E0,0E0,3.1333136E2,7.394117E2,4.041489E2,0E0,0E0,6.0121353E1,3.6927405E2,5.7285175E2,0E0,0E0,0E0,0E0,0E0,0E0,0E0],"parents":[2147483647,0,0,1,1,3,3,4,4,5,5,8,8,9,9,10,10,13,13,14,14,15,15],"right_children":[2,4,-1,6,8,10,-1,-1,12,14,16,-1,-1,18,20,22,-1,-1,-1,-1,-1,-1,-1],"split_conditions":[2.33437E5,1.11E2,-1.5043008E-1,1.23819E5,1.34E2,3.2919E4,1.508798E-1,-1.5039144E-1,1.35E2,1.0734E4,3.40511E1,1.5057652E-1,-1.5030518E-1,8E0,2E0,3.9032E4,-1.5217E-1,2.9763974E-2,-1.5041712E-1,1.5160953E-1,-1.5078194E-1,1.5154147E-1,-1.5059958E-1],"split_indices":[9,8,0,9,8,9,0,0,8,9,4,0,0,8,3,9,0,0,0,0,0,0,0],"split_type":[0,0,0,0,0,0,0,0,0,0,0,0,0,0,0,0,0,0,0,0,0,0,0],"sum_hessian":[2.7772793E4,2.1429617E4,6.343177E3,1.7547043E4,3.882574E3,1.2666504E4,4.880539E3,2.4188005E3,1.4637734E3,7.7024316E3,4.964072E3,4.4819107E2,1.01558234E3,1.2186875E3,6.483744E3,2.293465E3,2.670607E3,1.9883243E2,1.01985504E3,6.098035E3,3.8570886E2,1.2912643E3,1.0022008E3],"tree_param":{"num_deleted":"0","num_feature":"11","num_nodes":"23","size_leaf_vector":"1"}},{"base_weights":[-1.3439202E-1,-3.5813528E-1,3.1097677E-1,4.745925E-1,-4.8593494E-1,4.6928596E-1,-1.5033847E-1,1.9255057E-1,1.5091467E-1,-1.6971032E-1,-1.5054175E-1,1.5096438E-1,3.4129733E-1,-1.4817607E-1,1.500027E-1,1.5091874E-1,-1.5017596E-1,1.507827E-1,-1.4978944E-1],"categories":[],"categories_nodes":[],"categories_segments":[],"categories_sizes":[],"default_left":[0,0,0,0,0,0,0,0,0,0,0,0,0,0,0,0,0,0,0],"id":50,"left_children":[1,3,5,7,9,11,-1,13,-1,15,-1,-1,17,-1,-1,-1,-1,-1,-1],"loss_changes":[2.3742927E3,1.6879902E3,1.0245718E3,1.6842407E1,6.8920654E1,2.8785034E1,0E0,4.141435E1,0E0,1.4685954E2,0E0,0E0,1.9014186E2,0E0,0E0,0E0,0E0,0E0,0E0],"parents":[2147483647,0,0,1,1,2,2,3,3,4,4,5,5,7,7,9,9,12,12],"right_children":[2,4,6,8,10,12,-1,14,-1,16,-1,-1,18,-1,-1,-1,-1,-1,-1],"split_conditions":[1.08E2,1.0734E4,6.4397E4,8E0,1.3114E4,4.6587E4,-1.5033847E-1,3.41512E1,1.5091467E-1,2.018E3,-1.5054175E-1,1.5096438E-1,3E0,-1.4817607E-1,1.500027E-1,1.5091874E-1,-1.5017596E-1,1.507827E-1,-1.4978944E-1],"split_indices":[8,9,9,8,9,9,0,4,0,0,0,0,3,0,0,0,0,0,0],"split_type":[0,0,0,0,0,0,0,0,0,0,0,0,0,0,0,0,0,0,0],"sum_hessian":[2.3824617E4,1.5858073E4,7.966543E3,2.10958E3,1.3748493E4,6.6672686E3,1.2992742E3,1.9404948E2,1.9155306E3,6.576018E2,1.3090892E4,5.267871E3,1.3993977E3,5.9838963E1,1.3421053E2,2.1662215E2,4.4097964E2,1.1744257E3,2.2497215E2],"tree_param":{"num_deleted":"0","num_feature":"11","num_nodes":"19","size_leaf_vector":"1"}},{"base_weights":[1.4344598E-1,-1.5043825E-1,3.0995363E-1,4.1755924E-1,-2.0560889E-1,4.6580514E-1,-1.501269E-1,1.5050235E-1,-4.974962E-1,2.0428129E-1,5.0037295E-1,-2.8914267E-1,-1.50264E-1,1.5293965E-1,-1.5029842E-1,1.5068102E-1,2.0161673E-1,1.3226049E-1,-1.4518027E-1,-1.4402473E-1,1.4793724E-1],"categories":[],"categories_nodes":[],"categories_segments":[],"categories_sizes":[],"default_left":[0,0,0,0,0,0,0,0,0,0,0,0,0,0,0,0,0,0,0,0,0],"id":51,"left_children":[1,-1,3,5,7,9,-1,-1,11,13,15,17,-1,-1,-1,-1,19,-1,-1,-1,-1],"loss_changes":[2.3466052E3,0E0,9.636179E2,6.366333E2,6.1952686E2,1.23319336E2,0E0,0E0,1.3525391E0,3.4405707E2,6.732666E0,5.3762493E0,0E0,0E0,0E0,0E0,1.5688365E1,0E0,0E0,0E0,0E0],"parents":[2147483647,0,0,2,2,3,3,4,4,5,5,8,8,9,9,10,10,11,11,16,16],"right_children":[2,-1,4,6,8,10,-1,-1,12,14,16,18,-1,-1,-1,-1,20,-1,-1,-1,-1],"split_conditions":[3.5439E4,-1.5043825E-1,1.07E2,-7.509935E1,-1.2265064E2,3.9032E4,-1.501269E-1,1.5050235E-1,-1.22643524E2,2.018E3,-7.51014E1,1.33E2,-1.50264E-1,1.5293965E-1,-1.5029842E-1,1.5068102E-1,2.33437E5,1.3226049E-1,-1.4518027E-1,-1.4402473E-1,1.4793724E-1],"split_indices":[9,0,8,5,5,9,0,0,5,0,5,8,0,0,0,0,9,0,0,0,0],"split_type":[0,0,0,0,0,0,0,0,0,0,0,0,0,0,0,0,0,0,0,0,0],"sum_hessian":[2.1850445E4,4.483444E3,1.7367002E4,1.436831E4,2.9986912E3,1.3651337E4,7.169733E2,8.7579645E2,2.1228948E3,1.5945586E3,1.2056778E4,3.5307316E1,2.0875874E3,1.1127885E3,4.8177014E2,1.1980022E4,7.675563E1,7.170708E0,2.8136606E1,2.2797068E1,5.395856E1],"tree_param":{"num_deleted":"0","num_feature":"11","num_nodes":"21","size_leaf_vector":"1"}},{"base_weights":[-3.7015047E-2,9.994181E-2,-1.5030405E-1,2.0690902E-1,-3.8498777E-1,9.3551934E-2,1.5063223E-1,-1.5025215E-1,-1.9335651E-1,3.0896926E-1,-2.4199046E-1,1.5022457E-1,-1.5013623E-1,-1.5016954E-1,4.2702815E-1,6.4908914E-2,-1.5156962E-1,1.5117632E-1,-1.5047604E-1,1.5106894E-1,-1.5035297E-1],"categories":[],"categories_nodes":[],"categories_segments":[],"categories_sizes":[],"default_left":[0,0,0,0,0,0,0,0,0,0,0,0,0,0,0,0,0,0,0,0,0],"id":52,"left_children":[1,3,-1,5,7,9,-1,-1,11,13,15,-1,-1,-1,17,19,-1,-1,-1,-1,-1],"loss_changes":[1.3119219E3,8.26912E2,0E0,4.36977E2,6.3864563E1,6.822407E2,0E0,0E0,2.3198044E2,5.495733E2,2.9818588E2,0E0,0E0,0E0,3.5848853E2,4.2359415E2,0E0,0E0,0E0,0E0,0E0],"parents":[2147483647,0,0,1,1,3,3,4,4,5,5,8,8,9,9,10,10,14,14,15,15],"right_children":[2,4,-1,6,8,10,-1,-1,12,14,16,-1,-1,-1,18,20,-1,-1,-1,-1,-1],"split_conditions":[2.33437E5,1.11E2,-1.5030405E-1,1.23819E5,1.34E2,3.2919E4,1.5063223E-1,-1.5025215E-1,1.35E2,8.631E3,3.40511E1,1.5022457E-1,-1.5013623E-1,-1.5016954E-1,8.9E1,3.9032E4,-1.5156962E-1,1.5117632E-1,-1.5047604E-1,1.5106894E-1,-1.5035297E-1],"split_indices":[9,8,0,9,8,9,0,0,8,9,4,0,0,0,8,9,0,0,0,0,0],"split_type":[0,0,0,0,0,0,0,0,0,0,0,0,0,0,0,0,0,0,0,0,0],"sum_hessian":[2.064287E4,1.5938994E4,4.703875E3,1.30589795E4,2.880015E3,9.43661E3,3.6223691E3,1.7938876E3,1.0861273E3,5.7470796E3,3.6895308E3,3.3295297E2,7.531743E2,7.310437E2,5.0160356E3,1.7038528E3,1.985678E3,4.6328735E3,3.8316232E2,9.600386E2,7.438142E2],"tree_param":{"num_deleted":"0","num_feature":"11","num_nodes":"21","size_leaf_vector":"1"}},{"base_weights":[-1.3394833E-1,-3.569541E-1,3.1043842E-1,4.703645E-1,-4.8543513E-1,4.684522E-1,-1.5018052E-1,1.89614E-1,1.506291E-1,-1.6911846E-1,-1.5039456E-1,1.5069602E-1,3.4061012E-1,-1.4760551E-1,1.4958303E-1,1.5026206E-1,-1.4992377E-1,1.5050152E-1,-1.4944251E-1],"categories":[],"categories_nodes":[],"categories_segments":[],"categories_sizes":[],"default_left":[0,0,0,0,0,0,0,0,0,0,0,0,0,0,0,0,0,0,0],"id":53,"left_children":[1,3,5,7,9,11,-1,13,-1,15,-1,-1,17,-1,-1,-1,-1,-1,-1],"loss_changes":[1.7537365E3,1.2527019E3,7.580632E2,1.4020172E1,5.1148926E1,2.1259521E1,0E0,3.4472E1,0E0,1.0859077E2,0E0,0E0,1.4070895E2,0E0,0E0,0E0,0E0,0E0,0E0],"parents":[2147483647,0,0,1,1,2,2,3,3,4,4,5,5,7,7,9,9,12,12],"right_children":[2,4,6,8,10,12,-1,14,-1,16,-1,-1,18,-1,-1,-1,-1,-1,-1],"split_conditions":[1.08E2,1.0734E4,6.4397E4,8E0,1.3114E4,4.6587E4,-1.5018052E-1,3.41512E1,1.506291E-1,2.018E3,-1.5039456E-1,1.5069602E-1,3E0,-1.4760551E-1,1.4958303E-1,1.5026206E-1,-1.4992377E-1,1.5050152E-1,-1.4944251E-1],"split_indices":[8,9,9,8,9,9,0,4,0,0,0,0,3,0,0,0,0,0,0],"split_type":[0,0,0,0,0,0,0,0,0,0,0,0,0,0,0,0,0,0,0],"sum_hessian":[1.7694371E4,1.178202E4,5.912352E3,1.5834116E3,1.0198607E4,4.9486387E3,9.637137E2,1.6150305E2,1.4219086E3,4.8808252E2,9.710525E3,3.9099001E3,1.0387385E3,5.019116E1,1.1131189E2,1.6110344E2,3.2697906E2,8.717435E2,1.66995E2],"tree_param":{"num_deleted":"0","num_feature":"11","num_nodes":"19","size_leaf_vector":"1"}},{"base_weights":[1.4321966E-1,-1.5030465E-1,3.094842E-1,4.1689485E-1,-2.0538676E-1,4.6505377E-1,-1.4996703E-1,1.5026785E-1,-4.9706304E-1,2.0344806E-1,4.9974826E-1,-2.842531E-1,-1.5015182E-1,1.5208617E-1,-1.5003243E-1,1.5049633E-1,1.997843E-1,1.270788E-1,-1.4341629E-1,-1.4191166E-1,1.4684504E-1],"categories":[],"categories_nodes":[],"categories_segments":[],"categories_sizes":[],"default_left":[0,0,0,0,0,0,0,0,0,0,0,0,0,0,0,0,0,0,0,0,0],"id":54,"left_children":[1,-1,3,5,7,9,-1,-1,11,13,15,17,-1,-1,-1,-1,19,-1,-1,-1,-1],"loss_changes":[1.7367449E3,0E0,7.1279346E2,4.710304E2,4.5863837E2,9.185547E1,0E0,0E0,1.0119324E0,2.539356E2,5.01416E0,3.9606106E0,0E0,0E0,0E0,0E0,1.1564694E1,0E0,0E0,0E0,0E0],"parents":[2147483647,0,0,2,2,3,3,4,4,5,5,8,8,9,9,10,10,11,11,16,16],"right_children":[2,-1,4,6,8,10,-1,-1,12,14,16,18,-1,-1,-1,-1,20,-1,-1,-1,-1],"split_conditions":[3.5439E4,-1.5030465E-1,1.07E2,-7.509935E1,-1.2265064E2,3.9032E4,-1.4996703E-1,1.5026785E-1,-1.22643524E2,2.018E3,-7.51014E1,1.33E2,-1.5015182E-1,1.5208617E-1,-1.5003243E-1,1.5049633E-1,2.33437E5,1.270788E-1,-1.4341629E-1,-1.4191166E-1,1.4684504E-1],"split_indices":[9,0,8,5,5,9,0,0,5,0,5,8,0,0,0,0,9,0,0,0,0],"split_type":[0,0,0,0,0,0,0,0,0,0,0,0,0,0,0,0,0,0,0,0,0],"sum_hessian":[1.6211621E4,3.3252117E3,1.2886409E4,1.0662271E4,2.2241372E3,1.0130602E4,5.316698E2,6.4984717E2,1.5742899E3,1.1870203E3,8.943582E3,2.639506E1,1.5478949E3,8.2947424E2,3.5754602E2,8.886438E3,5.7143677E1,5.4185076E0,2.0976551E1,1.700858E1,4.01351E1],"tree_param":{"num_deleted":"0","num_feature":"11","num_nodes":"21","size_leaf_vector":"1"}},{"base_weights":[-3.6903314E-2,9.983095E-2,-1.5020575E-1,2.0657596E-1,-3.8457268E-1,9.343347E-2,1.5044276E-1,-1.5013592E-1,-1.9289707E-1,3.083541E-1,-2.413027E-1,1.498947E-1,-1.4997998E-1,-1.5000114E-1,4.260989E-1,6.484094E-2,-1.5111493E-1,1.5085217E-1,-1.5011579E-1,1.5069589E-1,-1.5013896E-1],"categories":[],"categories_nodes":[],"categories_segments":[],"categories_sizes":[],"default_left":[0,0,0,0,0,0,0,0,0,0,0,0,0,0,0,0,0,0,0,0,0],"id":55,"left_children":[1,3,-1,5,7,9,-1,-1,11,13,15,-1,-1,-1,17,19,-1,-1,-1,-1,-1],"loss_changes":[9.715583E2,6.119079E2,0E0,3.2348337E2,4.736847E1,5.0431848E2,0E0,0E0,1.7180232E2,4.0652646E2,2.2024782E2,0E0,0E0,0E0,2.65219E2,3.133569E2,0E0,0E0,0E0,0E0,0E0],"parents":[2147483647,0,0,1,1,3,3,4,4,5,5,8,8,9,9,10,10,14,14,15,15],"right_children":[2,4,-1,6,8,10,-1,-1,12,14,16,-1,-1,-1,18,20,-1,-1,-1,-1,-1],"split_conditions":[2.33437E5,1.11E2,-1.5020575E-1,1.23819E5,1.34E2,3.2919E4,1.5044276E-1,-1.5013592E-1,1.35E2,8.631E3,3.40511E1,1.498947E-1,-1.4997998E-1,-1.5000114E-1,8.9E1,3.9032E4,-1.5111493E-1,1.5085217E-1,-1.5011579E-1,1.5069589E-1,-1.5013896E-1],"split_indices":[9,8,0,9,8,9,0,0,8,9,4,0,0,0,8,9,0,0,0,0,0],"split_type":[0,0,0,0,0,0,0,0,0,0,0,0,0,0,0,0,0,0,0,0,0],"sum_hessian":[1.5318861E4,1.1831449E4,3.4874119E3,9.695488E3,2.135961E3,7.0080635E3,2.687425E3,1.3301736E3,8.0578723E2,4.267897E3,2.7401665E3,2.4731654E2,5.584707E2,5.422082E2,3.7256887E3,1.2650524E3,1.4751141E3,3.4411152E3,2.8457364E2,7.132175E2,5.518348E2],"tree_param":{"num_deleted":"0","num_feature":"11","num_nodes":"21","size_leaf_vector":"1"}},{"base_weights":[-1.3382901E-1,-3.56629E-1,3.100098E-1,4.6957806E-1,-4.8504984E-1,4.6780378E-1,-1.5003923E-1,1.8865867E-1,1.5040153E-1,-1.6856383E-1,-1.5028304E-1,1.5049173E-1,3.3998564E-1,-1.4648195E-1,1.4888719E-1,1.4963493E-1,-1.4966577E-1,1.5026674E-1,-1.490479E-1],"categories":[],"categories_nodes":[],"categories_segments":[],"categories_sizes":[],"default_left":[0,0,0,0,0,0,0,0,0,0,0,0,0,0,0,0,0,0,0],"id":56,"left_children":[1,3,5,7,9,11,-1,13,-1,15,-1,-1,17,-1,-1,-1,-1,-1,-1],"loss_changes":[1.2980417E3,9.2747046E2,5.610747E2,1.0399017E1,3.7963257E1,1.5712097E1,0E0,2.5454466E1,0E0,8.0312225E1,0E0,0E0,1.04167175E2,0E0,0E0,0E0,0E0,0E0,0E0],"parents":[2147483647,0,0,1,1,2,2,3,3,4,4,5,5,7,7,9,9,12,12],"right_children":[2,4,6,8,10,12,-1,14,-1,16,-1,-1,18,-1,-1,-1,-1,-1,-1],"split_conditions":[1.08E2,1.0734E4,6.4397E4,8E0,1.3114E4,4.6587E4,-1.5003923E-1,3.41512E1,1.5040153E-1,2.018E3,-1.5028304E-1,1.5049173E-1,3E0,-1.4648195E-1,1.4888719E-1,1.4963493E-1,-1.4966577E-1,1.5026674E-1,-1.490479E-1],"split_indices":[8,9,9,8,9,9,0,4,0,0,0,0,3,0,0,0,0,0,0],"split_type":[0,0,0,0,0,0,0,0,0,0,0,0,0,0,0,0,0,0,0],"sum_hessian":[1.3124359E4,8.738146E3,4.3862134E3,1.1751373E3,7.563009E3,3.6715205E3,7.146927E2,1.20069115E2,1.0550682E3,3.621991E2,7.2008096E3,2.9007312E3,7.707895E2,3.733273E1,8.273638E1,1.1975305E2,2.4244606E2,6.468195E2,1.2396999E2],"tree_param":{"num_deleted":"0","num_feature":"11","num_nodes":"19","size_leaf_vector":"1"}},{"base_weights":[1.4303568E-1,-1.5019843E-1,3.0911145E-1,4.1637942E-1,-2.0519201E-1,4.6447673E-1,-1.4980453E-1,1.500583E-1,-4.9665806E-1,2.0277421E-1,4.9927056E-1,-2.781516E-1,-1.5005356E-1,1.5143079E-1,-1.4977038E-1,1.5035713E-1,1.9749965E-1,1.2099258E-1,-1.4117631E-1,-1.3923846E-1,1.4550321E-1],"categories":[],"categories_nodes":[],"categories_segments":[],"categories_sizes":[],"default_left":[0,0,0,0,0,0,0,0,0,0,0,0,0,0,0,0,0,0,0,0,0],"id":57,"left_children":[1,-1,3,5,7,9,-1,-1,11,13,15,17,-1,-1,-1,-1,19,-1,-1,-1,-1],"loss_changes":[1.2856742E3,0E0,5.2746924E2,3.4862646E2,3.3956702E2,6.833606E1,0E0,0E0,7.5961304E-1,1.8759418E2,3.7438965E0,2.9145951E0,0E0,0E0,0E0,0E0,8.515889E0,0E0,0E0,0E0,0E0],"parents":[2147483647,0,0,2,2,3,3,4,4,5,5,8,8,9,9,10,10,11,11,16,16],"right_children":[2,-1,4,6,8,10,-1,-1,12,14,16,18,-1,-1,-1,-1,20,-1,-1,-1,-1],"split_conditions":[3.5439E4,-1.5019843E-1,1.07E2,-7.509935E1,-1.2265064E2,3.9032E4,-1.4980453E-1,1.500583E-1,-1.22643524E2,2.018E3,-7.51014E1,1.33E2,-1.5005356E-1,1.5143079E-1,-1.4977038E-1,1.5035713E-1,2.33437E5,1.2099258E-1,-1.4117631E-1,-1.3923846E-1,1.4550321E-1],"split_indices":[9,0,8,5,5,9,0,0,5,0,5,8,0,0,0,0,9,0,0,0,0],"split_type":[0,0,0,0,0,0,0,0,0,0,0,0,0,0,0,0,0,0,0,0,0],"sum_hessian":[1.2024159E4,2.465613E3,9.558546E3,7.9091333E3,1.649413E3,7.5149155E3,3.9421762E2,4.8205646E2,1.1673564E3,8.826763E2,6.6322393E3,1.9778206E1,1.1475782E3,6.173719E2,2.6530438E2,6.5896553E3,4.2584023E1,4.1139536E0,1.5664252E1,1.2713376E1,2.9870647E1],"tree_param":{"num_deleted":"0","num_feature":"11","num_nodes":"21","size_leaf_vector":"1"}},{"base_weights":[-3.6815695E-2,9.973976E-2,-1.5012619E-1,2.0631169E-1,-3.8416678E-1,9.33243E-2,1.5029389E-1,-1.5003218E-1,-1.9237526E-1,3.0784705E-1,-2.4076416E-1,1.4955738E-1,-1.4982228E-1,-1.4983328E-1,4.2536646E-1,6.479763E-2,-1.5076324E-1,1.5060508E-1,-1.4976785E-1,1.503875E-1,-1.4993812E-1],"categories":[],"categories_nodes":[],"categories_segments":[],"categories_sizes":[],"default_left":[0,0,0,0,0,0,0,0,0,0,0,0,0,0,0,0,0,0,0,0,0],"id":58,"left_children":[1,3,-1,5,7,9,-1,-1,11,13,15,-1,-1,-1,17,19,-1,-1,-1,-1,-1],"loss_changes":[7.1955615E2,4.5287646E2,0E0,2.3953784E2,3.5148865E1,3.729577E2,0E0,0E0,1.2727003E2,3.0084448E2,1.6281302E2,0E0,0E0,0E0,1.9632596E2,2.3187296E2,0E0,0E0,0E0,0E0,0E0],"parents":[2147483647,0,0,1,1,3,3,4,4,5,5,8,8,9,9,10,10,14,14,15,15],"right_children":[2,4,-1,6,8,10,-1,-1,12,14,16,-1,-1,-1,18,20,-1,-1,-1,-1,-1],"split_conditions":[2.33437E5,1.11E2,-1.5012619E-1,1.23819E5,1.34E2,3.2919E4,1.5029389E-1,-1.5003218E-1,1.35E2,8.631E3,3.40511E1,1.4955738E-1,-1.4982228E-1,-1.4983328E-1,8.9E1,3.9032E4,-1.5076324E-1,1.5060508E-1,-1.4976785E-1,1.503875E-1,-1.4993812E-1],"split_indices":[9,8,0,9,8,9,0,0,8,9,4,0,0,0,8,9,0,0,0,0,0],"split_type":[0,0,0,0,0,0,0,0,0,0,0,0,0,0,0,0,0,0,0,0,0],"sum_hessian":[1.1364209E4,8.779099E3,2.5851104E3,7.195082E3,1.584017E3,5.201816E3,1.9932661E3,9.862242E2,5.977927E2,3.1678042E3,2.0340117E3,1.837301E2,4.1406265E2,4.0213263E2,2.7656716E3,9.388706E2,1.0951411E3,2.5543667E3,2.1130481E2,5.295668E2,4.0930383E2],"tree_param":{"num_deleted":"0","num_feature":"11","num_nodes":"21","size_leaf_vector":"1"}},{"base_weights":[-1.3372663E-1,-3.563577E-1,3.0965066E-1,4.6888557E-1,-4.8474324E-1,4.672807E-1,-1.4990176E-1,1.8753111E-1,1.5021093E-1,-1.6798277E-1,-1.5019707E-1,1.5033257E-1,3.3936384E-1,-1.450806E-1,1.4810106E-1,1.4898148E-1,-1.4937882E-1,1.500568E-1,-1.4857167E-1],"categories":[],"categories_nodes":[],"categories_segments":[],"categories_sizes":[],"default_left":[0,0,0,0,0,0,0,0,0,0,0,0,0,0,0,0,0,0,0],"id":59,"left_children":[1,3,5,7,9,11,-1,13,-1,15,-1,-1,17,-1,-1,-1,-1,-1,-1],"loss_changes":[9.6089746E2,6.868072E2,4.153847E2,7.720627E0,2.8186401E1,1.1618225E1,0E0,1.878913E1,0E0,5.940482E1,0E0,0E0,7.713921E1,0E0,0E0,0E0,0E0,0E0,0E0],"parents":[2147483647,0,0,1,1,2,2,3,3,4,4,5,5,7,7,9,9,12,12],"right_children":[2,4,6,8,10,12,-1,14,-1,16,-1,-1,18,-1,-1,-1,-1,-1,-1],"split_conditions":[1.08E2,1.0734E4,6.4397E4,8E0,1.3114E4,4.6587E4,-1.4990176E-1,3.41512E1,1.5021093E-1,2.018E3,-1.5019707E-1,1.5033257E-1,3E0,-1.450806E-1,1.4810106E-1,1.4898148E-1,-1.4937882E-1,1.500568E-1,-1.4857167E-1],"split_indices":[8,9,9,8,9,9,0,4,0,0,0,0,3,0,0,0,0,0,0],"split_type":[0,0,0,0,0,0,0,0,0,0,0,0,0,0,0,0,0,0,0],"sum_hessian":[9.732477E3,6.479267E3,3.2532092E3,8.719364E2,5.6073306E3,2.723234E3,5.299754E2,8.928709E1,7.826493E2,2.6878278E2,5.338548E3,2.1513801E3,5.718536E2,2.7788368E1,6.1498714E1,8.900378E1,1.7977902E2,4.797985E2,9.205506E1],"tree_param":{"num_deleted":"0","num_feature":"11","num_nodes":"19","size_leaf_vector":"1"}},{"base_weights":[1.428766E-1,-1.5011014E-1,3.088008E-1,4.159648E-1,-2.0498465E-1,4.6402076E-1,-1.4962484E-1,1.4985472E-1,-4.9624753E-1,2.0219655E-1,4.988961E-1,-2.706182E-1,-1.4996028E-1,1.5091023E-1,-1.494888E-1,1.5025058E-1,1.9461475E-1,1.1401388E-1,-1.3834108E-1,-1.3587943E-1,1.4381576E-1],"categories":[],"categories_nodes":[],"categories_segments":[],"categories_sizes":[],"default_left":[0,0,0,0,0,0,0,0,0,0,0,0,0,0,0,0,0,0,0,0,0],"id":60,"left_children":[1,-1,3,5,7,9,-1,-1,11,13,15,17,-1,-1,-1,-1,19,-1,-1,-1,-1],"loss_changes":[9.519091E2,0E0,3.9042737E2,2.5809912E2,2.5144304E2,5.079651E1,0E0,0E0,5.725708E-1,1.3867665E2,2.8045654E0,2.14194E0,0E0,0E0,0E0,0E0,6.261751E0,0E0,0E0,0E0,0E0],"parents":[2147483647,0,0,2,2,3,3,4,4,5,5,8,8,9,9,10,10,11,11,16,16],"right_children":[2,-1,4,6,8,10,-1,-1,12,14,16,18,-1,-1,-1,-1,20,-1,-1,-1,-1],"split_conditions":[3.5439E4,-1.5011014E-1,1.07E2,-7.509935E1,-1.2265064E2,3.9032E4,-1.4962484E-1,1.4985472E-1,-1.22643524E2,2.018E3,-7.51014E1,1.33E2,-1.4996028E-1,1.5091023E-1,-1.494888E-1,1.5025058E-1,2.33437E5,1.1401388E-1,-1.3834108E-1,-1.3587943E-1,1.4381576E-1],"split_indices":[9,0,8,5,5,9,0,0,5,0,5,8,0,0,0,0,9,0,0,0,0],"split_type":[0,0,0,0,0,0,0,0,0,0,0,0,0,0,0,0,0,0,0,0,0],"sum_hessian":[8.916431E3,1.8279485E3,7.088482E3,5.8653027E3,1.2231791E3,5.573009E3,2.92294E2,3.5757333E2,8.656057E2,6.5587415E2,4.917135E3,1.4865014E1,8.507407E2,4.5902188E2,1.9685226E2,4.885355E3,3.177952E1,3.1414511E0,1.1723563E1,9.526508E0,2.2253012E1],"tree_param":{"num_deleted":"0","num_feature":"11","num_nodes":"21","size_leaf_vector":"1"}},{"base_weights":[-3.674276E-2,9.9661656E-2,-1.500582E-1,2.0609368E-1,-3.8373533E-1,9.322228E-2,1.501719E-1,-1.499315E-1,-1.9174886E-1,3.074082E-1,-2.403235E-1,1.4918308E-1,-1.4964893E-1,-1.4965089E-1,4.2476732E-1,6.477659E-2,-1.5048185E-1,1.5041277E-1,-1.494011E-1,1.5011537E-1,-1.4973226E-1],"categories":[],"categories_nodes":[],"categories_segments":[],"categories_sizes":[],"default_left":[0,0,0,0,0,0,0,0,0,0,0,0,0,0,0,0,0,0,0,0,0],"id":61,"left_children":[1,3,-1,5,7,9,-1,-1,11,13,15,-1,-1,-1,17,19,-1,-1,-1,-1,-1],"loss_changes":[5.3295215E2,3.3520215E2,0E0,1.7741216E2,2.609613E1,2.758964E2,0E0,0E0,9.430501E1,2.2271466E2,1.204309E2,0E0,0E0,0E0,1.4540015E2,1.7160826E2,0E0,0E0,0E0,0E0,0E0],"parents":[2147483647,0,0,1,1,3,3,4,4,5,5,8,8,9,9,10,10,14,14,15,15],"right_children":[2,4,-1,6,8,10,-1,-1,12,14,16,-1,-1,-1,18,20,-1,-1,-1,-1,-1],"split_conditions":[2.33437E5,1.11E2,-1.500582E-1,1.23819E5,1.34E2,3.2919E4,1.501719E-1,-1.499315E-1,1.35E2,8.631E3,3.40511E1,1.4918308E-1,-1.4964893E-1,-1.4965089E-1,8.9E1,3.9032E4,-1.5048185E-1,1.5041277E-1,-1.494011E-1,1.5011537E-1,-1.4973226E-1],"split_indices":[9,8,0,9,8,9,0,0,8,9,4,0,0,0,8,9,0,0,0,0,0],"split_type":[0,0,0,0,0,0,0,0,0,0,0,0,0,0,0,0,0,0,0,0,0],"sum_hessian":[8.428759E3,6.512704E3,1.9160546E3,5.337986E3,1.1747185E3,3.8598535E3,1.4781322E3,7.31187E2,4.4353146E2,2.3505376E3,1.5093159E3,1.3654146E2,3.0699E2,2.9826163E2,2.052276E3,6.966218E2,8.126941E2,1.8953782E3,1.5689781E2,3.9307715E2,3.0354468E2],"tree_param":{"num_deleted":"0","num_feature":"11","num_nodes":"21","size_leaf_vector":"1"}},{"base_weights":[-1.3362338E-1,-3.5611457E-1,3.0933574E-1,4.682252E-1,-4.8448846E-1,4.6683648E-1,-1.4975576E-1,1.8614683E-1,1.5003994E-1,-1.67336E-1,-1.5012895E-1,1.5020387E-1,3.38694E-1,-1.4330392E-1,1.4715989E-1,1.4824523E-1,-1.4903761E-1,1.4985265E-1,-1.479741E-1],"categories":[],"categories_nodes":[],"categories_segments":[],"categories_sizes":[],"default_left":[0,0,0,0,0,0,0,0,0,0,0,0,0,0,0,0,0,0,0],"id":62,"left_children":[1,3,5,7,9,11,-1,13,-1,15,-1,-1,17,-1,-1,-1,-1,-1,-1],"loss_changes":[7.1140936E2,5.0867767E2,3.0759033E2,5.73851E0,2.0937195E1,8.593353E0,0E0,1.3860345E1,0E0,4.3937805E1,0E0,0E0,5.7140217E1,0E0,0E0,0E0,0E0,0E0,0E0],"parents":[2147483647,0,0,1,1,2,2,3,3,4,4,5,5,7,7,9,9,12,12],"right_children":[2,4,6,8,10,12,-1,14,-1,16,-1,-1,18,-1,-1,-1,-1,-1,-1],"split_conditions":[1.08E2,1.0734E4,6.4397E4,8E0,1.3114E4,4.6587E4,-1.4975576E-1,3.41512E1,1.5003994E-1,2.018E3,-1.5012895E-1,1.5020387E-1,3E0,-1.4330392E-1,1.4715989E-1,1.4824523E-1,-1.4903761E-1,1.4985265E-1,-1.479741E-1],"split_indices":[8,9,9,8,9,9,0,4,0,0,0,0,3,0,0,0,0,0,0],"split_type":[0,0,0,0,0,0,0,0,0,0,0,0,0,0,0,0,0,0,0],"sum_hessian":[7.2163184E3,4.803696E3,2.4126223E3,6.4691974E2,4.156776E3,2.019621E3,3.9300143E2,6.643569E1,5.804841E2,1.9948714E2,3.957289E3,1.5953688E3,4.242522E2,2.070703E1,4.572866E1,6.615674E1,1.333304E2,3.5586316E2,6.838904E1],"tree_param":{"num_deleted":"0","num_feature":"11","num_nodes":"19","size_leaf_vector":"1"}},{"base_weights":[1.4274243E-1,-1.500318E-1,3.0853397E-1,4.156191E-1,-2.0476778E-1,4.6364698E-1,-1.4941196E-1,1.4963871E-1,-4.9579835E-1,2.0166267E-1,4.98591E-1,-2.6145262E-1,-1.4986357E-1,1.504754E-1,-1.4916292E-1,1.5016687E-1,1.9097543E-1,1.0624524E-1,-1.3478953E-1,-1.3171539E-1,1.4167424E-1],"categories":[],"categories_nodes":[],"categories_segments":[],"categories_sizes":[],"default_left":[0,0,0,0,0,0,0,0,0,0,0,0,0,0,0,0,0,0,0,0,0],"id":63,"left_children":[1,-1,3,5,7,9,-1,-1,11,13,15,17,-1,-1,-1,-1,19,-1,-1,-1,-1],"loss_changes":[7.0489197E2,0E0,2.8906192E2,1.9112018E2,1.8619466E2,3.773987E1,0E0,0E0,4.3391418E-1,1.0256288E2,2.1088257E0,1.5716951E0,0E0,0E0,0E0,0E0,4.595745E0,0E0,0E0,0E0,0E0],"parents":[2147483647,0,0,2,2,3,3,4,4,5,5,8,8,9,9,10,10,11,11,16,16],"right_children":[2,-1,4,6,8,10,-1,-1,12,14,16,18,-1,-1,-1,-1,20,-1,-1,-1,-1],"split_conditions":[3.5439E4,-1.500318E-1,1.07E2,-7.509935E1,-1.2265064E2,3.9032E4,-1.4941196E-1,1.4963871E-1,-1.22643524E2,2.018E3,-7.51014E1,1.33E2,-1.4986357E-1,1.504754E-1,-1.4916292E-1,1.5016687E-1,2.33437E5,1.0624524E-1,-1.3478953E-1,-1.3171539E-1,1.4167424E-1],"split_indices":[9,0,8,5,5,9,0,0,5,0,5,8,0,0,0,0,9,0,0,0,0],"split_type":[0,0,0,0,0,0,0,0,0,0,0,0,0,0,0,0,0,0,0,0,0],"sum_hessian":[6.611361E3,1.355082E3,5.256279E3,4.3491484E3,9.071302E2,4.1324146E3,2.1673405E2,2.6522867E2,6.4190155E2,4.8712012E2,3.6452944E3,1.1215443E1,6.306861E2,3.4104324E2,1.4607686E2,3.6215303E3,2.3764023E1,2.4151726E0,8.80027E0,7.16162E0,1.6602404E1],"tree_param":{"num_deleted":"0","num_feature":"11","num_nodes":"21","size_leaf_vector":"1"}},{"base_weights":[-3.668039E-2,9.958711E-2,-1.499955E-1,2.0589992E-1,-3.832389E-1,9.3109354E-2,1.500657E-1,-1.4982484E-1,-1.9096135E-1,3.069914E-1,-2.3994096E-1,1.4873995E-1,-1.4944454E-1,-1.494378E-1,4.2424443E-1,6.477507E-2,-1.5024486E-1,1.5025784E-1,-1.4898348E-1,1.4985473E-1,-1.4950296E-1],"categories":[],"categories_nodes":[],"categories_segments":[],"categories_sizes":[],"default_left":[0,0,0,0,0,0,0,0,0,0,0,0,0,0,0,0,0,0,0,0,0],"id":64,"left_children":[1,3,-1,5,7,9,-1,-1,11,13,15,-1,-1,-1,17,19,-1,-1,-1,-1,-1],"loss_changes":[3.947539E2,2.4810036E2,0E0,1.3143005E2,1.9389801E1,2.041228E2,0E0,0E0,6.98981E1,1.649211E2,8.91241E1,0E0,0E0,0E0,1.0773413E2,1.2701769E2,0E0,0E0,0E0,0E0,0E0],"parents":[2147483647,0,0,1,1,3,3,4,4,5,5,8,8,9,9,10,10,14,14,15,15],"right_children":[2,4,-1,6,8,10,-1,-1,12,14,16,-1,-1,-1,18,20,-1,-1,-1,-1,-1],"split_conditions":[2.33437E5,1.11E2,-1.499955E-1,1.23819E5,1.34E2,3.2919E4,1.500657E-1,-1.4982484E-1,1.35E2,8.631E3,3.40511E1,1.4873995E-1,-1.4944454E-1,-1.494378E-1,8.9E1,3.9032E4,-1.5024486E-1,1.5025784E-1,-1.4898348E-1,1.4985473E-1,-1.4950296E-1],"split_indices":[9,8,0,9,8,9,0,0,8,9,4,0,0,0,8,9,0,0,0,0,0],"split_type":[0,0,0,0,0,0,0,0,0,0,0,0,0,0,0,0,0,0,0,0,0],"sum_hessian":[6.250911E3,4.830844E3,1.4200667E3,3.9595664E3,8.712781E2,2.863512E3,1.0960544E3,5.421219E2,3.291562E2,1.7437615E3,1.1197504E3,1.0153841E2,2.276178E2,2.2125652E2,1.522505E3,5.168242E2,6.029262E2,1.4059835E3,1.1652144E2,2.9172134E2,2.2510286E2],"tree_param":{"num_deleted":"0","num_feature":"11","num_nodes":"21","size_leaf_vector":"1"}},{"base_weights":[-1.335239E-1,-3.5588032E-1,3.0902547E-1,4.6753773E-1,-4.8426104E-1,4.6642828E-1,-1.4958817E-1,1.84379E-1,1.4987299E-1,-1.6654645E-1,-1.500725E-1,1.5009387E-1,3.3790696E-1,-1.4104114E-1,1.4598975E-1,1.4736554E-1,-1.486127E-1,1.4963585E-1,-1.4720714E-1],"categories":[],"categories_nodes":[],"categories_segments":[],"categories_sizes":[],"default_left":[0,0,0,0,0,0,0,0,0,0,0,0,0,0,0,0,0,0,0],"id":65,"left_children":[1,3,5,7,9,11,-1,13,-1,15,-1,-1,17,-1,-1,-1,-1,-1,-1],"loss_changes":[5.266996E2,3.7679095E2,2.2780388E2,4.271446E0,1.556604E1,6.3574524E0,0E0,1.0214404E1,0E0,3.249386E1,0E0,0E0,4.2337227E1,0E0,0E0,0E0,0E0,0E0,0E0],"parents":[2147483647,0,0,1,1,2,2,3,3,4,4,5,5,7,7,9,9,12,12],"right_children":[2,4,6,8,10,12,-1,14,-1,16,-1,-1,18,-1,-1,-1,-1,-1,-1],"split_conditions":[1.08E2,1.0734E4,6.4397E4,8E0,1.3114E4,4.6587E4,-1.4958817E-1,3.41512E1,1.4987299E-1,2.018E3,-1.500725E-1,1.5009387E-1,3E0,-1.4104114E-1,1.4598975E-1,1.4736554E-1,-1.486127E-1,1.4963585E-1,-1.4720714E-1],"split_indices":[8,9,9,8,9,9,0,4,0,0,0,0,3,0,0,0,0,0,0],"split_type":[0,0,0,0,0,0,0,0,0,0,0,0,0,0,0,0,0,0,0],"sum_hessian":[5.3503203E3,3.5612075E3,1.7891127E3,4.7998727E2,3.0812205E3,1.4976577E3,2.914549E2,4.947582E1,4.3051144E2,1.481062E2,2.9331143E3,1.1828949E3,3.1476285E2,1.5454457E1,3.4021362E1,4.9198807E1,9.8907394E1,2.6391882E2,5.0844036E1],"tree_param":{"num_deleted":"0","num_feature":"11","num_nodes":"19","size_leaf_vector":"1"}},{"base_weights":[1.4259852E-1,-1.4995635E-1,3.0827186E-1,4.1530335E-1,-2.0453367E-1,4.6331817E-1,-1.491472E-1,1.4939107E-1,-4.9527636E-1,2.0112166E-1,4.9832782E-1,-2.505363E-1,-1.4975473E-1,1.5008599E-1,-1.4876448E-1,1.5009841E-1,1.8639858E-1,9.787404E-2,-1.304131E-1,-1.2665217E-1,1.389584E-1],"categories":[],"categories_nodes":[],"categories_segments":[],"categories_sizes":[],"default_left":[0,0,0,0,0,0,0,0,0,0,0,0,0,0,0,0,0,0,0,0,0],"id":66,"left_children":[1,-1,3,5,7,9,-1,-1,11,13,15,17,-1,-1,-1,-1,19,-1,-1,-1,-1],"loss_changes":[5.2200183E2,0E0,2.1405106E2,1.4154602E2,1.3787392E2,2.8032776E1,0E0,0E0,3.3101654E-1,7.5877235E1,1.5932617E0,1.15123E0,0E0,0E0,0E0,0E0,3.365199E0,0E0,0E0,0E0,0E0],"parents":[2147483647,0,0,2,2,3,3,4,4,5,5,8,8,9,9,10,10,11,11,16,16],"right_children":[2,-1,4,6,8,10,-1,-1,12,14,16,18,-1,-1,-1,-1,20,-1,-1,-1,-1],"split_conditions":[3.5439E4,-1.4995635E-1,1.07E2,-7.509935E1,-1.2265064E2,3.9032E4,-1.491472E-1,1.4939107E-1,-1.22643524E2,2.018E3,-7.51014E1,1.33E2,-1.4975473E-1,1.5008599E-1,-1.4876448E-1,1.5009841E-1,2.33437E5,9.787404E-2,-1.304131E-1,-1.2665217E-1,1.389584E-1],"split_indices":[9,0,8,5,5,9,0,0,5,0,5,8,0,0,0,0,9,0,0,0,0],"split_type":[0,0,0,0,0,0,0,0,0,0,0,0,0,0,0,0,0,0,0,0,0],