{"learner":{"attributes":{"scikit_learn":"{\"_estimator_type\": \"classifier\"}"},"feature_names":["Year","Month","Day","City","Latitude","Longitude","Weekday","Daytime","GridID"],"feature_types":["int","int","int","int","float","float","int","int","int"],"gradient_booster":{"model":{"gbtree_model_param":{"num_parallel_tree":"1","num_trees":"300"},"iteration_indptr":[0,3,6,9,12,15,18,21,24,27,30,33,36,39,42,45,48,51,54,57,60,63,66,69,72,75,78,81,84,87,90,93,96,99,102,105,108,111,114,117,120,123,126,129,132,135,138,141,144,147,150,153,156,159,162,165,168,171,174,177,180,183,186,189,192,195,198,201,204,207,210,213,216,219,222,225,228,231,234,237,240,243,246,249,252,255,258,261,264,267,270,273,276,279,282,285,288,291,294,297,300],"tree_info":[0,1,2,0,1,2,0,1,2,0,1,2,0,1,2,0,1,2,0,1,2,0,1,2,0,1,2,0,1,2,0,1,2,0,1,2,0,1,2,0,1,2,0,1,2,0,1,2,0,1,2,0,1,2,0,1,2,0,1,2,0,1,2,0,1,2,0,1,2,0,1,2,0,1,2,0,1,2,0,1,2,0,1,2,0,1,2,0,1,2,0,1,2,0,1,2,0,1,2,0,1,2,0,1,2,0,1,2,0,1,2,0,1,2,0,1,2,0,1,2,0,1,2,0,1,2,0,1,2,0,1,2,0,1,2,0,1,2,0,1,2,0,1,2,0,1,2,0,1,2,0,1,2,0,1,2,0,1,2,0,1,2,0,1,2,0,1,2,0,1,2,0,1,2,0,1,2,0,1,2,0,1,2,0,1,2,0,1,2,0,1,2,0,1,2,0,1,2,0,1,2,0,1,2,0,1,2,0,1,2,0,1,2,0,1,2,0,1,2,0,1,2,0,1,2,0,1,2,0,1,2,0,1,2,0,1,2,0,1,2,0,1,2,0,1,2,0,1,2,0,1,2,0,1,2,0,1,2,0,1,2,0,1,2,0,1,2,0,1,2,0,1,2,0,1,2,0,1,2,0,1,2,0,1,2,0,1,2,0,1,2,0,1,2,0,1,2,0,1,2],"trees":[{"base_weights":[3.290601E-1,6.754132E-1,-4.9981335E-1,-1.5382451E-1,1.1161108E0,5.877636E-1,-7.4761033E-1,4.4998255E-1,-2.9457417E-1,1.3624653E0,-2.2499691E-1,1.2893852E0,-2.2499113E-1,-6.026636E-1,-2.2499931E-1,-7.4311185E-1,3.921637E-2,5.9237105E-1,1.4893098E0,-2.2495018E-1,4.499897E-1,4.4868892E-1,-2.24954E-1,-2.2499822E-1,-5.835013E-1,4.1902512E-1,-6.388475E-1,1.3930588E0,-6.299725E-1,4.4999906E-1,4.7678605E-1,-2.2495021E-1,9.528565E-2,3.933112E-1,-4.921307E-2,-2.219743E-1,1.2810618E-1,-2.2489871E-1,4.4998989E-1,-2.2499226E-1,4.4972447E-1,4.4972926E-1,-1.4185384E-2],"categories":[],"categories_nodes":[],"categories_segments":[],"categories_sizes":[],"default_left":[0,0,0,0,0,0,0,0,0,0,0,0,0,0,0,0,0,0,0,0,0,0,0,0,0,0,0,0,0,0,0,0,0,0,0,0,0,0,0,0,0,0,0],"id":0,"left_children":[1,3,5,7,9,11,13,-1,15,17,-1,19,-1,21,-1,23,25,27,29,-1,-1,-1,-1,-1,31,33,35,37,39,-1,41,-1,-1,-1,-1,-1,-1,-1,-1,-1,-1,-1,-1],"loss_changes":[3.8575984E5,3.4633478E5,1.0672477E5,7.65527E4,2.844925E5,6.897356E4,1.1115625E2,0E0,4.5377203E4,5.3398688E4,0E0,2.0700914E4,0E0,1.6166971E3,0E0,1.4160938E2,4.4752246E4,7.5666125E4,5.0780625E3,0E0,0E0,0E0,0E0,0E0,8.0211035E2,5.7930652E4,6.7211562E3,1.0701719E4,7.818921E3,0E0,2.627276E3,0E0,0E0,0E0,0E0,0E0,0E0,0E0,0E0,0E0,0E0,0E0,0E0],"parents":[2147483647,0,0,1,1,2,2,3,3,4,4,5,5,6,6,8,8,9,9,11,11,13,13,15,15,16,16,17,17,18,18,24,24,25,25,26,26,27,27,28,28,30,30],"right_children":[2,4,6,8,10,12,14,-1,16,18,-1,20,-1,22,-1,24,26,28,30,-1,-1,-1,-1,-1,32,34,36,38,40,-1,42,-1,-1,-1,-1,-1,-1,-1,-1,-1,-1,-1,-1],"split_conditions":[1.07E2,-7.664542E1,-1.2265064E2,1E0,-7.509935E1,1.33E2,-1.22643524E2,4.4998255E-1,-1.183487E2,-7.524789E1,-2.2499691E-1,1.31E2,-2.2499113E-1,1.33E2,-2.2499931E-1,-1.183563E2,-1.182509E2,8.6E1,-7.51014E1,-2.2495018E-1,4.499897E-1,4.4868892E-1,-2.24954E-1,-2.2499822E-1,3.1E1,1.8E1,-7.665399E1,8.3E1,1.06E2,4.4999906E-1,1.01E2,-2.2495021E-1,9.528565E-2,3.933112E-1,-4.921307E-2,-2.219743E-1,1.2810618E-1,-2.2489871E-1,4.4998989E-1,-2.2499226E-1,4.4972447E-1,4.4972926E-1,-1.4185384E-2],"split_indices":[8,5,5,8,5,8,5,0,5,5,0,8,0,8,0,5,5,8,5,0,0,0,0,0,8,8,5,8,8,0,8,0,0,0,0,0,0,0,0,0,0,0,0],"split_type":[0,0,0,0,0,0,0,0,0,0,0,0,0,0,0,0,0,0,0,0,0,0,0,0,0,0,0,0,0,0,0,0,0,0,0,0,0,0,0,0,0,0,0],"sum_hessian":[1.3437208E6,9.477106E5,3.960102E5,3.288782E5,6.1883244E5,7.348488E4,3.225253E5,2.579422E4,3.0308397E5,5.4666444E5,7.216799E4,4.820311E4,2.5281775E4,5.2302217E3,3.172951E5,1.2931421E5,1.7376977E5,7.730977E4,4.6935462E5,4.511555E3,4.3691555E4,3.422222E2,4.8879995E3,1.2396533E5,5.3488887E3,1.1138133E5,6.238844E4,4.6711555E4,3.059822E4,4.6445197E5,4.9026665E3,4.515555E3,8.333333E2,4.402622E4,6.735511E4,5.698533E4,5.403111E3,2.2195554E3,4.4491996E4,2.896622E4,1.6319999E3,1.6608888E3,3.2417776E3],"tree_param":{"num_deleted":"0","num_feature":"9","num_nodes":"43","size_leaf_vector":"1"}},{"base_weights":[-8.77367E-2,5.2655965E-1,-2.6011917E-1,9.756065E-1,7.0469E-2,-3.6159825E-1,3.3758268E-1,1.068558E0,-9.972805E-2,-1.7547083E-1,7.848354E-1,-6.2882996E-1,1.2022883E-1,1.4503356E0,-2.2499712E-1,7.1447283E-1,1.4615967E0,-2.249669E-1,7.798764E-1,-2.2499678E-1,8.3220935E-1,1.4468164E0,-7.0817024E-1,4.8443517E-1,-7.011987E-1,1.2785006E0,-5.64582E-1,-2.2486465E-1,4.499939E-1,1.2787668E0,-1.551751E-1,4.499925E-1,9.674562E-1,4.4986817E-1,-2.2485997E-1,1.4120559E0,-1.1845895E-1,-2.2463298E-1,4.4998226E-1,5.5454265E-2,-7.375534E-1,-2.2498077E-1,1.0971161E0,-2.9776788E-1,-2.2499956E-1,4.4999185E-1,1.0859742E0,-2.2499797E-1,-3.4348223E-1,-1.5593325E-1,4.4998842E-1,2.7450264E-1,-2.1336314E-1,3.2889977E-1,-2.2431149E-1,3.6127332E-1,4.4997388E-1,3.5796827E-1,-2.1735065E-1,4.4706735E-1,-2.2417986E-1,-1.8565539E-1,-2.2497757E-1,4.4997674E-1,-2.2494665E-1,-2.2499521E-1,4.4996172E-1,4.4999138E-1,-2.249808E-1,4.4997287E-1,-2.2499704E-1],"categories":[],"categories_nodes":[],"categories_segments":[],"categories_sizes":[],"default_left":[0,0,0,0,0,0,0,0,0,0,0,0,0,0,0,0,0,0,0,0,0,0,0,0,0,0,0,0,0,0,0,0,0,0,0,0,0,0,0,0,0,0,0,0,0,0,0,0,0,0,0,0,0,0,0,0,0,0,0,0,0,0,0,0,0,0,0,0,0,0,0],"id":1,"left_children":[1,3,5,7,9,11,13,15,17,19,21,23,25,27,-1,29,31,-1,33,-1,35,37,39,41,43,45,47,-1,-1,49,51,-1,53,-1,-1,55,57,-1,-1,59,61,-1,63,65,-1,-1,67,-1,69,-1,-1,-1,-1,-1,-1,-1,-1,-1,-1,-1,-1,-1,-1,-1,-1,-1,-1,-1,-1,-1,-1],"loss_changes":[1.4229211E5,6.0304242E4,6.364322E4,1.4830109E4,2.5664805E4,1.15495445E5,1.8430552E5,1.9004453E4,6.751941E3,6.2911684E4,3.6976523E4,4.6485094E4,2.5382877E5,8.222016E3,0E0,3.5256766E4,1.2259531E3,0E0,5.5242725E3,0E0,2.1751736E4,3.024371E3,2.5791748E2,2.6635588E4,1.0665656E4,5.0682344E3,8.243977E3,0E0,0E0,1.733482E4,1.6825047E4,0E0,1.0324795E3,0E0,0E0,4.456836E2,1.1885462E4,0E0,0E0,4.9264178E2,1.5788574E1,0E0,1.7511338E4,4.7526793E4,0E0,0E0,4.8349195E4,0E0,6.87372E4,0E0,0E0,0E0,0E0,0E0,0E0,0E0,0E0,0E0,0E0,0E0,0E0,0E0,0E0,0E0,0E0,0E0,0E0,0E0,0E0,0E0,0E0],"parents":[2147483647,0,0,1,1,2,2,3,3,4,4,5,5,6,6,7,7,8,8,9,9,10,10,11,11,12,12,13,13,15,15,16,16,18,18,20,20,21,21,22,22,23,23,24,24,25,25,26,26,29,29,30,30,32,32,35,35,36,36,39,39,40,40,42,42,43,43,46,46,48,48],"right_children":[2,4,6,8,10,12,14,16,18,20,22,24,26,28,-1,30,32,-1,34,-1,36,38,40,42,44,46,48,-1,-1,50,52,-1,54,-1,-1,56,58,-1,-1,60,62,-1,64,66,-1,-1,68,-1,70,-1,-1,-1,-1,-1,-1,-1,-1,-1,-1,-1,-1,-1,-1,-1,-1,-1,-1,-1,-1,-1,-1],"split_conditions":[5.8E1,-1.183158E2,-7.51014E1,3.42554E1,-1.182509E2,1.07E2,1.04E2,3.41512E1,3.9E1,1.8E1,8E0,-7.664542E1,1.11E2,1.01E2,-2.2499712E-1,2.6E1,3.42427E1,-2.249669E-1,4.7E1,-2.2499678E-1,3.1E1,1E0,2.4E1,8.5E1,8.8E1,1.08E2,1.34E2,-2.2486465E-1,4.499939E-1,-1.184487E2,3.40055E1,4.499925E-1,4.7E1,4.4986817E-1,-2.2485997E-1,3.3931E1,3.3798E1,-2.2463298E-1,4.4998226E-1,3.39483E1,-1.18247E2,-2.2498077E-1,8.9E1,8.6E1,-2.2499956E-1,4.4999185E-1,3.9950188E1,-2.2499797E-1,1.35E2,-1.5593325E-1,4.4998842E-1,2.7450264E-1,-2.1336314E-1,3.2889977E-1,-2.2431149E-1,3.6127332E-1,4.4997388E-1,3.5796827E-1,-2.1735065E-1,4.4706735E-1,-2.2417986E-1,-1.8565539E-1,-2.2497757E-1,4.4997674E-1,-2.2494665E-1,-2.2499521E-1,4.4996172E-1,4.4999138E-1,-2.249808E-1,4.4997287E-1,-2.2499704E-1],"split_indices":[8,5,5,4,5,8,8,4,8,8,8,5,8,8,0,8,4,0,8,0,8,8,8,8,8,8,8,0,0,5,4,0,8,0,0,4,4,0,0,4,5,0,8,8,0,0,4,0,8,0,0,0,0,0,0,0,0,0,0,0,0,0,0,0,0,0,0,0,0,0,0],"split_type":[0,0,0,0,0,0,0,0,0,0,0,0,0,0,0,0,0,0,0,0,0,0,0,0,0,0,0,0,0,0,0,0,0,0,0,0,0,0,0,0,0,0,0,0,0,0,0,0,0,0,0,0,0,0,0,0,0,0,0,0,0,0,0,0,0,0,0,0,0,0,0],"sum_hessian":[1.3437208E6,2.9444488E5,1.0492759E6,1.4836755E5,1.4607733E5,8.969844E5,1.5229155E5,1.3656311E5,1.1804443E4,1.08666664E5,3.7410664E4,5.7697906E5,3.200053E5,7.527422E4,7.701733E4,7.184311E4,6.4719996E4,6.787555E3,5.0168887E3,6.920844E4,3.945822E4,2.5918666E4,1.1491999E4,3.5217332E4,5.4176175E5,1.1889999E5,2.0110533E5,1.6608888E3,7.361333E4,4.3570664E4,2.8272443E4,6.0053773E4,4.666222E3,3.4115554E3,1.6053333E3,2.4508887E4,1.4949332E4,6.1199994E2,2.5306666E4,4.2577774E2,1.1066222E4,1.1681777E4,2.3535555E4,5.8461773E4,4.8329997E5,5.529022E4,6.3609773E4,1.093791E5,9.172622E4,4.771555E3,3.879911E4,9.666666E3,1.8605777E4,4.3404443E3,3.2577777E2,7.287111E3,1.7221777E4,4.7239995E3,1.0225333E4,1.5244444E2,2.733333E2,1.0493333E3,1.0016889E4,1.9321777E4,4.2137773E3,4.6711555E4,1.1750222E4,5.1905332E4,1.1704443E4,1.6572443E4,7.515377E4],"tree_param":{"num_deleted":"0","num_feature":"9","num_nodes":"71","size_leaf_vector":"1"}},{"base_weights":[-2.4132355E-1,-5.532363E-1,9.959575E-1,-3.3599758E-1,-6.8570143E-1,1.6155136E-1,1.4828706E0,-4.366061E-1,1.3121445E0,-7.4704313E-1,-1.6160029E-1,-5.9092855E-1,4.4998747E-1,9.479343E-1,4.499973E-1,-1.749924E-1,-5.541591E-1,4.4997904E-1,-7.439987E-1,-2.2499965E-1,4.4942677E-1,-2.2499566E-1,4.4997537E-1,4.499003E-1,-2.2499624E-1,-2.2482708E-1,4.4988754E-1,-3.468579E-1,9.1876584E-1,-3.7978448E-2,-6.052768E-1,-2.2488482E-1,3.7358493E-1,-1.397607E-1,2.2240862E-1,5.575853E-2,4.4994998E-1,-8.06616E-2,4.4985533E-1,-1.6059145E-1,-2.2499716E-1],"categories":[],"categories_nodes":[],"categories_segments":[],"categories_sizes":[],"default_left":[0,0,0,0,0,0,0,0,0,0,0,0,0,0,0,0,0,0,0,0,0,0,0,0,0,0,0,0,0,0,0,0,0,0,0,0,0,0,0,0,0],"id":2,"left_children":[1,3,5,7,9,11,13,15,17,19,21,23,-1,25,-1,27,29,-1,31,-1,-1,-1,-1,-1,-1,-1,-1,33,35,37,39,-1,-1,-1,-1,-1,-1,-1,-1,-1,-1],"loss_changes":[5.1857478E5,3.0882125E4,1.0991709E5,6.740754E4,2.1432688E4,1.0040904E5,1.5632812E3,1.1782391E4,9.031414E3,3.9615312E3,6.829074E4,2.1222646E4,0E0,4.9650684E3,0E0,2.2328941E4,6.975008E3,0E0,2.281189E1,0E0,0E0,0E0,0E0,0E0,0E0,0E0,0E0,1.3294961E4,6.8690938E3,8.456652E3,2.4351406E3,0E0,0E0,0E0,0E0,0E0,0E0,0E0,0E0,0E0,0E0],"parents":[2147483647,0,0,1,1,2,2,3,3,4,4,5,5,6,6,7,7,8,8,9,9,10,10,11,11,13,13,15,15,16,16,18,18,27,27,28,28,29,29,30,30],"right_children":[2,4,6,8,10,12,14,16,18,20,22,24,-1,26,-1,28,30,-1,32,-1,-1,-1,-1,-1,-1,-1,-1,34,36,38,40,-1,-1,-1,-1,-1,-1,-1,-1,-1,-1],"split_conditions":[1.11E2,-7.524789E1,-1.2260545E2,8.9E1,1.08E2,1.35E2,-1.22593094E2,-1.183659E2,1.06E2,2.018E3,3.9950188E1,1.31E2,4.4998747E-1,1.35E2,4.499973E-1,5.2E1,3.39483E1,4.4997904E-1,3.9991398E1,-2.2499965E-1,4.4942677E-1,-2.2499566E-1,4.4997537E-1,4.499003E-1,-2.2499624E-1,-2.2482708E-1,4.4988754E-1,3.42554E1,-1.185943E2,3.7E1,8.3E1,-2.2488482E-1,3.7358493E-1,-1.397607E-1,2.2240862E-1,5.575853E-2,4.4994998E-1,-8.06616E-2,4.4985533E-1,-1.6059145E-1,-2.2499716E-1],"split_indices":[8,5,5,8,8,8,5,5,8,0,4,8,0,8,0,8,4,0,4,0,0,0,0,0,0,0,0,4,5,8,8,0,0,0,0,0,0,0,0,0,0],"split_type":[0,0,0,0,0,0,0,0,0,0,0,0,0,0,0,0,0,0,0,0,0,0,0,0,0,0,0,0,0,0,0,0,0,0,0,0,0,0,0,0,0],"sum_hessian":[1.3437208E6,1.0731781E6,2.7054266E5,4.0651288E5,6.666653E5,9.969688E4,1.7084577E5,3.831262E5,2.3386666E4,5.968129E5,6.985244E4,6.3817773E4,3.587911E4,5.2999995E3,1.6554577E5,1.1878133E5,2.6434488E5,2.1429777E4,1.9568888E3,5.960289E5,7.8399994E2,5.1585332E4,1.826711E4,4.511555E3,5.930622E4,1.2999999E3,3.9999998E3,1.0265199E5,1.6129332E4,2.3819555E4,2.4052531E5,1.9519999E3,4.8888884E0,9.253288E4,1.011911E4,7.133333E3,8.995999E3,2.071022E4,3.1093333E3,1.6213466E5,7.8390664E4],"tree_param":{"num_deleted":"0","num_feature":"9","num_nodes":"41","size_leaf_vector":"1"}},{"base_weights":[2.5193936E-1,4.9532843E-1,-4.3007302E-1,-1.3464355E-1,7.788882E-1,4.3912116E-1,-6.663283E-1,1.6856404E-1,-6.853073E-1,9.238344E-1,-2.00604E-1,8.878551E-1,-2.0059822E-1,-5.260714E-1,-2.0060629E-1,-6.574459E-1,3.6239144E-1,-7.452742E-1,-6.717191E-1,4.2853147E-1,1.0029883E0,-2.005602E-1,3.027428E-1,3.021629E-1,-2.0056134E-1,-6.8100286E-1,-4.5592228E-1,5.7205045E-1,-6.232081E-1,-8.0925363E-1,-7.172067E-1,-6.6601956E-1,-6.802008E-1,9.50446E-1,-5.685796E-1,3.0274656E-1,3.618839E-1,-2.1129657E-1,-2.0080681E-1,-1.9946055E-1,2.902285E-1,-2.1309038E-1,2.3632896E-1,3.074119E-1,-1.9953974E-1,-2.0021059E-1,-2.8424555E-1,-2.0855188E-1,-2.2069713E-1,-1.9893348E-1,-2.1794088E-1,-2.0980926E-1,-2.0181449E-1,-2.2250491E-1,3.0611598E-1,-2.0260735E-1,3.0263302E-1,3.0263665E-1,-6.319035E-3],"categories":[],"categories_nodes":[],"categories_segments":[],"categories_sizes":[],"default_left":[0,0,0,0,0,0,0,0,0,0,0,0,0,0,0,0,0,0,0,0,0,0,0,0,0,0,0,0,0,0,0,0,0,0,0,0,0,0,0,0,0,0,0,0,0,0,0,0,0,0,0,0,0,0,0,0,0,0,0],"id":3,"left_children":[1,3,5,7,9,11,13,15,17,19,-1,21,-1,23,-1,25,27,29,31,33,35,-1,-1,-1,-1,37,39,41,43,45,47,49,51,53,55,-1,57,-1,-1,-1,-1,-1,-1,-1,-1,-1,-1,-1,-1,-1,-1,-1,-1,-1,-1,-1,-1,-1,-1],"loss_changes":[2.1982719E5,1.743476E5,7.1525234E4,5.058243E4,1.4121972E5,3.7004582E4,9.028125E1,3.1280355E4,8.715625E1,2.3984969E4,0E0,1.000168E4,0E0,9.913397E2,0E0,1.7596777E2,3.2699633E4,3.509082E1,3.7851562E0,4.387086E4,2.085125E3,0E0,0E0,0E0,0E0,8.557617E0,1.157346E3,3.6095586E4,1.9183936E3,1.18012695E2,5.1054688E0,8.75E0,4.5810547E0,6.549707E3,4.8791543E3,0E0,1.2453931E3,0E0,0E0,0E0,0E0,0E0,0E0,0E0,0E0,0E0,0E0,0E0,0E0,0E0,0E0,0E0,0E0,0E0,0E0,0E0,0E0,0E0,0E0],"parents":[2147483647,0,0,1,1,2,2,3,3,4,4,5,5,6,6,7,7,8,8,9,9,11,11,13,13,15,15,16,16,17,17,18,18,19,19,20,20,25,25,26,26,27,27,28,28,29,29,30,30,31,31,32,32,33,33,34,34,36,36],"right_children":[2,4,6,8,10,12,14,16,18,20,-1,22,-1,24,-1,26,28,30,32,34,36,-1,-1,-1,-1,38,40,42,44,46,48,50,52,54,56,-1,58,-1,-1,-1,-1,-1,-1,-1,-1,-1,-1,-1,-1,-1,-1,-1,-1,-1,-1,-1,-1,-1,-1],"split_conditions":[1.07E2,-7.665399E1,-1.2265064E2,3.41005E1,-7.509935E1,1.33E2,-1.22643524E2,-1.183487E2,3.41512E1,-7.524789E1,-2.00604E-1,1.31E2,-2.0059822E-1,1.33E2,-2.0060629E-1,-1.183563E2,-1.182509E2,1.2E1,3.42427E1,8.6E1,-7.51014E1,-2.005602E-1,3.027428E-1,3.021629E-1,-2.0056134E-1,-1.184422E2,3.1E1,3.39483E1,1E0,1.1E1,2.3E1,5.8E1,3.42684E1,8.3E1,1.06E2,3.0274656E-1,1.01E2,-2.1129657E-1,-2.0080681E-1,-1.9946055E-1,2.902285E-1,-2.1309038E-1,2.3632896E-1,3.074119E-1,-1.9953974E-1,-2.0021059E-1,-2.8424555E-1,-2.0855188E-1,-2.2069713E-1,-1.9893348E-1,-2.1794088E-1,-2.0980926E-1,-2.0181449E-1,-2.2250491E-1,3.0611598E-1,-2.0260735E-1,3.0263302E-1,3.0263665E-1,-6.319035E-3],"split_indices":[8,5,5,4,5,8,5,5,4,5,0,8,0,8,0,5,5,8,4,8,5,0,0,0,0,5,8,4,8,8,8,8,4,8,8,0,8,0,0,0,0,0,0,0,0,0,0,0,0,0,0,0,0,0,0,0,0,0,0],"split_type":[0,0,0,0,0,0,0,0,0,0,0,0,0,0,0,0,0,0,0,0,0,0,0,0,0,0,0,0,0,0,0,0,0,0,0,0,0,0,0,0,0,0,0,0,0,0,0,0,0,0,0,0,0,0,0,0,0,0,0],"sum_hessian":[1.3243028E6,9.759992E5,3.4830356E5,3.029498E5,6.7304944E5,7.443883E4,2.7386475E5,1.9537353E5,1.0757627E5,6.117907E5,6.1258742E4,5.2978715E4,2.1460117E4,4.534168E3,2.6933056E5,3.7131688E4,1.5824184E5,1.986321E4,8.771306E4,8.429905E4,5.274916E5,3.829765E3,4.914895E4,3.8496356E2,4.1492046E3,3.324335E4,3.8883357E3,1.3048516E5,2.7756686E4,6.048321E3,1.381489E4,5.250824E4,3.520483E4,5.5335184E4,2.8963865E4,5.224655E5,5.0261226E3,1.1053298E4,2.2190053E4,3.3910642E3,4.9727136E2,1.8788787E4,1.1169637E5,6.880514E2,2.7068635E4,2.987593E3,3.0607278E3,6.313672E3,7.501218E3,5.010968E4,2.3985576E3,9.863145E3,2.5341682E4,2.195998E3,5.3139188E4,2.7128021E4,1.8358433E3,1.8683403E3,3.1577825E3],"tree_param":{"num_deleted":"0","num_feature":"9","num_nodes":"59","size_leaf_vector":"1"}},{"base_weights":[-7.1148686E-2,3.9086604E-1,-2.1718577E-1,6.8477035E-1,5.5779964E-2,-4.9733704E-1,-6.1437283E-2,7.4302566E-1,-8.12005E-2,-1.9948773E-1,1.8653701E-1,1.5351338E-2,-2.0060284E-1,1.0109503E0,-2.2871104E-1,4.9123222E-1,1.0094763E0,-2.0860879E-1,6.486244E-1,3.0805135E-1,-7.6446116E-2,-6.77624E-1,1.0179503E0,3.2054323E-1,3.0274433E-1,6.902064E-1,-3.73128E-1,8.886043E-1,-1.8419963E-1,1.0359123E0,6.611815E-1,3.4577516E-1,-6.874448E-1,-6.7148274E-1,3.488268E-1,-7.0347387E-1,-6.7112416E-1,3.0296618E-1,1.0274943E0,9.967168E-1,-2.005918E-1,-6.641977E-1,-2.0776957E-1,-1.5844823E-1,3.1354058E-1,2.0336798E-1,-2.0640768E-1,3.0953726E-1,3.274331E-1,2.2155696E-1,-2.0176657E-1,-2.0248856E-1,-2.1567024E-1,-2.0129332E-1,-2.2171827E-1,2.5304782E-1,-9.824357E-2,-2.0108445E-1,-2.153826E-1,-2.11815E-1,-2.0060195E-1,3.3497098E-1,3.0273068E-1,-2.0014766E-1,3.027435E-1,-2.0070179E-1,-1.3150363E-1,3.0274338E-1,-1.5995161E-1],"categories":[],"categories_nodes":[],"categories_segments":[],"categories_sizes":[],"default_left":[0,0,0,0,0,0,0,0,0,0,0,0,0,0,0,0,0,0,0,0,0,0,0,0,0,0,0,0,0,0,0,0,0,0,0,0,0,0,0,0,0,0,0,0,0,0,0,0,0,0,0,0,0,0,0,0,0,0,0,0,0,0,0,0,0,0,0,0,0],"id":4,"left_children":[1,3,5,7,9,11,13,15,17,-1,19,21,-1,23,25,27,29,-1,31,-1,33,35,37,-1,-1,39,41,43,45,47,49,-1,51,53,55,57,59,-1,61,63,-1,65,67,-1,-1,-1,-1,-1,-1,-1,-1,-1,-1,-1,-1,-1,-1,-1,-1,-1,-1,-1,-1,-1,-1,-1,-1,-1,-1],"loss_changes":[8.478056E4,2.972089E4,4.1658977E4,7.1740312E3,1.3289616E4,2.9966734E4,1.1007273E5,1.0023469E4,5.0941997E3,0E0,2.6377121E4,5.9370043E4,0E0,7.5078125E0,7.044414E4,2.0618352E4,6.676953E2,0E0,3.4977593E3,0E0,2.3005479E4,8.017578E0,1.6484375E0,0E0,0E0,3.0027832E4,2.2078855E4,1.0726418E4,1.2359821E4,1.43125E1,5.290337E2,0E0,7.354736E-2,7.988281E-1,1.773757E4,4.3842773E0,2.984375E0,0E0,2.4980469E1,1.2171172E3,0E0,1.8019531E2,1.1584183E5,0E0,0E0,0E0,0E0,0E0,0E0,0E0,0E0,0E0,0E0,0E0,0E0,0E0,0E0,0E0,0E0,0E0,0E0,0E0,0E0,0E0,0E0,0E0,0E0,0E0,0E0],"parents":[2147483647,0,0,1,1,2,2,3,3,4,4,5,5,6,6,7,7,8,8,10,10,11,11,13,13,14,14,15,15,16,16,18,18,20,20,21,21,22,22,25,25,26,26,27,27,28,28,29,29,30,30,32,32,33,33,34,34,35,35,36,36,38,38,39,39,41,41,42,42],"right_children":[2,4,6,8,10,12,14,16,18,-1,20,22,-1,24,26,28,30,-1,32,-1,34,36,38,-1,-1,40,42,44,46,48,50,-1,52,54,56,58,60,-1,62,64,-1,66,68,-1,-1,-1,-1,-1,-1,-1,-1,-1,-1,-1,-1,-1,-1,-1,-1,-1,-1,-1,-1,-1,-1,-1,-1,-1,-1],"split_conditions":[5.8E1,-1.183158E2,1.03E2,3.42554E1,1E0,8.9E1,1.04E2,3.41512E1,3.9E1,-1.9948773E-1,8E0,8.6E1,-2.0060284E-1,-7.509935E1,3.9950188E1,2.6E1,3.42427E1,-2.0860879E-1,4.7E1,3.0805135E-1,1.8E1,8.3E1,-7.665399E1,3.2054323E-1,3.0274433E-1,1.11E2,4.0000225E1,-1.184487E2,3.40055E1,5.2E1,4.7E1,3.4577516E-1,-1.185492E2,-1.182509E2,3.1E1,3.41512E1,-7.664542E1,3.0296618E-1,-7.664542E1,1.07E2,-2.005918E-1,3.999923E1,1.08E2,-1.5844823E-1,3.1354058E-1,2.0336798E-1,-2.0640768E-1,3.0953726E-1,3.274331E-1,2.2155696E-1,-2.0176657E-1,-2.0248856E-1,-2.1567024E-1,-2.0129332E-1,-2.2171827E-1,2.5304782E-1,-9.824357E-2,-2.0108445E-1,-2.153826E-1,-2.11815E-1,-2.0060195E-1,3.3497098E-1,3.0273068E-1,-2.0014766E-1,3.027435E-1,-2.0070179E-1,-1.3150363E-1,3.0274338E-1,-1.5995161E-1],"split_indices":[8,5,8,4,8,8,8,4,8,0,8,8,0,5,4,8,4,0,8,0,8,8,5,0,0,8,4,5,4,8,8,0,5,5,8,4,5,0,5,8,0,4,8,0,0,0,0,0,0,0,0,0,0,0,0,0,0,0,0,0,0,0,0,0,0,0,0,0,0],"split_type":[0,0,0,0,0,0,0,0,0,0,0,0,0,0,0,0,0,0,0,0,0,0,0,0,0,0,0,0,0,0,0,0,0,0,0,0,0,0,0,0,0,0,0,0,0,0,0,0,0,0,0,0,0,0,0,0,0,0,0,0,0,0,0,0,0,0,0,0,0],"sum_hessian":[1.2565408E6,3.017856E5,9.5475506E5,1.6077162E5,1.4101398E5,3.4113647E5,6.136186E5,1.494085E5,1.136312E4,2.1653697E4,1.1936028E5,8.545003E4,2.5568645E5,8.279797E4,5.308206E5,7.681853E4,7.258997E4,6.1705376E3,5.1925825E3,2.8450498E4,9.090978E4,5.052709E4,3.4922938E4,2.497578E3,8.030039E4,7.2092984E4,4.5872766E5,4.836436E4,2.8454176E4,6.746717E4,5.122795E3,3.7705027E3,1.4220796E3,3.789166E4,5.3018125E4,1.0130492E4,4.0396598E4,1.8988162E4,1.5934777E4,5.882442E4,1.3268565E4,1.6619042E5,2.9253722E5,4.811649E3,4.355271E4,1.0495337E4,1.795884E4,6.282415E4,4.643022E3,4.8424346E3,2.8036026E2,1.034146E3,3.8793362E2,3.7621418E4,2.7024338E2,3.0620969E4,2.2397156E4,3.08965E3,7.0408423E3,2.630232E3,3.7766367E4,2.71687E3,1.3217907E4,4.3573407E2,5.8388688E4,1.6272416E5,3.4662617E3,6.1719914E4,2.3081731E5],"tree_param":{"num_deleted":"0","num_feature":"9","num_nodes":"69","size_leaf_vector":"1"}},{"base_weights":[-1.9834815E-1,-4.74861E-1,7.0903474E-1,-2.74145E-1,-6.0578966E-1,1.272693E-1,9.995019E-1,-3.6152905E-1,9.019968E-1,-6.6582936E-1,-1.3278405E-1,-5.150183E-1,3.0274227E-1,6.7861444E-1,3.02746E-1,-1.3022085E-1,-4.7169793E-1,3.0298263E-1,-6.6266423E-1,-2.0062484E-1,3.0249345E-1,-2.0060265E-1,3.02737E-1,3.0270648E-1,-2.0060362E-1,-2.0043476E-1,3.0269712E-1,-2.775708E-1,6.7733335E-1,-1.8665502E-2,-5.278998E-1,-2.0049934E-1,2.663438E-1,-1.1495916E-1,1.6001517E-1,4.6650488E-2,3.1523457E-1,-7.786361E-2,3.6533806E-1,-1.830712E-1,-1.2349309E-1],"categories":[],"categories_nodes":[],"categories_segments":[],"categories_sizes":[],"default_left":[0,0,0,0,0,0,0,0,0,0,0,0,0,0,0,0,0,0,0,0,0,0,0,0,0,0,0,0,0,0,0,0,0,0,0,0,0,0,0,0,0],"id":5,"left_children":[1,3,5,7,9,11,13,15,17,19,21,23,-1,25,-1,27,29,-1,31,-1,-1,-1,-1,-1,-1,-1,-1,33,35,37,39,-1,-1,-1,-1,-1,-1,-1,-1,-1,-1],"loss_changes":[3.0895862E5,2.4801906E4,4.860042E4,3.8293996E4,1.6221172E4,5.4250695E4,5.934219E2,8.838098E3,4.3529004E3,2.4784844E3,3.9371098E4,1.2978584E4,0E0,2.49414E3,0E0,1.3315032E4,5.981633E3,0E0,1.521051E1,0E0,0E0,0E0,0E0,0E0,0E0,0E0,0E0,8.1060522E3,3.3647446E3,7.7230503E3,2.0003711E3,0E0,0E0,0E0,0E0,0E0,0E0,0E0,0E0,0E0,0E0],"parents":[2147483647,0,0,1,1,2,2,3,3,4,4,5,5,6,6,7,7,8,8,9,9,10,10,11,11,13,13,15,15,16,16,18,18,27,27,28,28,29,29,30,30],"right_children":[2,4,6,8,10,12,14,16,18,20,22,24,-1,26,-1,28,30,-1,32,-1,-1,-1,-1,-1,-1,-1,-1,34,36,38,40,-1,-1,-1,-1,-1,-1,-1,-1,-1,-1],"split_conditions":[1.11E2,-7.524789E1,-1.2260545E2,8.9E1,1.08E2,1.35E2,-1.22593094E2,-1.183659E2,1.06E2,2.018E3,3.9950188E1,1.31E2,3.0274227E-1,1.35E2,3.02746E-1,5.2E1,3.39579E1,3.0298263E-1,3.9991398E1,-2.0062484E-1,3.0249345E-1,-2.0060265E-1,3.02737E-1,3.0270648E-1,-2.0060362E-1,-2.0043476E-1,3.0269712E-1,3.42554E1,-1.185943E2,-1.182509E2,3.41005E1,-2.0049934E-1,2.663438E-1,-1.1495916E-1,1.6001517E-1,4.6650488E-2,3.1523457E-1,-7.786361E-2,3.6533806E-1,-1.830712E-1,-1.2349309E-1],"split_indices":[8,5,5,8,8,8,5,5,8,0,4,8,0,8,0,8,4,0,4,0,0,0,0,0,0,0,0,4,5,5,4,0,0,0,0,0,0,0,0,0,0],"split_type":[0,0,0,0,0,0,0,0,0,0,0,0,0,0,0,0,0,0,0,0,0,0,0,0,0,0,0,0,0,0,0,0,0,0,0,0,0,0,0,0,0],"sum_hessian":[1.2313842E6,9.4378025E5,2.87604E5,3.7259247E5,5.711878E5,9.577712E4,1.9182688E5,3.4682503E5,2.576743E4,5.0685156E5,6.4336227E4,5.541644E4,4.036067E4,5.603209E3,1.8622367E5,1.1189495E5,2.3493006E5,2.4104805E4,1.6626256E3,5.0596962E5,8.819226E2,4.378742E4,2.0548803E4,5.0750767E3,5.0341367E4,1.1035842E3,4.499625E3,9.462916E4,1.7265803E4,2.5928305E4,2.0900177E5,1.657138E3,5.4877205E0,8.37246E4,1.0904555E4,7.202681E3,1.0063122E4,2.1701361E4,4.2269443E3,1.2234653E5,8.6655234E4],"tree_param":{"num_deleted":"0","num_feature":"9","num_nodes":"41","size_leaf_vector":"1"}},{"base_weights":[2.0901106E-1,4.043222E-1,-3.8973925E-1,-1.2408774E-1,6.352832E-1,3.7624365E-1,-6.1766714E-1,1.2806097E-1,-6.3991547E-1,7.4448806E-1,-1.8529002E-1,7.245705E-1,-1.8495128E-1,-5.1703745E-1,-6.195483E-1,-6.174624E-1,2.8220347E-1,-7.051948E-1,-6.238734E-1,3.6556906E-1,8.029337E-1,-1.8490851E-1,2.442477E-1,2.437627E-1,-6.456117E-1,-6.47062E-1,-6.17357E-1,-6.4219034E-1,-4.049911E-1,4.3896687E-1,-5.757845E-1,-7.7182543E-1,-6.7537475E-1,-6.162185E-1,-6.349276E-1,7.631888E-1,-5.169859E-1,2.4235451E-1,2.9815105E-1,-1.9917202E-1,-1.8483795E-1,-1.9923441E-1,-1.849297E-1,-6.29855E-1,-1.8513452E-1,-1.9887343E-1,-1.8343073E-1,-1.8433246E-1,2.1180354E-1,2.4879955E-1,-2.0879693E-2,2.4552523E-1,-1.8475476E-1,-1.8522951E-1,-2.6861346E-1,-1.9005845E-1,-2.1188839E-1,-1.8348661E-1,-2.0938295E-1,-1.9597684E-1,-1.848235E-1,-2.1857814E-1,2.4793234E-1,-1.8622938E-1,2.4223778E-1,1.0502069E-2,3.499388E-1,-1.9906509E-1,-1.8489815E-1],"categories":[],"categories_nodes":[],"categories_segments":[],"categories_sizes":[],"default_left":[0,0,0,0,0,0,0,0,0,0,0,0,0,0,0,0,0,0,0,0,0,0,0,0,0,0,0,0,0,0,0,0,0,0,0,0,0,0,0,0,0,0,0,0,0,0,0,0,0,0,0,0,0,0,0,0,0,0,0,0,0,0,0,0,0,0,0,0,0],"id":6,"left_children":[1,3,5,7,9,11,13,15,17,19,-1,21,-1,23,25,27,29,31,33,35,37,-1,-1,-1,39,41,43,45,47,49,51,53,55,57,59,61,63,-1,65,-1,-1,-1,-1,67,-1,-1,-1,-1,-1,-1,-1,-1,-1,-1,-1,-1,-1,-1,-1,-1,-1,-1,-1,-1,-1,-1,-1,-1,-1],"loss_changes":[1.3920816E5,1.0954514E5,5.111915E4,3.5508438E4,8.546078E4,2.3219533E4,4.240625E1,2.1072457E4,9.342969E1,1.27231875E4,0E0,5.971791E3,0E0,7.0943835E2,1.29453125E1,1.6480664E2,2.0438129E4,3.459668E1,5.6972656E0,2.6942766E4,1.2345938E3,0E0,0E0,0E0,1.6309814E0,8.114746E0,2.265625E-1,1.752832E1,7.632206E2,2.550659E4,1.3117686E3,1.0355249E2,1.5361816E1,1.5558594E1,9.756836E0,4.995008E3,3.2782651E3,0E0,1.096948E3,0E0,0E0,0E0,0E0,1.3453369E0,0E0,0E0,0E0,0E0,0E0,0E0,0E0,0E0,0E0,0E0,0E0,0E0,0E0,0E0,0E0,0E0,0E0,0E0,0E0,0E0,0E0,0E0,0E0,0E0,0E0],"parents":[2147483647,0,0,1,1,2,2,3,3,4,4,5,5,6,6,7,7,8,8,9,9,11,11,13,13,14,14,15,15,16,16,17,17,18,18,19,19,20,20,24,24,25,25,26,26,27,27,28,28,29,29,30,30,31,31,32,32,33,33,34,34,35,35,36,36,38,38,43,43],"right_children":[2,4,6,8,10,12,14,16,18,20,-1,22,-1,24,26,28,30,32,34,36,38,-1,-1,-1,40,42,44,46,48,50,52,54,56,58,60,62,64,-1,66,-1,-1,-1,-1,68,-1,-1,-1,-1,-1,-1,-1,-1,-1,-1,-1,-1,-1,-1,-1,-1,-1,-1,-1,-1,-1,-1,-1,-1,-1],"split_conditions":[1.07E2,-7.665399E1,-1.2265064E2,3.41005E1,-7.509935E1,1.33E2,-1.22643524E2,-1.183487E2,3.41512E1,-7.524789E1,-1.8529002E-1,1.31E2,-1.8495128E-1,1.33E2,-1.2260545E2,-1.183563E2,-1.182509E2,1.2E1,3.42427E1,8.6E1,-7.51014E1,-1.8490851E-1,2.442477E-1,2.437627E-1,1.35E2,1.35E2,-1.22593094E2,-1.184116E2,3.1E1,1.8E1,1E0,1.1E1,2.3E1,5.8E1,7.3E1,8.3E1,1.06E2,2.4235451E-1,1.04E2,-1.9917202E-1,-1.8483795E-1,-1.9923441E-1,-1.849297E-1,1.35E2,-1.8513452E-1,-1.9887343E-1,-1.8343073E-1,-1.8433246E-1,2.1180354E-1,2.4879955E-1,-2.0879693E-2,2.4552523E-1,-1.8475476E-1,-1.8522951E-1,-2.6861346E-1,-1.9005845E-1,-2.1188839E-1,-1.8348661E-1,-2.0938295E-1,-1.9597684E-1,-1.848235E-1,-2.1857814E-1,2.4793234E-1,-1.8622938E-1,2.4223778E-1,1.0502069E-2,3.499388E-1,-1.9906509E-1,-1.8489815E-1],"split_indices":[8,5,5,4,5,8,5,5,4,5,0,8,0,8,5,5,5,8,4,8,5,0,0,0,8,8,5,5,8,8,8,8,8,8,8,8,8,0,8,0,0,0,0,8,0,0,0,0,0,0,0,0,0,0,0,0,0,0,0,0,0,0,0,0,0,0,0,0,0],"split_type":[0,0,0,0,0,0,0,0,0,0,0,0,0,0,0,0,0,0,0,0,0,0,0,0,0,0,0,0,0,0,0,0,0,0,0,0,0,0,0,0,0,0,0,0,0,0,0,0,0,0,0,0,0,0,0,0,0,0,0,0,0,0,0,0,0,0,0,0,0],"sum_hessian":[1.1903948E6,8.975998E5,2.9279497E5,2.730031E5,6.2459675E5,6.714485E4,2.2565011E5,1.8336886E5,8.963426E4,5.7452156E5,5.0075195E4,4.9705043E4,1.7439809E4,4.145915E3,2.2150419E5,3.141663E4,1.5195222E5,1.7673416E4,7.1960836E4,7.677511E4,4.9774644E5,3.112483E3,4.659256E4,3.6510126E2,3.780814E3,1.631854E4,2.0518566E5,2.8139648E4,3.2769832E3,1.2847837E5,2.3473857E4,5.456465E3,1.2216952E4,4.2551188E4,2.940965E4,5.2929004E4,2.3846104E4,4.929464E5,4.800013E3,2.3198667E3,1.4609473E3,1.0469255E4,5.8492856E3,3.8479783E3,2.0133767E5,1.6799977E4,1.1339671E4,2.757564E3,5.194194E2,7.268567E4,5.579269E4,6.551741E2,2.2818684E4,2.4281726E3,3.028292E3,5.2003496E3,7.0166025E3,4.0293445E4,2.257741E3,1.4893735E4,1.4515916E4,2.1525024E3,5.07765E4,2.2113873E4,1.7322303E3,3.6844663E3,1.115547E3,1.088548E3,2.7594304E3],"tree_param":{"num_deleted":"0","num_feature":"9","num_nodes":"69","size_leaf_vector":"1"}},{"base_weights":[-5.961823E-2,3.2448375E-1,-1.8727478E-1,5.799875E-1,3.8731072E-2,-4.3375638E-1,-5.18671E-2,6.1856043E-1,1.6774958E-2,-1.8634632E-1,1.4619859E-1,1.8064588E-2,-1.8530065E-1,8.099789E-1,-1.9931701E-1,4.39688E-1,8.131622E-1,-1.9618832E-1,2.9319188E-1,2.4631824E-1,-6.960584E-2,-5.015825E-1,2.4730256E-1,2.6325172E-1,2.4233255E-1,5.668541E-1,-3.2924938E-1,7.1469873E-1,-9.992477E-2,2.5031534E-1,5.4792434E-1,-6.311687E-1,2.8096953E-1,3.3129343E-1,-6.374901E-1,7.9861397E-1,-1.8528587E-1,-6.182199E-1,-1.799523E-1,-2.1111628E-1,2.522213E-1,2.9332072E-1,-1.9666792E-1,1.0815653E-1,2.5334314E-1,-2.011015E-1,-1.8808056E-1,1.636956E-1,-2.1705683E-1,2.5658536E-1,-2.0508325E-1,-2.3249845E-1,-1.8787152E-1,-1.8480031E-1,2.4233273E-1,-1.85298E-1,-1.8956311E-1,2.2704534E-1,-1.4097998E-1],"categories":[],"categories_nodes":[],"categories_segments":[],"categories_sizes":[],"default_left":[0,0,0,0,0,0,0,0,0,0,0,0,0,0,0,0,0,0,0,0,0,0,0,0,0,0,0,0,0,0,0,0,0,0,0,0,0,0,0,0,0,0,0,0,0,0,0,0,0,0,0,0,0,0,0,0,0,0,0],"id":7,"left_children":[1,3,5,7,9,11,13,15,17,-1,19,21,-1,23,25,27,29,-1,-1,-1,31,33,-1,-1,-1,35,37,39,41,-1,43,45,47,49,51,53,-1,55,57,-1,-1,-1,-1,-1,-1,-1,-1,-1,-1,-1,-1,-1,-1,-1,-1,-1,-1,-1,-1],"loss_changes":[5.4194258E4,2.0129309E4,2.7686773E4,3.1621445E3,9.229741E3,2.4441516E4,6.8040586E4,4.741508E3,6.012105E3,0E0,1.6300201E4,3.5652457E4,0E0,1.0933594E1,4.5514492E4,1.0534007E4,3.6679297E2,0E0,0E0,0E0,1.6695717E4,5.8573633E3,0E0,0E0,0E0,1.8198758E4,1.6864562E4,8.4066875E3,1.4350212E4,0E0,2.6847766E2,4.984375E0,1.3881878E4,3.8612983E3,6.83418E1,7.1908203E2,0E0,6.328125E-1,7.0015516E4,0E0,0E0,0E0,0E0,0E0,0E0,0E0,0E0,0E0,0E0,0E0,0E0,0E0,0E0,0E0,0E0,0E0,0E0,0E0,0E0],"parents":[2147483647,0,0,1,1,2,2,3,3,4,4,5,5,6,6,7,7,8,8,10,10,11,11,13,13,14,14,15,15,16,16,20,20,21,21,25,25,26,26,27,27,28,28,30,30,31,31,32,32,33,33,34,34,35,35,37,37,38,38],"right_children":[2,4,6,8,10,12,14,16,18,-1,20,22,-1,24,26,28,30,-1,-1,-1,32,34,-1,-1,-1,36,38,40,42,-1,44,46,48,50,52,54,-1,56,58,-1,-1,-1,-1,-1,-1,-1,-1,-1,-1,-1,-1,-1,-1,-1,-1,-1,-1,-1,-1],"split_conditions":[5.2E1,-1.183158E2,1.03E2,3.42554E1,1E0,8.9E1,1.04E2,3.41512E1,3.9E1,-1.8634632E-1,8E0,8.6E1,-1.8530065E-1,-7.509935E1,3.9950188E1,2.6E1,3.42427E1,-1.9618832E-1,2.9319188E-1,2.4631824E-1,1.8E1,-1.185943E2,2.4730256E-1,2.6325172E-1,2.4233255E-1,1.11E2,3.999923E1,-1.184535E2,3.40055E1,2.5031534E-1,-1.184535E2,1.2E1,-1.182509E2,5.8E1,5.4E1,1.07E2,-1.8528587E-1,-7.51014E1,1.08E2,-2.1111628E-1,2.522213E-1,2.9332072E-1,-1.9666792E-1,1.0815653E-1,2.5334314E-1,-2.011015E-1,-1.8808056E-1,1.636956E-1,-2.1705683E-1,2.5658536E-1,-2.0508325E-1,-2.3249845E-1,-1.8787152E-1,-1.8480031E-1,2.4233273E-1,-1.85298E-1,-1.8956311E-1,2.2704534E-1,-1.4097998E-1],"split_indices":[8,5,8,4,8,8,8,4,8,0,8,8,0,5,4,8,4,0,0,0,8,5,0,0,0,8,4,5,4,0,5,8,5,8,8,8,0,5,8,0,0,0,0,0,0,0,0,0,0,0,0,0,0,0,0,0,0,0,0],"split_type":[0,0,0,0,0,0,0,0,0,0,0,0,0,0,0,0,0,0,0,0,0,0,0,0,0,0,0,0,0,0,0,0,0,0,0,0,0,0,0,0,0,0,0,0,0,0,0,0,0,0,0,0,0,0,0,0,0,0,0],"sum_hessian":[1.1052555E6,2.7570212E5,8.2955344E5,1.4555453E5,1.3014759E5,2.941366E5,5.354168E5,1.3622477E5,9.329766E3,1.8226455E4,1.1192113E5,8.509155E4,2.0904503E5,7.821938E4,4.5719744E5,7.098273E4,6.5242043E4,5.493789E3,3.8359763E3,2.7117297E4,8.4803836E4,5.174329E4,3.334826E4,2.459452E3,7.575993E4,6.62918E4,3.9090566E5,4.7019277E4,2.3963447E4,6.0406637E4,4.8354062E3,3.2593586E4,5.221025E4,7.2587017E3,4.4484586E4,5.5443734E4,1.0848063E4,1.3316205E5,2.5774361E5,3.8367346E3,4.3182543E4,8.151928E3,1.581152E4,2.964344E3,1.8710624E3,3.1638347E3,2.9429752E4,4.1322324E4,1.0887926E4,4.787231E3,2.4714707E3,3.3596233E3,4.112496E4,3.5634518E2,5.508739E4,1.279617E5,5.200335E3,6.0925383E4,1.9681823E5],"tree_param":{"num_deleted":"0","num_feature":"9","num_nodes":"59","size_leaf_vector":"1"}},{"base_weights":[-1.7095849E-1,-4.2035374E-1,5.7511044E-1,-2.2831976E-1,-5.560448E-1,9.0997614E-2,8.047329E-1,-3.0317104E-1,7.277785E-1,-6.1490643E-1,-1.14319675E-1,-4.8574194E-1,2.4424736E-1,5.134943E-1,2.4407026E-1,-2.2920252E-1,-1.8836918E-1,2.4237266E-1,-6.1152166E-1,-1.8535087E-1,2.4710023E-1,-1.8529768E-1,2.4362926E-1,2.4421816E-1,-6.306397E-1,-1.990876E-1,2.442094E-1,-3.4883288E-1,5.5326456E-1,-1.8518291E-1,2.1516444E-1,-1.8495578E-1,-1.9923794E-1,-1.1809821E-1,4.56887E-1,8.974269E-2,3.457278E-1],"categories":[],"categories_nodes":[],"categories_segments":[],"categories_sizes":[],"default_left":[0,0,0,0,0,0,0,0,0,0,0,0,0,0,0,0,0,0,0,0,0,0,0,0,0,0,0,0,0,0,0,0,0,0,0,0,0],"id":8,"left_children":[1,3,5,7,9,11,13,15,17,19,21,23,-1,25,-1,27,-1,-1,29,-1,-1,-1,-1,-1,31,-1,-1,33,35,-1,-1,-1,-1,-1,-1,-1,-1],"loss_changes":[1.9907662E5,2.0894562E4,2.9797234E4,2.3760512E4,1.2216719E4,3.5968133E4,4.673672E2,7.395576E3,2.5874678E3,1.7480156E3,2.576394E4,9.036344E3,0E0,1.8951554E3,0E0,2.3475066E4,0E0,0E0,1.0852539E1,0E0,0E0,0E0,0E0,0E0,2E1,0E0,0E0,1.8252754E4,5.0634404E3,0E0,0E0,0E0,0E0,0E0,0E0,0E0,0E0],"parents":[2147483647,0,0,1,1,2,2,3,3,4,4,5,5,6,6,7,7,8,8,9,9,10,10,11,11,13,13,15,15,18,18,24,24,27,27,28,28],"right_children":[2,4,6,8,10,12,14,16,18,20,22,24,-1,26,-1,28,-1,-1,30,-1,-1,-1,-1,-1,32,-1,-1,34,36,-1,-1,-1,-1,-1,-1,-1,-1],"split_conditions":[1.11E2,-7.524789E1,-1.2260545E2,8.9E1,1.08E2,1.35E2,-1.22593094E2,8.3E1,1.06E2,2.018E3,3.9950188E1,1.31E2,2.4424736E-1,1.35E2,2.4407026E-1,4.7E1,-1.8836918E-1,2.4237266E-1,3.9991398E1,-1.8535087E-1,2.4710023E-1,-1.8529768E-1,2.4362926E-1,2.4421816E-1,1.33E2,-1.990876E-1,2.442094E-1,-1.181981E2,3.42012E1,-1.8518291E-1,2.1516444E-1,-1.8495578E-1,-1.9923794E-1,-1.1809821E-1,4.56887E-1,8.974269E-2,3.457278E-1],"split_indices":[8,5,5,8,8,8,5,8,8,0,4,8,0,8,0,8,0,0,4,0,0,0,0,0,8,0,0,5,4,0,0,0,0,0,0,0,0],"split_type":[0,0,0,0,0,0,0,0,0,0,0,0,0,0,0,0,0,0,0,0,0,0,0,0,0,0,0,0,0,0,0,0,0,0,0,0,0],"sum_hessian":[1.0699222E6,8.0187325E5,2.6804903E5,3.320082E5,4.6986503E5,8.623703E4,1.81812E5,3.0790366E5,2.4104555E4,4.1461553E5,5.524952E4,4.7975566E4,3.8261465E4,5.3545303E3,1.7645748E5,2.507807E5,5.7122945E4,2.2744168E4,1.360387E3,4.137734E5,8.4211884E2,3.5799395E4,1.9450127E4,4.8112974E3,4.316427E4,1.0887992E3,4.265731E3,2.1752427E5,3.3256438E4,1.3550537E3,5.3332343E0,3.037524E4,1.278903E4,2.1243736E5,5.0869087E3,2.3353162E4,9.903275E3],"tree_param":{"num_deleted":"0","num_feature":"9","num_nodes":"37","size_leaf_vector":"1"}},{"base_weights":[1.8193386E-1,3.5026896E-1,-3.644794E-1,-5.975592E-1,4.5364752E-1,3.4170666E-1,-5.8637977E-1,-6.053623E-1,-4.226675E-1,5.162819E-1,-1.7506436E-1,6.3583326E-1,-1.746637E-1,-5.80289E-1,-6.074122E-1,-6.301101E-1,-5.893271E-1,-1.7396168E-1,2.8260134E-2,1.7487687E-1,6.96311E-1,-1.7461152E-1,2.1276338E-1,2.122552E-1,-1.7496818E-1,-1.9733274E-1,-1.7466936E-1,-5.9327495E-1,-6.608482E-1,-5.821627E-1,-6.204781E-1,2.4599814E-1,-7.7272165E-1,2.8298908E-1,-5.215176E-1,2.103368E-1,2.4471208E-1,-2.0912403E-1,-1.7527258E-1,-1.884668E-1,-2.0774508E-1,-1.7389342E-1,-1.8882495E-1,-1.9394548E-1,-1.7193957E-1,-2.7917224E-1,-2.2008622E-1,-1.9928077E-1,1.14027075E-1,-1.753669E-1,2.1010439E-1,2.2581215E-1,-1.4670908E-2],"categories":[],"categories_nodes":[],"categories_segments":[],"categories_sizes":[],"default_left":[0,0,0,0,0,0,0,0,0,0,0,0,0,0,0,0,0,0,0,0,0,0,0,0,0,0,0,0,0,0,0,0,0,0,0,0,0,0,0,0,0,0,0,0,0,0,0,0,0,0,0,0,0],"id":9,"left_children":[1,3,5,7,9,11,13,15,17,19,-1,21,-1,23,25,27,29,-1,31,33,35,-1,-1,-1,-1,-1,-1,37,39,41,43,-1,45,47,49,-1,51,-1,-1,-1,-1,-1,-1,-1,-1,-1,-1,-1,-1,-1,-1,-1,-1],"loss_changes":[9.336145E4,7.603284E4,3.7460453E4,1.0388281E2,4.5452484E4,1.5532678E4,2.2949219E1,2.8617188E1,2.3129608E2,4.055347E4,0E0,3.8748672E3,0E0,5.342344E2,5.1390625E1,3.211133E1,9.535156E0,0E0,5.360913E2,1.7151273E4,9.385469E2,0E0,0E0,0E0,0E0,0E0,0E0,1.184668E1,1.5707031E1,3.9257812E0,9.8203125E0,0E0,1.911087E0,1.813796E4,2.3584053E3,0E0,6.79569E2,0E0,0E0,0E0,0E0,0E0,0E0,0E0,0E0,0E0,0E0,0E0,0E0,0E0,0E0,0E0,0E0],"parents":[2147483647,0,0,1,1,2,2,3,3,4,4,5,5,6,6,7,7,8,8,9,9,11,11,13,13,14,14,15,15,16,16,18,18,19,19,20,20,27,27,28,28,29,29,30,30,32,32,33,33,34,34,36,36],"right_children":[2,4,6,8,10,12,14,16,18,20,-1,22,-1,24,26,28,30,-1,32,34,36,-1,-1,-1,-1,-1,-1,38,40,42,44,-1,46,48,50,-1,52,-1,-1,-1,-1,-1,-1,-1,-1,-1,-1,-1,-1,-1,-1,-1,-1],"split_conditions":[1.07E2,-1.183487E2,-1.2265064E2,-1.183563E2,-7.509935E1,1.33E2,1.34E2,3.41512E1,3.1E1,-7.524789E1,-1.7506436E-1,1.31E2,-1.746637E-1,-1.22643524E2,1.35E2,3.40417E1,3.42554E1,-1.7396168E-1,3.2E1,8.6E1,-7.51014E1,-1.7461152E-1,2.1276338E-1,2.122552E-1,-1.7496818E-1,-1.9733274E-1,-1.7466936E-1,1.6E1,2.6E1,5.8E1,3.9E1,2.4599814E-1,3.3993E1,3.39483E1,1.06E2,2.103368E-1,1.01E2,-2.0912403E-1,-1.7527258E-1,-1.884668E-1,-2.0774508E-1,-1.7389342E-1,-1.8882495E-1,-1.9394548E-1,-1.7193957E-1,-2.7917224E-1,-2.2008622E-1,-1.9928077E-1,1.14027075E-1,-1.753669E-1,2.1010439E-1,2.2581215E-1,-1.4670908E-2],"split_indices":[8,5,5,5,5,8,8,4,8,5,0,8,0,5,8,4,4,0,8,8,5,0,0,0,0,0,0,8,8,8,8,0,4,4,8,0,8,0,0,0,0,0,0,0,0,0,0,0,0,0,0,0,0],"split_type":[0,0,0,0,0,0,0,0,0,0,0,0,0,0,0,0,0,0,0,0,0,0,0,0,0,0,0,0,0,0,0,0,0,0,0,0,0,0,0,0,0,0,0,0,0,0,0,0,0,0,0,0,0],"sum_hessian":[1.0150109E6,7.7595925E5,2.3905162E5,7.630951E4,6.9964975E5,5.7155805E4,1.8189583E5,7.30479E4,3.26161E3,6.5980575E5,3.9843992E4,4.335439E4,1.3801416E4,1.4107145E5,4.0824375E4,2.8706195E4,4.4341703E4,2.4182585E3,8.4335175E2,2.2780362E5,4.3200212E5,2.4633113E3,4.089108E4,3.205974E2,1.4075084E5,1.35995E4,2.7224877E4,1.3067272E4,1.5638923E4,3.6066484E4,8.275217E3,4.241124E2,4.1923932E2,1.9719116E5,3.0612477E4,4.2744725E5,4.554878E3,1.0399727E3,1.20273E4,7.709236E3,7.9296875E3,3.42545E4,1.8119866E3,5.333126E3,2.9420906E3,7.870486E1,3.405345E2,1.8333652E4,1.788575E5,2.9111094E4,1.5013829E3,1.6677955E3,2.8870823E3],"tree_param":{"num_deleted":"0","num_feature":"9","num_nodes":"53","size_leaf_vector":"1"}},{"base_weights":[-5.153154E-2,2.637212E-1,-1.7168345E-1,4.5316732E-1,3.3180986E-2,-4.2102796E-1,-4.4411678E-2,4.95961E-1,-1.13808766E-1,-1.7558414E-1,1.2061765E-1,9.28832E-3,-1.7510317E-1,7.031017E-1,-1.7757027E-1,3.0026206E-1,7.0839596E-1,-1.9373932E-1,4.9901554E-1,2.1483454E-1,-6.203094E-2,-5.9421813E-1,2.1304755E-1,2.3167515E-1,2.1020319E-1,4.9880996E-1,-2.9554418E-1,6.002518E-1,-1.9965667E-1,7.351434E-1,3.783776E-1,2.4270354E-1,-6.1751014E-1,2.6747313E-1,-5.775594E-1,-6.305424E-1,-5.832684E-1,6.9311196E-1,-1.750156E-1,-5.7928556E-1,-1.5218838E-1,-1.641042E-1,2.2374213E-1,1.3974196E-1,-1.8886057E-1,2.186503E-1,2.4363668E-1,5.958424E-2,2.060761E-1,-2.0887697E-1,-1.8089871E-1,-1.771463E-1,1.5533808E-1,-1.3990088E-1,-2.1812639E-1,-1.8322277E-1,-1.9959939E-1,-1.8124048E-1,-1.7450207E-1,-1.7448099E-1,2.1020918E-1,-1.7553863E-1,-1.2925598E-1,2.1113451E-1,-1.2471791E-1],"categories":[],"categories_nodes":[],"categories_segments":[],"categories_sizes":[],"default_left":[0,0,0,0,0,0,0,0,0,0,0,0,0,0,0,0,0,0,0,0,0,0,0,0,0,0,0,0,0,0,0,0,0,0,0,0,0,0,0,0,0,0,0,0,0,0,0,0,0,0,0,0,0,0,0,0,0,0,0,0,0,0,0,0,0],"id":10,"left_children":[1,3,5,7,9,11,13,15,17,-1,19,21,-1,23,25,27,29,-1,31,-1,33,35,-1,-1,-1,37,39,41,43,45,47,-1,49,51,53,55,57,59,-1,61,63,-1,-1,-1,-1,-1,-1,-1,-1,-1,-1,-1,-1,-1,-1,-1,-1,-1,-1,-1,-1,-1,-1,-1,-1],"loss_changes":[3.550767E4,1.1298016E4,2.153921E4,3.4453477E3,6.310096E3,1.6053551E4,4.4729023E4,5.4888184E3,3.2494702E3,0E0,1.1119803E4,2.6612568E4,0E0,1.0847656E1,3.0435795E4,1.0306855E4,5.585586E2,0E0,1.6036593E3,0E0,1.3290506E4,1.3080078E1,0E0,0E0,0E0,1.1911817E4,1.3210475E4,7.17288E3,7.373626E3,2.7851562E1,2.632342E2,0E0,7.312317E-1,1.0251447E4,5.07042E2,4.97876E0,5.136719E-1,4.6476758E2,0E0,9.4296875E1,4.8672812E4,0E0,0E0,0E0,0E0,0E0,0E0,0E0,0E0,0E0,0E0,0E0,0E0,0E0,0E0,0E0,0E0,0E0,0E0,0E0,0E0,0E0,0E0,0E0,0E0],"parents":[2147483647,0,0,1,1,2,2,3,3,4,4,5,5,6,6,7,7,8,8,10,10,11,11,13,13,14,14,15,15,16,16,18,18,20,20,21,21,25,25,26,26,27,27,28,28,29,29,30,30,32,32,33,33,34,34,35,35,36,36,37,37,39,39,40,40],"right_children":[2,4,6,8,10,12,14,16,18,-1,20,22,-1,24,26,28,30,-1,32,-1,34,36,-1,-1,-1,38,40,42,44,46,48,-1,50,52,54,56,58,60,-1,62,64,-1,-1,-1,-1,-1,-1,-1,-1,-1,-1,-1,-1,-1,-1,-1,-1,-1,-1,-1,-1,-1,-1,-1,-1],"split_conditions":[5.8E1,-1.183158E2,1.03E2,3.42554E1,1E0,8.9E1,1.04E2,3.41512E1,3.9E1,-1.7558414E-1,8E0,8.6E1,-1.7510317E-1,-7.509935E1,3.9950188E1,2.6E1,3.42427E1,-1.9373932E-1,4.7E1,2.1483454E-1,3.40491E1,8.3E1,2.1304755E-1,2.3167515E-1,2.1020319E-1,1.11E2,4.0000225E1,-1.184487E2,3.40055E1,5.2E1,-1.184535E2,2.4270354E-1,-1.185943E2,1.8E1,2.3E1,-1.183008E2,-7.664542E1,1.07E2,-1.750156E-1,1.07E2,1.08E2,-1.641042E-1,2.2374213E-1,1.3974196E-1,-1.8886057E-1,2.186503E-1,2.4363668E-1,5.958424E-2,2.060761E-1,-2.0887697E-1,-1.8089871E-1,-1.771463E-1,1.5533808E-1,-1.3990088E-1,-2.1812639E-1,-1.8322277E-1,-1.9959939E-1,-1.8124048E-1,-1.7450207E-1,-1.7448099E-1,2.1020918E-1,-1.7553863E-1,-1.2925598E-1,2.1113451E-1,-1.2471791E-1],"split_indices":[8,5,8,4,8,8,8,4,8,0,8,8,0,5,4,8,4,0,8,0,4,8,0,0,0,8,4,5,4,8,5,0,5,8,8,5,5,8,0,8,8,0,0,0,0,0,0,0,0,0,0,0,0,0,0,0,0,0,0,0,0,0,0,0,0],"split_type":[0,0,0,0,0,0,0,0,0,0,0,0,0,0,0,0,0,0,0,0,0,0,0,0,0,0,0,0,0,0,0,0,0,0,0,0,0,0,0,0,0,0,0,0,0,0,0,0,0,0,0,0,0,0,0,0,0,0,0,0,0,0,0,0,0],"sum_hessian":[9.374143E5,2.5868347E5,6.787309E5,1.419968E5,1.16686664E5,2.2936605E5,4.493648E5,1.3203158E5,9.9652295E3,1.4452787E4,1.02233875E5,6.29149E4,1.6645114E5,6.794382E4,3.81421E5,6.8724086E4,6.3307484E4,5.3344087E3,4.630821E3,2.3995932E4,7.8237945E4,3.3805637E4,2.9109262E4,2.2906997E3,6.5653125E4,5.6646453E4,3.2477456E5,4.295036E4,2.5773727E4,5.8560047E4,4.7474365E3,3.6247166E3,1.006104E3,4.7730867E4,3.0507078E4,7.817076E3,2.5988559E4,4.8024316E4,8.622134E3,1.0901003E5,2.1576452E5,4.8353555E3,3.8115004E4,1.0115142E4,1.5658586E4,5.41337E4,4.4263467E3,3.0007693E3,1.7466674E3,1.492725E2,8.568315E2,1.0780362E4,3.6950504E4,1.7496697E4,1.301038E4,4.993576E3,2.8235E3,1.818409E3,2.417015E4,2.836332E2,4.7740684E4,1.0487846E5,4.131572E3,5.079169E4,1.6497283E5],"tree_param":{"num_deleted":"0","num_feature":"9","num_nodes":"65","size_leaf_vector":"1"}},{"base_weights":[-1.5143219E-1,-3.7872577E-1,4.9644697E-1,-1.9245528E-1,-5.2292997E-1,6.145161E-2,6.992947E-1,-2.560883E-1,6.340992E-1,-5.8095086E-1,-1.0157728E-1,-4.7176394E-1,2.127633E-1,4.059664E-1,7.084155E-1,-1.8812083E-1,-1.7711069E-1,2.1020873E-1,-5.7719195E-1,-1.7514238E-1,2.1187562E-1,-1.7506568E-1,2.1187939E-1,2.1273205E-1,-6.081331E-1,-1.9718193E-1,2.1272506E-1,2.1009478E-1,2.12772E-1,-2.9451233E-1,4.4138947E-1,-1.7492697E-1,1.8418808E-1,-1.74669E-1,-1.9732998E-1,-1.00622736E-1,3.0819863E-1,2.617981E-1,4.8887018E-2],"categories":[],"categories_nodes":[],"categories_segments":[],"categories_sizes":[],"default_left":[0,0,0,0,0,0,0,0,0,0,0,0,0,0,0,0,0,0,0,0,0,0,0,0,0,0,0,0,0,0,0,0,0,0,0,0,0,0,0],"id":11,"left_children":[1,3,5,7,9,11,13,15,17,19,21,23,-1,25,27,29,-1,-1,31,-1,-1,-1,-1,-1,33,-1,-1,-1,-1,35,37,-1,-1,-1,-1,-1,-1,-1,-1],"loss_changes":[1.3260081E5,1.790543E4,2.0635379E4,1.529909E4,9.185383E3,2.568878E4,4.2641406E2,6.136244E3,1.6777178E3,1.2149141E3,1.7707318E4,6.5697344E3,0E0,1.5512932E3,5.390625E-1,1.5032521E4,0E0,0E0,7.974579E0,0E0,0E0,0E0,0E0,0E0,4.6635742E1,0E0,0E0,0E0,0E0,1.0379715E4,3.8964165E3,0E0,0E0,0E0,0E0,0E0,0E0,0E0,0E0],"parents":[2147483647,0,0,1,1,2,2,3,3,4,4,5,5,6,6,7,7,8,8,9,9,10,10,11,11,13,13,14,14,15,15,18,18,24,24,29,29,30,30],"right_children":[2,4,6,8,10,12,14,16,18,20,22,24,-1,26,28,30,-1,-1,32,-1,-1,-1,-1,-1,34,-1,-1,-1,-1,36,38,-1,-1,-1,-1,-1,-1,-1,-1],"split_conditions":[1.11E2,-7.524789E1,-1.2260545E2,8.9E1,1.08E2,1.35E2,-1.22593094E2,8.3E1,1.06E2,2.018E3,3.9950188E1,1.31E2,2.127633E-1,1.35E2,4.0013817E1,4.7E1,-1.7711069E-1,2.1020873E-1,3.9991398E1,-1.7514238E-1,2.1187562E-1,-1.7506568E-1,2.1187939E-1,2.1273205E-1,1.33E2,-1.9718193E-1,2.1272506E-1,2.1009478E-1,2.12772E-1,-1.181981E2,3.41512E1,-1.7492697E-1,1.8418808E-1,-1.74669E-1,-1.9732998E-1,-1.00622736E-1,3.0819863E-1,2.617981E-1,4.8887018E-2],"split_indices":[8,5,5,8,8,8,5,8,8,0,4,8,0,8,4,8,0,0,4,0,0,0,0,0,8,0,0,0,0,5,4,0,0,0,0,0,0,0,0],"split_type":[0,0,0,0,0,0,0,0,0,0,0,0,0,0,0,0,0,0,0,0,0,0,0,0,0,0,0,0,0,0,0,0,0,0,0,0,0,0,0],"sum_hessian":[9.00459E5,6.6659856E5,2.3386044E5,2.9087447E5,3.7572406E5,7.437304E4,1.594874E5,2.7008262E5,2.0791852E4,3.3024806E5,4.5476E4,4.079342E4,3.3579617E4,4.810959E3,1.5467644E5,2.2444833E5,4.563429E4,1.9708693E4,1.0831584E3,3.2951725E5,7.3083575E2,2.8482838E4,1.6993164E4,4.2227627E3,3.6570656E4,1.06702E3,3.743939E3,1.4368344E4,1.403081E5,1.9199962E5,3.2448705E4,1.0783296E3,4.828807E0,2.4038162E4,1.2532495E4,1.862383E5,5.7613286E3,1.2729521E4,1.9719184E4],"tree_param":{"num_deleted":"0","num_feature":"9","num_nodes":"39","size_leaf_vector":"1"}},{"base_weights":[1.5900199E-1,3.0661306E-1,-3.4755316E-1,-1.1167501E-1,5.0772446E-1,3.2203084E-1,-5.6566477E-1,8.940844E-2,-6.030387E-1,5.88219E-1,-1.6800274E-1,5.822697E-1,-1.6764009E-1,-5.568035E-1,-5.939689E-1,-5.8038074E-1,2.0306252E-1,-6.8725926E-1,-5.763661E-1,3.0855167E-1,6.31945E-1,-1.6757403E-1,1.9373885E-1,1.9315399E-1,-1.6792867E-1,-1.9501156E-1,-1.6764736E-1,-6.063295E-1,-3.3706403E-1,-6.3478404E-1,3.1749156E-1,-8.08953E-1,-6.2760097E-1,-5.608352E-1,-5.95673E-1,5.9320736E-1,-4.6298292E-1,1.9103746E-1,2.1411242E-1,-1.8972501E-1,-1.6768819E-1,-1.669653E-1,1.4287454E-1,-3.1626692E-1,-1.816314E-1,1.3846858E-1,-1.5915008E-1,-1.7419204E-1,-2.8360868E-1,-1.7961949E-1,-1.944869E-1,-1.6755223E-1,-2.1640764E-1,-1.8691257E-1,-1.678128E-1,-2.05493E-1,1.974761E-1,-1.6851191E-1,1.9082548E-1,2.496282E-1,-3.9267214E-3],"categories":[],"categories_nodes":[],"categories_segments":[],"categories_sizes":[],"default_left":[0,0,0,0,0,0,0,0,0,0,0,0,0,0,0,0,0,0,0,0,0,0,0,0,0,0,0,0,0,0,0,0,0,0,0,0,0,0,0,0,0,0,0,0,0,0,0,0,0,0,0,0,0,0,0,0,0,0,0,0,0],"id":12,"left_children":[1,3,5,7,9,11,13,15,17,19,-1,21,-1,23,25,27,29,31,33,35,37,-1,-1,-1,-1,-1,-1,39,41,43,45,47,49,51,53,55,57,-1,59,-1,-1,-1,-1,-1,-1,-1,-1,-1,-1,-1,-1,-1,-1,-1,-1,-1,-1,-1,-1,-1,-1],"loss_changes":[6.3389023E4,5.5222887E4,2.7937408E4,2.105982E4,3.8101703E4,1.0774523E4,3.585547E1,1.1513852E4,1.3864648E2,5.0409375E3,0E0,2.629954E3,0E0,3.9077344E2,6.7399414E1,1.3833203E2,1.2397496E4,1.0753906E2,1.3762695E1,1.2242109E4,7.217969E2,0E0,0E0,0E0,0E0,0E0,0E0,2.4146484E1,3.7813318E2,1.9062256E2,1.3899671E4,1.5181714E2,5.5791016E0,9.338867E0,2.0456543E1,3.3858125E3,1.6304417E3,0E0,5.7415265E2,0E0,0E0,0E0,0E0,0E0,0E0,0E0,0E0,0E0,0E0,0E0,0E0,0E0,0E0,0E0,0E0,0E0,0E0,0E0,0E0,0E0,0E0],"parents":[2147483647,0,0,1,1,2,2,3,3,4,4,5,5,6,6,7,7,8,8,9,9,11,11,13,13,14,14,15,15,16,16,17,17,18,18,19,19,20,20,27,27,28,28,29,29,30,30,31,31,32,32,33,33,34,34,35,35,36,36,38,38],"right_children":[2,4,6,8,10,12,14,16,18,20,-1,22,-1,24,26,28,30,32,34,36,38,-1,-1,-1,-1,-1,-1,40,42,44,46,48,50,52,54,56,58,-1,60,-1,-1,-1,-1,-1,-1,-1,-1,-1,-1,-1,-1,-1,-1,-1,-1,-1,-1,-1,-1,-1,-1],"split_conditions":[1.07E2,-7.665399E1,-1.2265064E2,3.41005E1,-7.509935E1,1.33E2,1.34E2,-1.183487E2,3.41512E1,-7.524789E1,-1.6800274E-1,1.31E2,-1.6764009E-1,-1.22643524E2,1.35E2,-1.183563E2,3.39483E1,1.2E1,3.42427E1,8.6E1,-7.51014E1,-1.6757403E-1,1.9373885E-1,1.9315399E-1,-1.6792867E-1,-1.9501156E-1,-1.6764736E-1,-1.184116E2,3.1E1,9E0,-1.182509E2,1.1E1,2.3E1,6E1,7.3E1,8.3E1,1.06E2,1.9103746E-1,4.0000225E1,-1.8972501E-1,-1.6768819E-1,-1.669653E-1,1.4287454E-1,-3.1626692E-1,-1.816314E-1,1.3846858E-1,-1.5915008E-1,-1.7419204E-1,-2.8360868E-1,-1.7961949E-1,-1.944869E-1,-1.6755223E-1,-2.1640764E-1,-1.8691257E-1,-1.678128E-1,-2.05493E-1,1.974761E-1,-1.6851191E-1,1.9082548E-1,2.496282E-1,-3.9267214E-3],"split_indices":[8,5,5,4,5,8,8,5,4,5,0,8,0,5,8,5,4,8,4,8,5,0,0,0,0,0,0,5,8,8,5,8,8,8,8,8,8,0,4,0,0,0,0,0,0,0,0,0,0,0,0,0,0,0,0,0,0,0,0,0,0],"split_type":[0,0,0,0,0,0,0,0,0,0,0,0,0,0,0,0,0,0,0,0,0,0,0,0,0,0,0,0,0,0,0,0,0,0,0,0,0,0,0,0,0,0,0,0,0,0,0,0,0,0,0,0,0,0,0,0,0,0,0,0,0],"sum_hessian":[8.477486E5,6.5645644E5,1.9129217E5,2.131435E5,4.4331297E5,4.7001406E4,1.4429077E5,1.512482E5,6.1895305E4,4.122357E5,3.1077256E4,3.6282258E4,1.07191455E4,1.099036E5,3.4387168E4,2.194097E4,1.2930723E5,1.4881413E4,4.701389E4,5.5739543E4,3.5649616E5,1.9133433E3,3.4368918E4,2.696251E2,1.0963398E5,1.3242501E4,2.1144668E4,1.98252E4,2.1157722E3,1.5537499E4,1.1376973E5,4.8913154E3,9.990098E3,2.60714E4,2.0942492E4,4.0717254E4,1.5022293E4,3.52408E5,4.0881443E3,1.2776524E4,7.0486743E3,1.6663844E3,4.4938797E2,1.0137122E3,1.4523787E4,9.724812E4,1.6521607E4,1.8313604E3,3.059955E3,4.1829946E3,5.807103E3,2.5703162E4,3.682372E2,1.19304795E4,9.012013E3,1.9712831E3,3.874597E4,1.3784585E4,1.2377075E3,1.0982562E3,2.9898882E3],"tree_param":{"num_deleted":"0","num_feature":"9","num_nodes":"61","size_leaf_vector":"1"}},{"base_weights":[-4.3133914E-2,2.3925535E-1,-1.563544E-1,-1.6990852E-1,2.8495783E-1,-3.8408408E-1,-3.828531E-2,6.693859E-1,2.211215E-1,-7.3883645E-3,-1.6803811E-1,6.388969E-1,-1.6044666E-1,2.0233662E-1,6.6046983E-1,3.7528467E-1,-5.3937986E-2,-4.3538883E-1,1.9272582E-1,2.1046229E-1,1.909514E-1,4.5697638E-1,-2.6829487E-1,1.9742173E-1,2.0817792E-1,-7.299515E-1,4.0659443E-1,-4.4685605E-1,1.9691195E-1,3.0146003E-1,-5.828425E-1,6.2983304E-1,-1.6796878E-1,-5.5438095E-1,-1.322997E-1,-4.0596464E-1,-1.9059856E-1,2.0124385E-1,9.505256E-2,2.0378007E-1,-1.7418645E-1,1.3689068E-1,-1.9605686E-1,2.085058E-1,-1.8263301E-1,-2.1443112E-1,-1.7171134E-1,-1.6728906E-1,1.9095829E-1,-1.681928E-1,-1.0532099E-1,1.915478E-1,-1.10099964E-1],"categories":[],"categories_nodes":[],"categories_segments":[],"categories_sizes":[],"default_left":[0,0,0,0,0,0,0,0,0,0,0,0,0,0,0,0,0,0,0,0,0,0,0,0,0,0,0,0,0,0,0,0,0,0,0,0,0,0,0,0,0,0,0,0,0,0,0,0,0,0,0,0,0],"id":13,"left_children":[1,3,5,-1,7,9,11,13,15,17,-1,19,21,-1,23,25,27,29,-1,-1,-1,31,33,-1,-1,35,37,39,41,43,45,47,-1,49,51,-1,-1,-1,-1,-1,-1,-1,-1,-1,-1,-1,-1,-1,-1,-1,-1,-1,-1],"loss_changes":[2.499996E4,8.239502E3,1.5007302E4,0E0,5.196754E3,1.2637721E4,3.0407834E4,9.169922E-1,7.701132E3,1.688115E4,0E0,7.970703E0,2.0735576E4,0E0,4.2333984E-1,4.0277012E3,6.429421E3,3.9762104E3,0E0,0E0,0E0,8.1396387E3,1.0313793E4,0E0,0E0,1.8824414E2,2.6837148E3,3.829255E3,8.782934E3,2.1865852E3,4.171582E1,3.1498438E2,0E0,1.08541016E2,3.250566E4,0E0,0E0,0E0,0E0,0E0,0E0,0E0,0E0,0E0,0E0,0E0,0E0,0E0,0E0,0E0,0E0,0E0,0E0],"parents":[2147483647,0,0,1,1,2,2,4,4,5,5,6,6,7,7,8,8,9,9,11,11,12,12,14,14,15,15,16,16,17,17,21,21,22,22,25,25,26,26,27,27,28,28,29,29,30,30,31,31,33,33,34,34],"right_children":[2,4,6,-1,8,10,12,14,16,18,-1,20,22,-1,24,26,28,30,-1,-1,-1,32,34,-1,-1,36,38,40,42,44,46,48,-1,50,52,-1,-1,-1,-1,-1,-1,-1,-1,-1,-1,-1,-1,-1,-1,-1,-1,-1,-1],"split_conditions":[5.2E1,1E0,1.03E2,-1.6990852E-1,5E0,8.9E1,1.04E2,3.41005E1,-1.183089E2,8.6E1,-1.6803811E-1,-7.509935E1,3.9950188E1,2.0233662E-1,3.42427E1,9E0,1.8E1,-1.185943E2,1.9272582E-1,2.1046229E-1,1.909514E-1,1.11E2,4.0000225E1,1.9742173E-1,2.0817792E-1,3.42554E1,3.40387E1,8E0,-1.182509E2,5.8E1,5.3E1,1.07E2,-1.6796878E-1,3.999923E1,1.08E2,-4.0596464E-1,-1.9059856E-1,2.0124385E-1,9.505256E-2,2.0378007E-1,-1.7418645E-1,1.3689068E-1,-1.9605686E-1,2.085058E-1,-1.8263301E-1,-2.1443112E-1,-1.7171134E-1,-1.6728906E-1,1.9095829E-1,-1.681928E-1,-1.0532099E-1,1.915478E-1,-1.10099964E-1],"split_indices":[8,8,8,0,8,8,8,4,5,8,0,5,4,0,4,8,8,5,0,0,0,8,4,0,0,4,4,8,5,8,8,8,0,4,8,0,0,0,0,0,0,0,0,0,0,0,0,0,0,0,0,0,0],"split_type":[0,0,0,0,0,0,0,0,0,0,0,0,0,0,0,0,0,0,0,0,0,0,0,0,0,0,0,0,0,0,0,0,0,0,0,0,0,0,0,0,0,0,0,0,0,0,0,0,0,0,0,0,0],"sum_hessian":[7.819247E5,2.2378053E5,5.581441E5,1.201288E4,2.1176766E5,1.9057125E5,3.6757288E5,3.0156E4,1.8161166E5,6.0695785E4,1.2987547E5,5.617445E4,3.1139844E5,1.9177424E4,1.0978576E4,1.1638227E5,6.5229387E4,3.6593527E4,2.4102256E4,2.0555457E3,5.4118902E4,4.630462E4,2.650938E5,1.0263779E4,7.1479755E2,3.2055017E3,1.13176766E5,2.5416906E4,3.981248E4,6.1016416E3,3.0491887E4,3.9577312E4,6.727311E3,8.541259E4,1.7968122E5,4.2075653E2,2.784745E3,2.8695361E4,8.448141E4,2.6981426E3,2.2718764E4,3.0507791E4,9.304689E3,4.2599863E3,1.8416549E3,2.2372937E3,2.8254594E4,2.2141214E2,3.93559E4,8.28589E4,2.5536946E3,4.194045E4,1.3774077E5],"tree_param":{"num_deleted":"0","num_feature":"9","num_nodes":"53","size_leaf_vector":"1"}},{"base_weights":[-1.3545671E-1,-3.426055E-1,4.4354907E-1,-1.6177857E-1,-4.9926502E-1,5.2514516E-2,6.449395E-1,-2.1487492E-1,5.775734E-1,-5.5717295E-1,-8.973358E-2,-4.7232872E-1,1.937401E-1,1.9088161E-1,1.9374134E-1,-1.494073E-1,-5.6842965E-1,1.909462E-1,-5.5334276E-1,-1.681051E-1,2.0047443E-1,-1.6801079E-1,1.9310556E-1,1.9370203E-1,-5.966947E-1,-2.2851352E-1,5.512822E-1,-5.712609E-1,-1.691134E-1,-1.6783649E-1,1.6304412E-1,-1.6764669E-1,-1.9501248E-1,-7.925623E-2,2.6268977E-1,1.2512128E-1,2.951745E-1,-1.7746931E-1,-1.7089722E-1],"categories":[],"categories_nodes":[],"categories_segments":[],"categories_sizes":[],"default_left":[0,0,0,0,0,0,0,0,0,0,0,0,0,0,0,0,0,0,0,0,0,0,0,0,0,0,0,0,0,0,0,0,0,0,0,0,0,0,0],"id":14,"left_children":[1,3,5,7,9,11,13,15,17,19,21,23,-1,-1,-1,25,27,-1,29,-1,-1,-1,-1,-1,31,33,35,37,-1,-1,-1,-1,-1,-1,-1,-1,-1,-1,-1],"loss_changes":[8.948949E4,1.5566789E4,1.5482258E4,1.0013957E4,6.9824844E3,2.081104E4,5.625E-1,5.508617E3,1.1391152E3,1.0047578E3,1.2582181E4,4.931183E3,0E0,0E0,0E0,1.1130883E4,1.7480469E-1,0E0,5.9811096E0,0E0,0E0,0E0,0E0,0E0,6.411328E1,7.1076484E3,1.1824487E3,4.169922E-1,0E0,0E0,0E0,0E0,0E0,0E0,0E0,0E0,0E0,0E0,0E0],"parents":[2147483647,0,0,1,1,2,2,3,3,4,4,5,5,6,6,7,7,8,8,9,9,10,10,11,11,15,15,16,16,18,18,24,24,25,25,26,26,27,27],"right_children":[2,4,6,8,10,12,14,16,18,20,22,24,-1,-1,-1,26,28,-1,30,-1,-1,-1,-1,-1,32,34,36,38,-1,-1,-1,-1,-1,-1,-1,-1,-1,-1,-1],"split_conditions":[1.11E2,-7.524789E1,-1.22593094E2,8.9E1,1.08E2,1.35E2,3.9950188E1,8.3E1,1.06E2,2.018E3,3.9950188E1,1.31E2,1.937401E-1,1.9088161E-1,1.9374134E-1,3.42427E1,8.6E1,1.909462E-1,3.9991398E1,-1.681051E-1,2.0047443E-1,-1.6801079E-1,1.9310556E-1,1.9370203E-1,1.33E2,-1.181981E2,-1.183774E2,-7.664542E1,-1.691134E-1,-1.6783649E-1,1.6304412E-1,-1.6764669E-1,-1.9501248E-1,-7.925623E-2,2.6268977E-1,1.2512128E-1,2.951745E-1,-1.7746931E-1,-1.7089722E-1],"split_indices":[8,5,5,8,8,8,4,8,8,0,4,8,0,0,0,4,8,0,4,0,0,0,0,0,8,5,5,5,0,0,0,0,0,0,0,0,0,0,0],"split_type":[0,0,0,0,0,0,0,0,0,0,0,0,0,0,0,0,0,0,0,0,0,0,0,0,0,0,0,0,0,0,0,0,0,0,0,0,0,0,0],"sum_hessian":[7.461144E5,5.495164E5,1.9659805E5,2.5508369E5,2.9443266E5,6.6832445E4,1.297656E5,2.37993E5,1.7090691E4,2.5795706E5,3.6475598E4,3.5461797E4,3.1370652E4,1.1841413E4,1.1792419E5,2.008104E5,3.7182586E4,1.6244869E4,8.4582214E2,2.5729048E5,6.665783E2,2.2224467E4,1.425113E4,3.5494465E3,3.191235E4,1.8043984E5,2.0370566E4,2.3163123E4,1.4019463E4,8.41622E2,4.2000957E0,1.8669697E4,1.3242651E4,1.747932E5,5.6466377E3,1.55489375E4,4.8216284E3,1.6685431E3,2.149458E4],"tree_param":{"num_deleted":"0","num_feature":"9","num_nodes":"39","size_leaf_vector":"1"}},{"base_weights":[1.4237952E-1,2.764754E-1,-3.3613902E-1,-5.6391346E-1,3.662527E-1,3.113084E-1,-5.520493E-1,-5.725098E-1,-3.6766982E-1,4.1313705E-1,-1.6304429E-1,5.48002E-1,-1.627311E-1,-5.9941745E-1,-1.6297367E-1,-5.954444E-1,-5.563616E-1,-1.628926E-1,5.2699135E-3,1.3087636E-1,5.9027946E-1,-1.6264556E-1,1.8143408E-1,1.8073207E-1,-6.145881E-1,-5.551291E-1,-6.2001836E-1,-5.4818517E-1,-5.8630913E-1,2.0637235E-1,-6.96584E-1,-6.135115E-1,1.9118997E-1,1.7867087E-1,1.8522947E-1,-1.9238187E-1,-1.6271763E-1,-1.918302E-1,-1.6435628E-1,-1.9291721E-1,-1.7226148E-1,-1.6336848E-1,-1.7967926E-1,-1.8141526E-1,-1.6324228E-1,-2.5899482E-1,-1.9362158E-1,-2.8695437E-1,-1.7561029E-1,8.281182E-2,-1.4495747E-1,1.92991E-1,-1.9351399E-2],"categories":[],"categories_nodes":[],"categories_segments":[],"categories_sizes":[],"default_left":[0,0,0,0,0,0,0,0,0,0,0,0,0,0,0,0,0,0,0,0,0,0,0,0,0,0,0,0,0,0,0,0,0,0,0,0,0,0,0,0,0,0,0,0,0,0,0,0,0,0,0,0,0],"id":15,"left_children":[1,3,5,7,9,11,13,15,17,19,-1,21,-1,23,-1,25,27,-1,29,31,33,-1,-1,-1,35,37,39,41,43,-1,45,47,49,-1,51,-1,-1,-1,-1,-1,-1,-1,-1,-1,-1,-1,-1,-1,-1,-1,-1,-1,-1],"loss_changes":[4.4365133E4,4.0746246E4,2.1156197E4,8.772266E1,2.081161E4,7.6485273E3,4.7E1,1.816211E1,1.4320099E2,2.3201008E4,0E0,1.834542E3,0E0,3.2451514E2,0E0,2.0083008E1,6.857422E0,0E0,3.365066E2,8.0331865E3,6.1077344E2,0E0,0E0,0E0,3.3475586E1,4.444336E0,1.3142578E1,3.9125977E0,4.5410156E0,0E0,2.3978882E0,1.2890039E2,9.470961E3,0E0,4.2066705E2,0E0,0E0,0E0,0E0,0E0,0E0,0E0,0E0,0E0,0E0,0E0,0E0,0E0,0E0,0E0,0E0,0E0,0E0],"parents":[2147483647,0,0,1,1,2,2,3,3,4,4,5,5,6,6,7,7,8,8,9,9,11,11,13,13,15,15,16,16,18,18,19,19,20,20,24,24,25,25,26,26,27,27,28,28,30,30,31,31,32,32,34,34],"right_children":[2,4,6,8,10,12,14,16,18,20,-1,22,-1,24,-1,26,28,-1,30,32,34,-1,-1,-1,36,38,40,42,44,-1,46,48,50,-1,52,-1,-1,-1,-1,-1,-1,-1,-1,-1,-1,-1,-1,-1,-1,-1,-1,-1,-1],"split_conditions":[1.07E2,-1.183487E2,-1.2265064E2,-1.183563E2,-7.509935E1,1.33E2,-1.22593094E2,3.41512E1,3.1E1,-7.524789E1,-1.6304429E-1,1.31E2,-1.627311E-1,1.33E2,-1.6297367E-1,3.40387E1,3.42554E1,-1.628926E-1,3.2E1,3.39483E1,-7.51014E1,-1.6264556E-1,1.8143408E-1,1.8073207E-1,1.35E2,1.6E1,-1.183944E2,5.8E1,3.9E1,2.0637235E-1,3.3993E1,9E0,8.6E1,1.7867087E-1,1.01E2,-1.9238187E-1,-1.6271763E-1,-1.918302E-1,-1.6435628E-1,-1.9291721E-1,-1.7226148E-1,-1.6336848E-1,-1.7967926E-1,-1.8141526E-1,-1.6324228E-1,-2.5899482E-1,-1.9362158E-1,-2.8695437E-1,-1.7561029E-1,8.281182E-2,-1.4495747E-1,1.92991E-1,-1.9351399E-2],"split_indices":[8,5,5,5,5,8,5,4,8,5,0,8,0,8,0,4,4,0,8,4,5,0,0,0,8,8,5,8,8,0,4,8,8,0,8,0,0,0,0,0,0,0,0,0,0,0,0,0,0,0,0,0,0],"split_type":[0,0,0,0,0,0,0,0,0,0,0,0,0,0,0,0,0,0,0,0,0,0,0,0,0,0,0,0,0,0,0,0,0,0,0,0,0,0,0,0,0,0,0,0,0,0,0,0,0,0,0,0,0],"sum_hessian":[6.913946E5,5.400548E5,1.5133986E5,5.2124215E4,4.879306E5,3.7847273E4,1.1349258E5,4.9934914E4,2.1892979E3,4.6401738E5,2.3913217E4,2.9632322E4,8.21495E3,1.7776967E4,9.571562E4,2.0617254E4,2.9317662E4,1.4889434E3,7.0035443E2,1.7892231E5,2.8509506E5,1.4665079E3,2.8165814E4,2.2111282E2,1.7555854E4,7.8168203E3,1.2800433E4,2.304508E4,6.272583E3,3.5504755E2,3.453069E2,1.3409814E4,1.655125E5,2.8141916E5,3.6759038E3,1.2812333E4,4.743521E3,6.1404614E2,7.2027744E3,8.508561E3,4.2918726E3,2.1520107E4,1.5249722E3,4.3571436E3,1.9154397E3,7.73722E1,2.679347E2,1.01435876E3,1.2395456E4,1.4701583E5,1.8496664E4,1.2964039E3,2.3795E3],"tree_param":{"num_deleted":"0","num_feature":"9","num_nodes":"53","size_leaf_vector":"1"}},{"base_weights":[-3.6701776E-2,2.037035E-1,-1.4577428E-1,9.941385E-2,4.961451E-1,-3.7072465E-1,-3.2417677E-2,2.1806447E-1,-3.3025205E-1,6.0099626E-1,-9.7230025E-2,-1.9800955E-2,-1.6309525E-1,5.97732E-1,-1.4530411E-1,-3.966019E-2,4.998131E-1,-6.580056E-1,9.322857E-2,6.307308E-1,3.0273262E-1,-6.248914E-1,2.1146818E-1,-4.1819906E-1,1.7977104E-1,1.964199E-1,1.785976E-1,2.9274612E-3,-5.455427E-1,-3.2338858E-1,5.929822E-1,6.37469E-1,-1.1397035E-2,-6.186613E-1,-6.8074363E-1,6.11544E-1,-6.4301574E-1,6.2506986E-1,1.9821157E-1,1.5883984E-1,7.048956E-1,-1.8191732E-1,-1.9292803E-1,2.4289224E-1,-5.659861E-1,5.496973E-1,-1.1587896E-1,-3.612078E-1,-5.48555E-1,4.7261927E-2,-1.685105E-1,1.8289277E-1,-2.0489733E-1,2.0298675E-1,-1.8601373E-1,2.040526E-1,-2.1894376E-1,-1.7214744E-1,-1.8599853E-1,-2.0815317E-1,-1.7293632E-1,2.2183235E-1,-1.999807E-1,-2.2623643E-1,5.6274E-1,1.8467218E-1,1.884176E-1,1.185439E-1,-4.6625048E-1,2.2116882E-1,2.0316114E-1,1.8664676E-1,-1.7919934E-1,-2.065704E-1,-1.6630714E-1,1.775161E-1,-1.6290553E-1,-9.120932E-2,1.0977404E-1,-1.6282281E-1,5.756895E-3,-1.632864E-1,-1.66073E-1],"categories":[],"categories_nodes":[],"categories_segments":[],"categories_sizes":[],"default_left":[0,0,0,0,0,0,0,0,0,0,0,0,0,0,0,0,0,0,0,0,0,0,0,0,0,0,0,0,0,0,0,0,0,0,0,0,0,0,0,0,0,0,0,0,0,0,0,0,0,0,0,0,0,0,0,0,0,0,0,0,0,0,0,0,0,0,0,0,0,0,0,0,0,0,0,0,0,0,0,0,0,0,0],"id":16,"left_children":[1,3,5,7,9,11,13,15,17,19,21,23,-1,25,27,29,31,33,35,37,39,41,-1,43,-1,-1,-1,45,47,49,51,53,55,57,59,61,63,65,-1,67,69,-1,-1,71,73,75,77,79,81,-1,-1,-1,-1,-1,-1,-1,-1,-1,-1,-1,-1,-1,-1,-1,-1,-1,-1,-1,-1,-1,-1,-1,-1,-1,-1,-1,-1,-1,-1,-1,-1,-1,-1],"loss_changes":[1.698671E4,6.1662725E3,1.1363374E4,7.597966E3,3.3067314E3,9.061139E3,2.1078465E4,8.480332E3,4.476342E3,4.0038574E2,3.3788264E3,1.2156716E4,0E0,5.786133E0,1.4908937E4,1.0948667E4,3.9262305E3,1.5843262E1,5.3701123E3,6.5566406E0,2.3694797E2,1.2315674E0,0E0,2.9302837E3,0E0,0E0,0E0,1.1912475E4,3.7515625E1,4.8263916E3,4.018921E2,2.1646738E3,5.8817495E3,4.296875E-2,1.532666E1,1.3504951E3,1.6284883E3,5.9375E-1,0E0,1.222422E3,4.6704102E-1,0E0,0E0,1.7467407E3,3.4559082E1,1.5034443E3,1.3656421E4,7.5620514E1,1.1269531E0,0E0,0E0,0E0,0E0,0E0,0E0,0E0,0E0,0E0,0E0,0E0,0E0,0E0,0E0,0E0,0E0,0E0,0E0,0E0,0E0,0E0,0E0,0E0,0E0,0E0,0E0,0E0,0E0,0E0,0E0,0E0,0E0,0E0,0E0],"parents":[2147483647,0,0,1,1,2,2,3,3,4,4,5,5,6,6,7,7,8,8,9,9,10,10,11,11,13,13,14,14,15,15,16,16,17,17,18,18,19,19,20,20,21,21,23,23,27,27,28,28,29,29,30,30,31,31,32,32,33,33,34,34,35,35,36,36,37,37,39,39,40,40,43,43,44,44,45,45,46,46,47,47,48,48],"right_children":[2,4,6,8,10,12,14,16,18,20,22,24,-1,26,28,30,32,34,36,38,40,42,-1,44,-1,-1,-1,46,48,50,52,54,56,58,60,62,64,66,-1,68,70,-1,-1,72,74,76,78,80,82,-1,-1,-1,-1,-1,-1,-1,-1,-1,-1,-1,-1,-1,-1,-1,-1,-1,-1,-1,-1,-1,-1,-1,-1,-1,-1,-1,-1,-1,-1,-1,-1,-1,-1],"split_conditions":[5.2E1,3.41512E1,1.03E2,3.1E1,3.42554E1,8.9E1,1.04E2,1.8E1,3.4E1,3.42427E1,3.9E1,8.6E1,-1.6309525E-1,-7.509935E1,-7.515008E1,-1.182509E2,3.40511E1,-1.183158E2,4.2E1,4.6E1,3.9E1,7E0,2.1146818E-1,-1.185943E2,1.7977104E-1,1.964199E-1,1.785976E-1,3.9950188E1,-7.5149345E1,-1.183487E2,8E0,-1.182509E2,2.3E1,-1.183487E2,-1.181981E2,3.40055E1,5.1E1,4E0,1.9821157E-1,3.8E1,-1.184535E2,-1.8191732E-1,-1.9292803E-1,5.8E1,5.3E1,1.11E2,-7.519949E1,3.9998474E1,3.999923E1,4.7261927E-2,-1.685105E-1,1.8289277E-1,-2.0489733E-1,2.0298675E-1,-1.8601373E-1,2.040526E-1,-2.1894376E-1,-1.7214744E-1,-1.8599853E-1,-2.0815317E-1,-1.7293632E-1,2.2183235E-1,-1.999807E-1,-2.2623643E-1,5.6274E-1,1.8467218E-1,1.884176E-1,1.185439E-1,-4.6625048E-1,2.2116882E-1,2.0316114E-1,1.8664676E-1,-1.7919934E-1,-2.065704E-1,-1.6630714E-1,1.775161E-1,-1.6290553E-1,-9.120932E-2,1.0977404E-1,-1.6282281E-1,5.756895E-3,-1.632864E-1,-1.66073E-1],"split_indices":[8,4,8,8,4,8,8,8,8,4,8,8,0,5,5,5,4,5,8,8,8,8,0,5,0,0,0,4,5,5,8,5,8,5,5,4,8,8,0,8,5,0,0,8,8,8,5,4,4,0,0,0,0,0,0,0,0,0,0,0,0,0,0,0,0,0,0,0,0,0,0,0,0,0,0,0,0,0,0,0,0,0,0],"split_type":[0,0,0,0,0,0,0,0,0,0,0,0,0,0,0,0,0,0,0,0,0,0,0,0,0,0,0,0,0,0,0,0,0,0,0,0,0,0,0,0,0,0,0,0,0,0,0,0,0,0,0,0,0,0,0,0,0,0,0,0,0,0,0,0,0,0,0,0,0,0,0,0,0,0,0,0,0,0,0,0,0,0,0],"sum_hessian":[6.478115E5,2.021826E5,4.4562888E5,1.4903539E5,5.3147207E4,1.4931622E5,2.963127E5,1.1678589E5,3.224949E4,4.516619E4,7.9810146E3,4.9290598E4,1.0002562E5,4.5016918E4,2.5129575E5,6.0993766E4,5.579213E4,1.817915E4,1.4070339E4,4.1070652E4,4.0955378E3,4.8142656E3,3.1667488E3,2.999004E4,1.9300559E4,1.812757E3,4.320416E4,1.8338036E5,6.791539E4,4.21091E4,1.8884664E4,4.395572E4,1.1836407E4,6.668556E3,1.1510595E4,8.257344E3,5.8129946E3,3.4564637E4,6.506016E3,3.017338E3,1.0782001E3,2.4045837E3,2.409682E3,5.4792466E3,2.4510793E4,3.2733041E4,1.5064733E5,1.0939192E3,6.682147E4,1.395252E4,2.8156582E4,1.864178E4,2.428838E2,4.2628906E4,1.3268134E3,6.030901E3,5.805507E3,2.0509889E2,6.4634575E3,1.022103E4,1.2895647E3,7.506619E3,7.5072504E2,5.5680854E3,2.4490924E2,8.324017E3,2.6240621E4,2.6522358E3,3.65102E2,4.855901E2,5.926099E2,3.7753655E3,1.7038812E3,2.118751E3,2.2392043E4,3.1521271E4,1.2117697E3,1.08338695E5,4.230863E4,7.4023456E2,3.5368457E2,3.6184348E4,3.0637125E4],"tree_param":{"num_deleted":"0","num_feature":"9","num_nodes":"83","size_leaf_vector":"1"}},{"base_weights":[-1.2177989E-1,-3.103655E-1,4.041305E-1,-1.354401E-1,-4.8265755E-1,2.3846649E-2,6.0393023E-1,-1.7925258E-1,5.411309E-1,-5.406917E-1,-8.071852E-2,-4.7350547E-1,1.8143478E-1,1.7854786E-1,1.814346E-1,-5.656629E-1,-1.1993214E-1,1.7858624E-1,-5.363292E-1,-1.6314693E-1,1.8420042E-1,-1.6304749E-1,1.8069953E-1,1.81389E-1,-5.8916765E-1,-1.7167366E-1,-5.6007886E-1,-3.9598525E-2,-1.6482092E-1,-1.6282214E-1,1.4721797E-1,-1.6273946E-1,-1.9238271E-1,-1.6769654E-1,-1.7784625E-1,-3.5419498E-2,2.1393855E-1],"categories":[],"categories_nodes":[],"categories_segments":[],"categories_sizes":[],"default_left":[0,0,0,0,0,0,0,0,0,0,0,0,0,0,0,0,0,0,0,0,0,0,0,0,0,0,0,0,0,0,0,0,0,0,0,0,0],"id":17,"left_children":[1,3,5,7,9,11,13,15,17,19,21,23,-1,-1,-1,25,27,-1,29,-1,-1,-1,-1,-1,31,-1,33,35,-1,-1,-1,-1,-1,-1,-1,-1,-1],"loss_changes":[6.080807E4,1.360093E4,1.229567E4,6.6379907E3,5.3032617E3,1.610506E4,4.375E-1,4.8207783E3,7.950371E2,7.186758E2,9.067934E3,3.7451572E3,0E0,0E0,0E0,7.089844E-1,6.290408E3,0E0,4.5617065E0,0E0,0E0,0E0,0E0,0E0,6.56543E1,0E0,2.1142578E-1,9.0721045E3,0E0,0E0,0E0,0E0,0E0,0E0,0E0,0E0,0E0],"parents":[2147483647,0,0,1,1,2,2,3,3,4,4,5,5,6,6,7,7,8,8,9,9,10,10,11,11,15,15,16,16,18,18,24,24,26,26,27,27],"right_children":[2,4,6,8,10,12,14,16,18,20,22,24,-1,-1,-1,26,28,-1,30,-1,-1,-1,-1,-1,32,-1,34,36,-1,-1,-1,-1,-1,-1,-1,-1,-1],"split_conditions":[1.11E2,-7.524789E1,-1.22593094E2,8.9E1,1.08E2,1.35E2,3.9950188E1,5E0,1.06E2,2.018E3,3.9950188E1,1.31E2,1.8143478E-1,1.7854786E-1,1.814346E-1,1E0,8.3E1,1.7858624E-1,3.9991398E1,-1.6314693E-1,1.8420042E-1,-1.6304749E-1,1.8069953E-1,1.81389E-1,1.33E2,-1.7167366E-1,3.42427E1,-1.182509E2,-1.6482092E-1,-1.6282214E-1,1.4721797E-1,-1.6273946E-1,-1.9238271E-1,-1.6769654E-1,-1.7784625E-1,-3.5419498E-2,2.1393855E-1],"split_indices":[8,5,5,8,8,8,4,8,8,0,4,8,0,0,0,8,8,0,4,0,0,0,0,0,8,0,4,5,0,0,0,0,0,0,0,0,0],"split_type":[0,0,0,0,0,0,0,0,0,0,0,0,0,0,0,0,0,0,0,0,0,0,0,0,0,0,0,0,0,0,0,0,0,0,0,0,0],"sum_hessian":[6.131113E5,4.5128572E5,1.6182562E5,2.2393245E5,2.2735327E5,5.5738418E4,1.060872E5,2.1031395E5,1.3618497E4,1.9866814E5,2.8685129E4,3.0029598E4,2.570882E4,9.452914E3,9.663429E4,2.7988668E4,1.8232528E5,1.2967174E4,6.5132367E2,1.9813136E5,5.367714E2,1.7099953E4,1.1585177E4,2.9090354E3,2.7120562E4,1.2799308E4,1.5189361E4,1.5359588E5,2.8729402E4,6.477517E2,3.5719442E0,1.4308093E4,1.2812471E4,1.4717281E4,4.720796E2,1.3909686E5,1.4499021E4],"tree_param":{"num_deleted":"0","num_feature":"9","num_nodes":"37","size_leaf_vector":"1"}},{"base_weights":[1.2589498E-1,2.4840224E-1,-3.2934093E-1,-1.0032813E-1,4.5496464E-1,3.0724186E-1,-5.4331386E-1,7.342015E-2,-5.896576E-1,5.2370477E-1,-1.5950601E-1,5.2570444E-1,-1.592402E-1,-5.9527594E-1,-1.5959099E-1,-1.3373794E-1,3.9022967E-1,-6.783182E-1,-5.538628E-1,2.8865555E-1,5.626786E-1,-1.5912807E-1,1.7318298E-1,1.7232531E-1,-6.085033E-1,3.277104E-1,-6.2337166E-1,-5.44407E-1,5.3445053E-1,-8.3071053E-1,-5.9654236E-1,-5.400179E-1,-5.696499E-1,5.192814E-1,-4.1042176E-1,1.7051928E-1,1.6657043E-1,-1.893732E-1,-1.5922241E-1,-1.9704406E-1,1.3413548E-1,-1.6925944E-1,-1.9473179E-1,-1.8064441E-1,4.91026E-2,2.0664324E-1,-1.7263654E-1,-1.6576712E-1,-2.8445354E-1,-1.711311E-1,-1.8416592E-1,-1.607762E-1,-2.2319241E-1,-1.7758141E-1,-1.5959564E-1,-1.8509626E-1,1.7563829E-1,-1.5994722E-1,1.7902473E-1,-1.2810773E-2,2.0715582E-1],"categories":[],"categories_nodes":[],"categories_segments":[],"categories_sizes":[],"default_left":[0,0,0,0,0,0,0,0,0,0,0,0,0,0,0,0,0,0,0,0,0,0,0,0,0,0,0,0,0,0,0,0,0,0,0,0,0,0,0,0,0,0,0,0,0,0,0,0,0,0,0,0,0,0,0,0,0,0,0,0,0],"id":18,"left_children":[1,3,5,7,9,11,13,15,17,19,-1,21,-1,23,-1,25,27,29,31,33,35,-1,-1,-1,37,39,41,43,45,47,49,51,53,55,57,-1,59,-1,-1,-1,-1,-1,-1,-1,-1,-1,-1,-1,-1,-1,-1,-1,-1,-1,-1,-1,-1,-1,-1,-1,-1],"loss_changes":[3.1519684E4,3.207941E4,1.6324098E4,1.4084431E4,1.8968508E4,5.520028E3,5.2554688E1,8.023412E3,1.3738477E2,2.395E3,0E0,1.3029121E3,0E0,2.4889209E2,0E0,1.6701445E4,6.5154746E3,1.5503369E2,6.4521484E0,5.996002E3,5.0796094E2,0E0,0E0,0E0,2.7754883E1,4.4740713E3,5.4246094E1,2.642915E2,7.1743955E3,1.417981E2,3.3288574E0,1.3388184E1,1.1800781E1,2.1032002E3,1.14077E3,0E0,3.501751E2,0E0,0E0,0E0,0E0,0E0,0E0,0E0,0E0,0E0,0E0,0E0,0E0,0E0,0E0,0E0,0E0,0E0,0E0,0E0,0E0,0E0,0E0,0E0,0E0],"parents":[2147483647,0,0,1,1,2,2,3,3,4,4,5,5,6,6,7,7,8,8,9,9,11,11,13,13,15,15,16,16,17,17,18,18,19,19,20,20,24,24,25,25,26,26,27,27,28,28,29,29,30,30,31,31,32,32,33,33,34,34,36,36],"right_children":[2,4,6,8,10,12,14,16,18,20,-1,22,-1,24,-1,26,28,30,32,34,36,-1,-1,-1,38,40,42,44,46,48,50,52,54,56,58,-1,60,-1,-1,-1,-1,-1,-1,-1,-1,-1,-1,-1,-1,-1,-1,-1,-1,-1,-1,-1,-1,-1,-1,-1,-1],"split_conditions":[1.07E2,-7.665399E1,-1.2265064E2,3.41005E1,-7.509935E1,1.33E2,-1.22593094E2,3.40491E1,3.41512E1,-7.524789E1,-1.5950601E-1,1.31E2,-1.592402E-1,1.33E2,-1.5959099E-1,1.8E1,-1.183487E2,1.2E1,3.42427E1,8.6E1,-7.51014E1,-1.5912807E-1,1.7318298E-1,1.7232531E-1,1.35E2,-1.183008E2,3.39483E1,2.9E1,-1.18247E2,1.1E1,2.3E1,-1.183487E2,7.3E1,8.3E1,1.06E2,1.7051928E-1,1.04E2,-1.893732E-1,-1.5922241E-1,-1.9704406E-1,1.3413548E-1,-1.6925944E-1,-1.9473179E-1,-1.8064441E-1,4.91026E-2,2.0664324E-1,-1.7263654E-1,-1.6576712E-1,-2.8445354E-1,-1.711311E-1,-1.8416592E-1,-1.607762E-1,-2.2319241E-1,-1.7758141E-1,-1.5959564E-1,-1.8509626E-1,1.7563829E-1,-1.5994722E-1,1.7902473E-1,-1.2810773E-2,2.0715582E-1],"split_indices":[8,5,5,4,5,8,5,4,4,5,0,8,0,8,0,8,5,8,4,8,5,0,0,0,8,5,4,8,5,8,8,5,8,8,8,0,8,0,0,0,0,0,0,0,0,0,0,0,0,0,0,0,0,0,0,0,0,0,0,0,0],"split_type":[0,0,0,0,0,0,0,0,0,0,0,0,0,0,0,0,0,0,0,0,0,0,0,0,0,0,0,0,0,0,0,0,0,0,0,0,0,0,0,0,0,0,0,0,0,0,0,0,0,0,0,0,0,0,0,0,0,0,0,0,0],"sum_hessian":[5.651733E5,4.4533178E5,1.1984153E5,1.6565839E5,2.7967338E5,3.0148232E4,8.96933E4,1.2225105E5,4.3407344E4,2.6145803E5,1.8215348E4,2.3914521E4,6.233712E3,1.6063084E4,7.363021E4,7.3917695E4,4.8333348E4,1.2479295E4,3.0928049E4,3.718789E4,2.2427014E5,1.1129733E3,2.2801549E4,1.7914186E2,1.5883942E4,3.8054297E4,3.58634E4,6.4607935E3,4.1872555E4,4.354802E3,8.124493E3,1.649637E4,1.4431681E4,2.796311E4,9.224782E3,2.210778E5,3.1923503E3,1.228438E4,3.5995627E3,4.115694E3,3.39386E4,1.0876599E4,2.49868E4,5.973805E3,4.8698807E2,3.676047E4,5.1120864E3,1.2947213E3,3.0600806E3,3.2566465E3,4.8678467E3,1.6175057E4,3.2131183E2,9.05728E3,5.3744E3,1.5385571E3,2.642455E4,8.223163E3,1.00161847E3,2.28186E3,9.1049023E2],"tree_param":{"num_deleted":"0","num_feature":"9","num_nodes":"61","size_leaf_vector":"1"}},{"base_weights":[-2.9605795E-2,1.8627858E-1,-1.368717E-1,-1.624677E-1,2.2132628E-1,-3.6196807E-1,-2.727675E-2,5.9576315E-1,1.6724867E-1,-4.525768E-2,-1.595437E-1,5.700585E-1,-1.3017538E-1,1.804844E-1,5.8448815E-1,-9.878712E-2,2.6816973E-1,-4.1070086E-1,1.7130011E-1,1.859543E-1,1.7031835E-1,6.238941E-3,-5.3213537E-1,1.7450747E-1,1.8536662E-1,1.5160364E-1,-4.114717E-1,6.146695E-1,1.197028E-1,1.9903846E-1,-5.552924E-1,-1.6033033E-1,1.135968E-1,-3.3525288E-1,-5.3551036E-1,7.8765035E-2,-2.087975E-1,1.8752135E-1,-1.670068E-1,8.206933E-2,2.0668292E-1,-3.2313004E-2,1.4697897E-1,1.7046791E-1,-1.7597699E-1,-1.9871394E-1,-1.6320838E-1,1.4961053E-1,-5.6514237E-2,-1.5922713E-1,5.0961566E-3,-1.597913E-1,-1.6166252E-1],"categories":[],"categories_nodes":[],"categories_segments":[],"categories_sizes":[],"default_left":[0,0,0,0,0,0,0,0,0,0,0,0,0,0,0,0,0,0,0,0,0,0,0,0,0,0,0,0,0,0,0,0,0,0,0,0,0,0,0,0,0,0,0,0,0,0,0,0,0,0,0,0,0],"id":19,"left_children":[1,3,5,-1,7,9,11,13,15,17,-1,19,21,-1,23,25,27,29,-1,-1,-1,31,33,-1,-1,35,37,39,41,43,45,-1,47,49,51,-1,-1,-1,-1,-1,-1,-1,-1,-1,-1,-1,-1,-1,-1,-1,-1,-1,-1],"loss_changes":[1.2389467E4,4.5303574E3,8.817486E3,0E0,3.4307383E3,6.2956924E3,1.4775498E4,1.059082E0,3.9750806E3,9.201452E3,0E0,3.7470703E0,1.1244284E4,0E0,3.2617188E-1,3.1880798E3,5.5217183E3,2.2613315E3,0E0,0E0,0E0,8.887138E3,3.4345703E1,0E0,0E0,2.1266165E3,2.725938E3,8.154922E2,6.3265703E3,1.4264879E3,2.4648438E1,0E0,1.4855545E4,6.0496727E1,2.0703125E-1,0E0,0E0,0E0,0E0,0E0,0E0,0E0,0E0,0E0,0E0,0E0,0E0,0E0,0E0,0E0,0E0,0E0,0E0],"parents":[2147483647,0,0,1,1,2,2,4,4,5,5,6,6,7,7,8,8,9,9,11,11,12,12,14,14,15,15,16,16,17,17,21,21,22,22,25,25,26,26,27,27,28,28,29,29,30,30,32,32,33,33,34,34],"right_children":[2,4,6,-1,8,10,12,14,16,18,-1,20,22,-1,24,26,28,30,-1,-1,-1,32,34,-1,-1,36,38,40,42,44,46,-1,48,50,52,-1,-1,-1,-1,-1,-1,-1,-1,-1,-1,-1,-1,-1,-1,-1,-1,-1,-1],"split_conditions":[5.2E1,1E0,1.03E2,-1.624677E-1,5E0,8.9E1,1.04E2,3.41005E1,1.8E1,8.6E1,-1.595437E-1,-7.509935E1,-7.515008E1,1.804844E-1,3.42427E1,-1.183487E2,2.4E1,-1.185943E2,1.7130011E-1,1.859543E-1,1.7031835E-1,1.07E2,-7.5149345E1,1.7450747E-1,1.8536662E-1,3.42012E1,8E0,3.3931E1,3.41512E1,5.8E1,5.3E1,-1.6033033E-1,1.11E2,3.9998474E1,3.999923E1,7.8765035E-2,-2.087975E-1,1.8752135E-1,-1.670068E-1,8.206933E-2,2.0668292E-1,-3.2313004E-2,1.4697897E-1,1.7046791E-1,-1.7597699E-1,-1.9871394E-1,-1.6320838E-1,1.4961053E-1,-5.6514237E-2,-1.5922713E-1,5.0961566E-3,-1.597913E-1,-1.6166252E-1],"split_indices":[8,8,8,0,8,8,8,4,8,8,0,5,5,0,4,5,8,5,0,0,0,8,5,0,0,4,8,4,4,8,8,0,8,4,4,0,0,0,0,0,0,0,0,0,0,0,0,0,0,0,0,0,0],"split_type":[0,0,0,0,0,0,0,0,0,0,0,0,0,0,0,0,0,0,0,0,0,0,0,0,0,0,0,0,0,0,0,0,0,0,0,0,0,0,0,0,0,0,0,0,0,0,0,0,0,0,0,0,0],"sum_hessian":[5.350175E5,1.7759248E5,3.5742503E5,8.1581084E3,1.6943438E5,1.1703837E5,2.4038666E5,2.1380992E4,1.4805338E5,4.0855656E4,7.618271E4,3.5323895E4,2.0506277E5,1.4041412E4,7.3395796E3,4.0717883E4,1.0733549E5,2.5647145E4,1.5208513E4,1.5677847E3,3.375611E4,1.531043E5,5.1958465E4,6.789518E3,5.5006146E2,2.2611566E4,1.8106316E4,3.2194697E4,7.51408E4,4.91602E3,2.0731123E4,2.5363785E4,1.27740516E5,8.773596E2,5.1081105E4,1.9995E4,2.616567E3,2.2245422E3,1.5881775E4,5.7575454E3,2.6437152E4,4.65488E4,2.8591996E4,3.344586E3,1.5714342E3,1.9676406E3,1.8763482E4,5.6142566E4,7.159795E4,5.638812E2,3.134784E2,2.7641229E4,2.3439877E4],"tree_param":{"num_deleted":"0","num_feature":"9","num_nodes":"53","size_leaf_vector":"1"}},{"base_weights":[-1.09688826E-1,-2.8037024E-1,3.7279838E-1,-1.12618715E-1,-4.707568E-1,-3.1136423E-3,5.7649183E-1,-5.5001736E-1,-5.7119817E-2,-5.2920854E-1,-7.197933E-2,-4.7687745E-1,1.7318332E-1,5.798221E-1,1.7199719E-1,-1.6717768E-1,-1.6298531E-1,4.830798E-1,-1.0864498E-1,-1.5966783E-1,1.7310578E-1,-1.5951553E-1,1.7237607E-1,1.7312694E-1,-5.841627E-1,1.73015E-1,1.7606555E-1,9.741893E-2,1.4757531E0,-4.2192665E-1,-8.509079E-3,-1.5925102E-1,-1.8937391E-1,1.7960624E-1,-1.6878879E-1,3.8681218E-1,4.6934676E-1,3.7415358E-1,-1.7027333E-1,1.1351833E0,-7.1964236E-3],"categories":[],"categories_nodes":[],"categories_segments":[],"categories_sizes":[],"default_left":[0,0,0,0,0,0,0,0,0,0,0,0,0,0,0,0,0,0,0,0,0,0,0,0,0,0,0,0,0,0,0,0,0,0,0,0,0,0,0,0,0],"id":20,"left_children":[1,3,5,7,9,11,13,15,17,19,21,23,-1,25,-1,-1,-1,27,29,-1,-1,-1,-1,-1,31,-1,-1,33,35,37,39,-1,-1,-1,-1,-1,-1,-1,-1,-1,-1],"loss_changes":[4.1527695E4,1.1896709E4,1.0089979E4,4.8069946E3,4.066914E3,1.2734244E4,5.722656E-1,7.841797E-1,4.891212E3,5.0827344E2,6.630883E3,2.8835308E3,0E0,5.722656E-1,0E0,0E0,0E0,5.8579307E3,5.03268E3,0E0,0E0,0E0,0E0,0E0,5.7770996E1,0E0,0E0,3.6468948E3,6.8791016E1,9.447258E3,7.1366304E3,0E0,0E0,0E0,0E0,0E0,0E0,0E0,0E0,0E0,0E0],"parents":[2147483647,0,0,1,1,2,2,3,3,4,4,5,5,6,6,7,7,8,8,9,9,10,10,11,11,13,13,17,17,18,18,24,24,27,27,28,28,29,29,30,30],"right_children":[2,4,6,8,10,12,14,16,18,20,22,24,-1,26,-1,-1,-1,28,30,-1,-1,-1,-1,-1,32,-1,-1,34,36,38,40,-1,-1,-1,-1,-1,-1,-1,-1,-1,-1],"split_conditions":[1.11E2,-7.524789E1,-1.22593094E2,5E0,1.08E2,1.35E2,-7.515008E1,1E0,1.3E1,2.018E3,3.9950188E1,1.31E2,1.7318332E-1,-7.519949E1,1.7199719E-1,-1.6717768E-1,-1.6298531E-1,1.1E1,2.1E1,-1.5966783E-1,1.7310578E-1,-1.5951553E-1,1.7237607E-1,1.7312694E-1,1.33E2,1.73015E-1,1.7606555E-1,9E0,-1.184535E2,-1.184487E2,2.2E1,-1.5925102E-1,-1.8937391E-1,1.7960624E-1,-1.6878879E-1,3.8681218E-1,4.6934676E-1,3.7415358E-1,-1.7027333E-1,1.1351833E0,-7.1964236E-3],"split_indices":[8,5,5,8,8,8,5,8,8,0,4,8,0,5,0,0,0,8,8,0,0,0,0,0,8,0,0,8,5,5,8,0,0,0,0,0,0,0,0,0,0],"split_type":[0,0,0,0,0,0,0,0,0,0,0,0,0,0,0,0,0,0,0,0,0,0,0,0,0,0,0,0,0,0,0,0,0,0,0,0,0,0,0,0,0],"sum_hessian":[5.0427088E5,3.724987E5,1.3177219E5,1.9802155E5,1.7447716E5,4.6309656E4,8.546254E4,2.2295676E4,1.7572586E5,1.5217189E5,2.2305266E4,2.5497031E4,2.0812623E4,4.157412E4,4.3888414E4,1.0702736E4,1.159294E4,1.5300817E4,1.6042505E5,1.5175844E5,4.1344537E2,1.3036135E4,9.26913E3,2.3552034E3,2.3141828E4,2.8934627E4,1.2639496E4,1.1020406E4,4.280411E3,3.8856562E4,1.21568484E5,1.0857318E4,1.2284511E4,6.2636323E3,4.7567744E3,1.38562E3,2.894791E3,3.117995E3,3.5738566E4,4.931784E2,1.2107531E5],"tree_param":{"num_deleted":"0","num_feature":"9","num_nodes":"41","size_leaf_vector":"1"}},{"base_weights":[1.1243202E-1,2.2722752E-1,-3.2136774E-1,-1.0062364E-1,4.3726927E-1,3.101567E-1,-5.369653E-1,5.856877E-2,-5.6805146E-1,5.021467E-1,-1.5695406E-1,5.119953E-1,-1.5672334E-1,-5.888206E-1,-1.5708031E-1,-1.4547749E-1,3.6521918E-1,-6.2232065E-1,-5.4502314E-1,2.7479085E-1,5.427148E-1,-1.5657489E-1,1.6764039E-1,1.665943E-1,-6.0052615E-1,2.8777385E-1,-5.9820074E-1,-5.2075684E-1,5.009131E-1,-6.999839E-1,-5.7975566E-1,-5.352127E-1,-5.6284976E-1,4.965821E-1,-4.0588257E-1,1.6474885E-1,1.4798589E-1,-1.8563697E-1,-1.5669969E-1,1.298539E-1,-1.3547276E-1,-1.661556E-1,-1.8517984E-1,-1.7498754E-1,3.936175E-2,1.9156949E-1,-1.6877201E-1,-1.6178352E-1,-2.270316E-1,-1.6487125E-1,-1.7900579E-1,-1.5764119E-1,-1.6962092E-1,-1.8051489E-1,-1.575024E-1,-1.7997243E-1,1.698786E-1,-1.5798362E-1,1.7225064E-1,1.7590368E-1,-2.315251E-2],"categories":[],"categories_nodes":[],"categories_segments":[],"categories_sizes":[],"default_left":[0,0,0,0,0,0,0,0,0,0,0,0,0,0,0,0,0,0,0,0,0,0,0,0,0,0,0,0,0,0,0,0,0,0,0,0,0,0,0,0,0,0,0,0,0,0,0,0,0,0,0,0,0,0,0,0,0,0,0,0,0],"id":21,"left_children":[1,3,5,7,9,11,13,15,17,19,-1,21,-1,23,-1,25,27,29,31,33,35,-1,-1,-1,37,39,41,43,45,47,49,51,53,55,57,-1,59,-1,-1,-1,-1,-1,-1,-1,-1,-1,-1,-1,-1,-1,-1,-1,-1,-1,-1,-1,-1,-1,-1,-1,-1],"loss_changes":[2.2488516E4,2.459044E4,1.2866473E4,1.0376092E4,1.3562535E4,4.0418643E3,4.851172E1,6.508564E3,4.3932617E1,1.8803242E3,0E0,9.3710645E2,0E0,1.9355908E2,0E0,1.2251063E4,4.996699E3,3.445874E1,4.0498047E0,4.6610244E3,4.4026953E2,0E0,0E0,0E0,2.0072266E1,3.4235393E3,2.5483398E1,2.2514331E2,5.276418E3,3.3624634E1,3.1567383E0,4.428711E0,1.264502E1,1.7794731E3,8.981184E2,0E0,2.7464328E2,0E0,0E0,0E0,0E0,0E0,0E0,0E0,0E0,0E0,0E0,0E0,0E0,0E0,0E0,0E0,0E0,0E0,0E0,0E0,0E0,0E0,0E0,0E0,0E0],"parents":[2147483647,0,0,1,1,2,2,3,3,4,4,5,5,6,6,7,7,8,8,9,9,11,11,13,13,15,15,16,16,17,17,18,18,19,19,20,20,24,24,25,25,26,26,27,27,28,28,29,29,30,30,31,31,32,32,33,33,34,34,36,36],"right_children":[2,4,6,8,10,12,14,16,18,20,-1,22,-1,24,-1,26,28,30,32,34,36,-1,-1,-1,38,40,42,44,46,48,50,52,54,56,58,-1,60,-1,-1,-1,-1,-1,-1,-1,-1,-1,-1,-1,-1,-1,-1,-1,-1,-1,-1,-1,-1,-1,-1,-1,-1],"split_conditions":[1.07E2,-7.665399E1,-1.2265064E2,3.41005E1,-7.509935E1,1.33E2,-1.22593094E2,3.40491E1,3.41512E1,-7.524789E1,-1.5695406E-1,1.31E2,-1.5672334E-1,1.33E2,-1.5708031E-1,1.8E1,-1.183487E2,1.2E1,5.2E1,8.6E1,-7.51014E1,-1.5657489E-1,1.6764039E-1,1.665943E-1,1.35E2,-1.182509E2,3.39483E1,2.9E1,-1.18247E2,1.1E1,2.3E1,3.42554E1,3.42954E1,8.3E1,1.06E2,1.6474885E-1,1.01E2,-1.8563697E-1,-1.5669969E-1,1.298539E-1,-1.3547276E-1,-1.661556E-1,-1.8517984E-1,-1.7498754E-1,3.936175E-2,1.9156949E-1,-1.6877201E-1,-1.6178352E-1,-2.270316E-1,-1.6487125E-1,-1.7900579E-1,-1.5764119E-1,-1.6962092E-1,-1.8051489E-1,-1.575024E-1,-1.7997243E-1,1.698786E-1,-1.5798362E-1,1.7225064E-1,1.7590368E-1,-2.315251E-2],"split_indices":[8,5,5,4,5,8,5,4,4,5,0,8,0,8,0,8,5,8,8,8,5,0,0,0,8,5,4,8,5,8,8,4,4,8,8,0,8,0,0,0,0,0,0,0,0,0,0,0,0,0,0,0,0,0,0,0,0,0,0,0,0],"split_type":[0,0,0,0,0,0,0,0,0,0,0,0,0,0,0,0,0,0,0,0,0,0,0,0,0,0,0,0,0,0,0,0,0,0,0,0,0,0,0,0,0,0,0,0,0,0,0,0,0,0,0,0,0,0,0,0,0,0,0,0,0],"sum_hessian":[4.515899E5,3.570935E5,9.449641E4,1.3944162E5,2.1765189E5,2.4049781E4,7.0446625E4,1.04017234E5,3.5424387E4,2.0388044E5,1.3771446E4,1.9357377E4,4.692405E3,1.4426552E4,5.6020074E4,6.245799E4,4.1559242E4,1.0545811E4,2.4878576E4,3.0872043E4,1.730084E5,8.379305E2,1.8519447E4,1.4563239E2,1.428092E4,3.1915531E4,3.0542459E4,5.519348E3,3.6039895E4,3.7281172E3,6.817694E3,1.6067349E4,8.811229E3,2.3285082E4,7.586961E3,1.702273E5,2.7811072E3,1.1571308E4,2.7096125E3,2.6680748E4,5.234783E3,9.191584E3,2.1350875E4,5.036375E3,4.8297327E2,3.1910033E4,4.1298604E3,9.761605E2,2.7519565E3,2.4618794E3,4.355814E3,1.2161418E4,3.9059304E3,4.33941E3,4.4718184E3,1.3908536E3,2.1894229E4,6.7552637E3,8.316974E2,9.432043E2,1.8379028E3],"tree_param":{"num_deleted":"0","num_feature":"9","num_nodes":"61","size_leaf_vector":"1"}},{"base_weights":[-2.4618749E-2,1.6292647E-1,-1.2718464E-1,7.7994734E-2,4.1666085E-1,-3.47353E-1,-2.2613183E-2,1.8943556E-1,-2.9938757E-1,5.784746E-1,-4.4332087E-2,-4.1663446E-2,-1.5708762E-1,5.50976E-1,-1.1713614E-1,-3.2779578E-2,4.0856132E-1,-6.0519534E-1,4.8721347E-2,5.7395804E-1,1.8011129E-1,-3.751591E-1,1.8852706E-1,-3.9657533E-1,1.6656286E-1,1.7840631E-1,1.6460605E-1,8.992384E-3,-5.221183E-1,-3.093806E-1,5.509978E-1,5.498434E-1,-9.379698E-2,-1.7310216E-1,-6.203958E-1,5.604448E-1,-6.185323E-1,1.674173E-1,1.7346345E-1,6.4378893E-1,-5.048349E-1,1.7150569E-1,-5.465809E-1,1.0915896E-1,-1.5993807E-1,-3.106639E-1,-1.5778604E-1,1.4916732E-2,-1.6172913E-1,-1.6561225E-1,1.7100509E-1,1.7678402E-1,-1.6007905E-1,1.8489239E-1,-2.1265449E-1,-1.8850021E-1,-1.6597347E-1,2.0199808E-1,-1.8719073E-1,-2.1846364E-1,3.6644533E-1,1.9769287E-1,-1.5427707E-1,1.7467251E-1,-1.7677058E-1,1.5800819E-1,-1.7250854E-1,-1.9124594E-1,-1.606678E-1,-8.987104E-3,2.4352618E-1,-1.5659073E-1,4.537522E-3],"categories":[],"categories_nodes":[],"categories_segments":[],"categories_sizes":[],"default_left":[0,0,0,0,0,0,0,0,0,0,0,0,0,0,0,0,0,0,0,0,0,0,0,0,0,0,0,0,0,0,0,0,0,0,0,0,0,0,0,0,0,0,0,0,0,0,0,0,0,0,0,0,0,0,0,0,0,0,0,0,0,0,0,0,0,0,0,0,0,0,0,0,0],"id":22,"left_children":[1,3,5,7,9,11,13,15,17,19,21,23,-1,25,27,29,31,33,35,37,-1,39,-1,41,-1,-1,-1,43,45,47,49,51,53,-1,55,57,59,-1,-1,61,63,65,67,69,-1,71,-1,-1,-1,-1,-1,-1,-1,-1,-1,-1,-1,-1,-1,-1,-1,-1,-1,-1,-1,-1,-1,-1,-1,-1,-1,-1,-1],"loss_changes":[8.478611E3,3.358146E3,6.560314E3,4.91018E3,2.9151694E3,4.944217E3,1.0474176E4,4.3890225E3,2.8335684E3,2.5166016E0,2.260246E3,7.1094487E3,0E0,2.4091797E0,8.471924E3,7.226681E3,3.22112E3,5.713867E0,4.250946E3,1.3012695E0,0E0,8.9983734E2,0E0,1.7935588E3,0E0,0E0,0E0,6.867652E3,3.177832E1,2.5050156E3,3.0216016E2,1.5137979E3,4.3516885E3,0E0,4.55249E0,9.424629E2,1.0914272E3,0E0,0E0,1.3863678E1,5.5447754E2,1.166278E3,1.6341309E1,1.0433734E4,0E0,4.8478874E1,0E0,0E0,0E0,0E0,0E0,0E0,0E0,0E0,0E0,0E0,0E0,0E0,0E0,0E0,0E0,0E0,0E0,0E0,0E0,0E0,0E0,0E0,0E0,0E0,0E0,0E0,0E0],"parents":[2147483647,0,0,1,1,2,2,3,3,4,4,5,5,6,6,7,7,8,8,9,9,10,10,11,11,13,13,14,14,15,15,16,16,17,17,18,18,19,19,21,21,23,23,27,27,28,28,29,29,30,30,31,31,32,32,34,34,35,35,36,36,39,39,40,40,41,41,42,42,43,43,45,45],"right_children":[2,4,6,8,10,12,14,16,18,20,22,24,-1,26,28,30,32,34,36,38,-1,40,-1,42,-1,-1,-1,44,46,48,50,52,54,-1,56,58,60,-1,-1,62,64,66,68,70,-1,72,-1,-1,-1,-1,-1,-1,-1,-1,-1,-1,-1,-1,-1,-1,-1,-1,-1,-1,-1,-1,-1,-1,-1,-1,-1,-1,-1],"split_conditions":[5.2E1,3.41512E1,1.03E2,3.1E1,3.42427E1,8.9E1,1.04E2,1.8E1,3.4E1,4.6E1,3.9E1,8.6E1,-1.5708762E-1,-7.509935E1,-7.515008E1,-1.182509E2,3.40511E1,-1.183158E2,4.2E1,4E0,1.8011129E-1,-1.185492E2,1.8852706E-1,-1.185943E2,1.6656286E-1,1.7840631E-1,1.6460605E-1,1.35E2,-7.5149345E1,-1.183487E2,1E0,-1.182509E2,2.3E1,-1.7310216E-1,-1.181981E2,3.40055E1,5.1E1,1.674173E-1,1.7346345E-1,3.42554E1,4E0,5.8E1,5.3E1,1.34E2,-1.5993807E-1,3.9998474E1,-1.5778604E-1,1.4916732E-2,-1.6172913E-1,-1.6561225E-1,1.7100509E-1,1.7678402E-1,-1.6007905E-1,1.8489239E-1,-2.1265449E-1,-1.8850021E-1,-1.6597347E-1,2.0199808E-1,-1.8719073E-1,-2.1846364E-1,3.6644533E-1,1.9769287E-1,-1.5427707E-1,1.7467251E-1,-1.7677058E-1,1.5800819E-1,-1.7250854E-1,-1.9124594E-1,-1.606678E-1,-8.987104E-3,2.4352618E-1,-1.5659073E-1,4.537522E-3],"split_indices":[8,4,8,8,4,8,8,8,8,8,8,8,0,5,5,5,4,5,8,8,0,5,0,5,0,0,0,8,5,5,8,5,8,0,5,4,8,0,0,4,8,8,8,8,0,4,0,0,0,0,0,0,0,0,0,0,0,0,0,0,0,0,0,0,0,0,0,0,0,0,0,0,0],"split_type":[0,0,0,0,0,0,0,0,0,0,0,0,0,0,0,0,0,0,0,0,0,0,0,0,0,0,0,0,0,0,0,0,0,0,0,0,0,0,0,0,0,0,0,0,0,0,0,0,0,0,0,0,0,0,0,0,0,0,0,0,0,0,0,0,0,0,0,0,0,0,0,0,0],"sum_hessian":[4.407717E5,1.5583023E5,2.8494144E5,1.1675162E5,3.907861E4,9.1755E4,1.9318645E5,9.013523E4,2.6616393E4,2.8925258E4,1.0153351E4,3.355885E4,5.8196145E4,2.7330889E4,1.6585556E5,4.4752566E4,4.538266E4,1.4168695E4,1.2447697E4,2.4001643E4,4.923616E3,6.8066353E3,3.3467153E3,2.1045271E4,1.2513579E4,1.3472255E3,2.5983664E4,1.2646881E5,3.938675E4,3.0365488E4,1.4387078E4,3.5420883E4,9.961777E3,4.9773926E3,9.191303E3,7.044987E3,5.4027104E3,5.093425E3,1.8908217E4,7.6799854E2,6.0386367E3,4.3962485E3,1.6649023E4,1.0674626E5,1.972255E4,7.0310156E2,3.868365E4,1.1846811E4,1.8518678E4,2.433895E2,1.4143688E4,3.41773E4,1.2435819E3,4.623608E3,5.3381694E3,8.212145E3,9.791584E2,6.4323726E3,6.126143E2,5.099352E3,3.0335834E2,7.5848236E2,9.516198E0,4.346353E2,5.6040015E3,2.9791257E3,1.4171228E3,1.7941439E3,1.4854879E4,8.910429E4,1.7641969E4,4.2612E2,2.7698157E2],"tree_param":{"num_deleted":"0","num_feature":"9","num_nodes":"73","size_leaf_vector":"1"}},{"base_weights":[-9.597419E-2,-2.4772629E-1,3.461317E-1,-8.973018E-2,-4.5655674E-1,-2.3743298E-2,5.5670714E-1,-5.3717923E-1,-4.1180044E-2,-5.2050394E-1,-4.5253735E-2,-4.7844142E-1,1.6764043E-1,5.607896E-1,1.6578455E-1,-1.6295686E-1,-1.5938556E-1,-7.607522E-2,4.9848905E-1,-1.5711008E-1,1.6769509E-1,-1.5709883E-1,5.6159705E-1,1.6757108E-1,-5.789447E-1,1.6750957E-1,1.6987027E-1,-5.1960256E-3,-1.5979254E-1,1.6772915E-1,-5.2767634E-1,1.7007187E-1,1.6480637E-1,-1.5673748E-1,-1.8563756E-1,-2.1935556E-2,1.7559433E-1,-1.6024798E-1,1.3613752E-1],"categories":[],"categories_nodes":[],"categories_segments":[],"categories_sizes":[],"default_left":[0,0,0,0,0,0,0,0,0,0,0,0,0,0,0,0,0,0,0,0,0,0,0,0,0,0,0,0,0,0,0,0,0,0,0,0,0,0,0],"id":23,"left_children":[1,3,5,7,9,11,13,15,17,19,21,23,-1,25,-1,-1,-1,27,29,-1,-1,-1,31,-1,33,-1,-1,35,-1,-1,37,-1,-1,-1,-1,-1,-1,-1,-1],"loss_changes":[2.7907434E4,1.0217402E4,8.278941E3,3.829744E3,3.5080625E3,1.0214768E4,8.222656E-1,3.2226562E-1,2.995037E3,3.9857422E2,5.2109683E3,2.2576172E3,0E0,1.2988281E-1,0E0,0E0,0E0,4.8341245E3,6.01032E2,0E0,0E0,0E0,2.0288086E-1,0E0,4.411963E1,0E0,0E0,5.1864434E3,0E0,0E0,3.6734924E0,0E0,0E0,0E0,0E0,0E0,0E0,0E0,0E0],"parents":[2147483647,0,0,1,1,2,2,3,3,4,4,5,5,6,6,7,7,8,8,9,9,10,10,11,11,13,13,17,17,18,18,22,22,24,24,27,27,30,30],"right_children":[2,4,6,8,10,12,14,16,18,20,22,24,-1,26,-1,-1,-1,28,30,-1,-1,-1,32,-1,34,-1,-1,36,-1,-1,38,-1,-1,-1,-1,-1,-1,-1,-1],"split_conditions":[1.11E2,-7.524789E1,-1.22593094E2,5E0,1.08E2,1.35E2,-7.515008E1,1E0,8.9E1,2.018E3,3.9950188E1,1.31E2,1.6764043E-1,-7.519949E1,1.6578455E-1,-1.6295686E-1,-1.5938556E-1,8.3E1,1.06E2,-1.5711008E-1,1.6769509E-1,-1.5709883E-1,-7.519949E1,1.6757108E-1,1.33E2,1.6750957E-1,1.6987027E-1,-1.182509E2,-1.5979254E-1,1.6772915E-1,3.9991398E1,1.7007187E-1,1.6480637E-1,-1.5673748E-1,-1.8563756E-1,-2.1935556E-2,1.7559433E-1,-1.6024798E-1,1.3613752E-1],"split_indices":[8,5,5,8,8,8,5,8,8,0,4,8,0,5,0,0,0,8,8,0,0,0,5,0,8,0,0,5,0,0,4,0,0,0,0,0,0,0,0],"split_type":[0,0,0,0,0,0,0,0,0,0,0,0,0,0,0,0,0,0,0,0,0,0,0,0,0,0,0,0,0,0,0,0,0,0,0,0,0,0,0],"sum_hessian":[4.1596472E5,3.096711E5,1.0629363E5,1.7629327E5,1.3337783E5,3.8561457E4,6.773217E4,1.7255217E4,1.5903805E5,1.1543097E5,1.794686E4,2.1657297E4,1.6904158E4,3.383752E4,3.3894652E4,8.498234E3,8.756982E3,1.4937995E5,9.658096E3,1.150907E5,3.4026205E2,1.0035522E4,7.911337E3,1.9130925E3,1.9744205E4,2.3484205E4,1.0353314E4,1.2930686E5,2.0073096E4,9.119905E3,5.38191E2,5.486648E3,2.424689E3,8.172778E3,1.1571428E4,1.1596863E5,1.3338226E4,5.351118E2,3.079191E0],"tree_param":{"num_deleted":"0","num_feature":"9","num_nodes":"39","size_leaf_vector":"1"}},{"base_weights":[1.0224617E-1,2.1182334E-1,-3.0945086E-1,-9.875509E-2,4.275209E-1,3.193426E-1,-5.272057E-1,5.48627E-2,-5.6139576E-1,4.8962212E-1,-1.5510075E-1,5.047023E-1,-1.549315E-1,-5.159087E-1,-5.551361E-1,-1.2964346E-1,3.536231E-1,-6.080564E-1,-5.401484E-1,2.664444E-1,5.291606E-1,-1.5469493E-1,1.6394934E-1,1.6269547E-1,-1.55735E-1,-1.7529234E-1,-1.5495074E-1,2.506154E-1,-5.554891E-1,-5.1287454E-1,4.9287733E-1,-6.7459935E-1,-5.69439E-1,-5.3029525E-1,-5.573159E-1,4.7831136E-1,-3.920129E-1,5.362636E-1,1.3480489E-1,-1.9093472E-1,1.16169445E-1,-1.7216308E-1,-2.9033052E-2,-1.7339203E-1,3.0600263E-2,1.838504E-1,-1.6457559E-1,-1.5905365E-1,-2.1480902E-1,-1.606862E-1,-1.7563885E-1,-1.558448E-1,-1.6766001E-1,-1.7737685E-1,-1.5566263E-1,-1.7172405E-1,1.6429341E-1,-1.558397E-1,1.671232E-1,1.6061726E-1,1.618948E-1,-1.946272E-2,1.8451796E-1],"categories":[],"categories_nodes":[],"categories_segments":[],"categories_sizes":[],"default_left":[0,0,0,0,0,0,0,0,0,0,0,0,0,0,0,0,0,0,0,0,0,0,0,0,0,0,0,0,0,0,0,0,0,0,0,0,0,0,0,0,0,0,0,0,0,0,0,0,0,0,0,0,0,0,0,0,0,0,0,0,0,0,0],"id":24,"left_children":[1,3,5,7,9,11,13,15,17,19,-1,21,-1,23,25,27,29,31,33,35,37,-1,-1,-1,-1,-1,-1,39,41,43,45,47,49,51,53,55,57,59,61,-1,-1,-1,-1,-1,-1,-1,-1,-1,-1,-1,-1,-1,-1,-1,-1,-1,-1,-1,-1,-1,-1,-1,-1],"loss_changes":[1.6250019E4,1.90583E4,1.0367962E4,8.286829E3,9.848018E3,3.0177673E3,1.745996E1,4.8253057E3,2.8488281E1,1.3899492E3,0E0,6.801748E2,0E0,1.3627441E2,1.79375E1,8.763296E3,4.032901E3,2.2964844E1,3.0839844E0,3.307935E3,3.7478125E2,0E0,0E0,0E0,0E0,0E0,0E0,3.4648804E3,2.1526807E2,1.8530066E2,3.5975732E3,1.95531E1,2.805664E0,3.6379395E0,9.173096E0,1.3071768E3,6.985566E2,9.765625E-2,2.2722803E2,0E0,0E0,0E0,0E0,0E0,0E0,0E0,0E0,0E0,0E0,0E0,0E0,0E0,0E0,0E0,0E0,0E0,0E0,0E0,0E0,0E0,0E0,0E0,0E0],"parents":[2147483647,0,0,1,1,2,2,3,3,4,4,5,5,6,6,7,7,8,8,9,9,11,11,13,13,14,14,15,15,16,16,17,17,18,18,19,19,20,20,27,27,28,28,29,29,30,30,31,31,32,32,33,33,34,34,35,35,36,36,37,37,38,38],"right_children":[2,4,6,8,10,12,14,16,18,20,-1,22,-1,24,26,28,30,32,34,36,38,-1,-1,-1,-1,-1,-1,40,42,44,46,48,50,52,54,56,58,60,62,-1,-1,-1,-1,-1,-1,-1,-1,-1,-1,-1,-1,-1,-1,-1,-1,-1,-1,-1,-1,-1,-1,-1,-1],"split_conditions":[1.07E2,-7.665399E1,-1.2265064E2,3.41005E1,-7.509935E1,1.33E2,1.34E2,3.40511E1,3.41512E1,-7.524789E1,-1.5510075E-1,1.31E2,-1.549315E-1,-1.22643524E2,1.35E2,1.8E1,-1.183487E2,1.2E1,5.2E1,8.6E1,-7.51014E1,-1.5469493E-1,1.6394934E-1,1.6269547E-1,-1.55735E-1,-1.7529234E-1,-1.5495074E-1,-1.183008E2,3.40491E1,2.9E1,-1.18247E2,1.1E1,2.3E1,3.42554E1,3.42954E1,8.3E1,1.06E2,1.05E2,1.04E2,-1.9093472E-1,1.16169445E-1,-1.7216308E-1,-2.9033052E-2,-1.7339203E-1,3.0600263E-2,1.838504E-1,-1.6457559E-1,-1.5905365E-1,-2.1480902E-1,-1.606862E-1,-1.7563885E-1,-1.558448E-1,-1.6766001E-1,-1.7737685E-1,-1.5566263E-1,-1.7172405E-1,1.6429341E-1,-1.558397E-1,1.671232E-1,1.6061726E-1,1.618948E-1,-1.946272E-2,1.8451796E-1],"split_indices":[8,5,5,4,5,8,8,4,4,5,0,8,0,5,8,8,5,8,8,8,5,0,0,0,0,0,0,5,4,8,5,8,8,4,4,8,8,8,8,0,0,0,0,0,0,0,0,0,0,0,0,0,0,0,0,0,0,0,0,0,0,0,0],"split_type":[0,0,0,0,0,0,0,0,0,0,0,0,0,0,0,0,0,0,0,0,0,0,0,0,0,0,0,0,0,0,0,0,0,0,0,0,0,0,0,0,0,0,0,0,0,0,0,0,0,0,0,0,0,0,0,0,0,0,0,0,0,0,0],"sum_hessian":[3.6020778E5,2.844888E5,7.5718984E4,1.16599766E5,1.6788905E5,1.9476824E4,5.624216E4,8.753503E4,2.9064738E4,1.57532E5,1.0357048E4,1.5941673E4,3.5351519E3,4.005899E4,1.6183173E4,5.4115414E4,3.3419617E4,9.085279E3,1.9979457E4,2.3709547E4,1.3382245E5,6.268583E2,1.5314815E4,1.2056097E2,3.9938426E4,9.212675E3,6.970498E3,2.8588092E4,2.552732E4,4.626837E3,2.879278E4,3.3302856E3,5.754994E3,1.2714184E4,7.2652744E3,1.7938033E4,5.771514E3,1.3145438E5,2.3680696E3,3.8147578E3,2.4773334E4,2.4543236E4,9.840842E2,4.1839307E3,4.4290652E2,2.5819285E4,2.9734946E3,7.454754E2,2.58481E3,1.8612444E3,3.8937498E3,9.237495E3,3.4766885E3,3.8508577E3,3.414417E3,1.1099429E3,1.682809E4,5.0886196E3,6.828948E2,1.0463957E5,2.681481E4,1.6732358E3,6.948338E2],"tree_param":{"num_deleted":"0","num_feature":"9","num_nodes":"63","size_leaf_vector":"1"}},{"base_weights":[-2.175099E-2,1.4613816E-1,-1.1851192E-1,6.614247E-2,3.8640517E-1,-3.4227306E-1,-1.8950878E-2,1.6666606E-1,-2.802393E-1,5.6142503E-1,-6.749695E-2,-5.728369E-2,-1.5520269E-1,5.374833E-1,-1.0344769E-1,-6.5612245E-1,2.266413E-1,-5.763353E-1,2.3339603E-2,1.6255271E-1,5.652265E-1,-3.7313622E-1,1.8038101E-1,-3.8665742E-1,1.6195594E-1,1.7250991E-1,1.6058527E-1,-5.202282E-1,1.6735991E-2,-7.8882605E-1,5.436065E-1,-1.5745318E-1,2.843356E-1,-1.6669434E-1,-5.8711797E-1,5.316591E-1,-5.9291977E-1,1.6844414E-1,1.7376767E-1,6.073227E-1,-4.8890543E-1,1.4011161E-1,-5.401942E-1,-1.5594378E-1,-1.653973E-1,4.3562528E-1,-2.4124129E-1,-2.5058866E-1,2.9991904E-1,2.6173794E-1,-2.1056318E-1,1.230621E-1,1.7284779E-2,-1.7776482E-1,-1.6183534E-1,1.9073176E-1,-1.796226E-1,-2.0954953E-1,2.9233566E-1,1.8684284E-1,-1.5099768E-1,1.6746938E-1,-1.6673163E-1,1.4353597E-1,-1.829406E-1,-1.8552487E-1,-1.5878087E-1,1.3773084E-1,-1.5518725E-1,-1.5772766E-1,2.93946E-2],"categories":[],"categories_nodes":[],"categories_segments":[],"categories_sizes":[],"default_left":[0,0,0,0,0,0,0,0,0,0,0,0,0,0,0,0,0,0,0,0,0,0,0,0,0,0,0,0,0,0,0,0,0,0,0,0,0,0,0,0,0,0,0,0,0,0,0,0,0,0,0,0,0,0,0,0,0,0,0,0,0,0,0,0,0,0,0,0,0,0,0],"id":25,"left_children":[1,3,5,7,9,11,13,15,17,19,21,23,-1,25,27,29,31,33,35,-1,37,39,-1,41,-1,-1,-1,43,45,47,49,-1,51,-1,53,55,57,-1,-1,59,61,63,65,-1,-1,67,69,-1,-1,-1,-1,-1,-1,-1,-1,-1,-1,-1,-1,-1,-1,-1,-1,-1,-1,-1,-1,-1,-1,-1,-1],"loss_changes":[5.8761562E3,2.5418813E3,5.1120444E3,3.4547837E3,2.6242915E3,3.5254072E3,7.466729E3,3.7950022E3,2.0061278E3,1.4682617E0,1.8794247E3,5.2889478E3,0E0,1.421875E0,6.9060825E3,8.3228735E2,3.1078313E3,2.1940918E0,3.4525984E3,0E0,7.2021484E-1,7.1658655E2,0E0,1.401792E3,0E0,0E0,0E0,1.1230469E-1,1.1564555E4,3.9188232E2,2.1399301E2,0E0,1.8996499E3,0E0,1.5986328E0,7.1119617E2,8.250895E2,0E0,0E0,1.1784103E1,3.9554053E2,9.9292865E2,1.1140869E1,0E0,0E0,9.127368E2,6.39209E3,0E0,0E0,0E0,0E0,0E0,0E0,0E0,0E0,0E0,0E0,0E0,0E0,0E0,0E0,0E0,0E0,0E0,0E0,0E0,0E0,0E0,0E0,0E0,0E0],"parents":[2147483647,0,0,1,1,2,2,3,3,4,4,5,5,6,6,7,7,8,8,9,9,10,10,11,11,13,13,14,14,15,15,16,16,17,17,18,18,20,20,21,21,23,23,27,27,28,28,29,29,30,30,32,32,34,34,35,35,36,36,39,39,40,40,41,41,42,42,45,45,46,46],"right_children":[2,4,6,8,10,12,14,16,18,20,22,24,-1,26,28,30,32,34,36,-1,38,40,-1,42,-1,-1,-1,44,46,48,50,-1,52,-1,54,56,58,-1,-1,60,62,64,66,-1,-1,68,70,-1,-1,-1,-1,-1,-1,-1,-1,-1,-1,-1,-1,-1,-1,-1,-1,-1,-1,-1,-1,-1,-1,-1,-1],"split_conditions":[5.2E1,3.41512E1,1.03E2,3.1E1,3.42427E1,8.9E1,1.04E2,-1.184487E2,3.4E1,4E0,3.9E1,8.6E1,-1.5520269E-1,-7.509935E1,1.07E2,1.6E1,1E0,-1.183158E2,4.2E1,1.6255271E-1,4.6E1,-1.185492E2,1.8038101E-1,-1.185943E2,1.6195594E-1,1.7250991E-1,1.6058527E-1,-7.51014E1,1.11E2,3.41005E1,3.40491E1,-1.5745318E-1,3.40511E1,-1.6669434E-1,-1.181981E2,3.40055E1,5.1E1,1.6844414E-1,1.7376767E-1,3.42554E1,4E0,3.42012E1,5.3E1,-1.5594378E-1,-1.653973E-1,-7.5149345E1,1.34E2,-2.5058866E-1,2.9991904E-1,2.6173794E-1,-2.1056318E-1,1.230621E-1,1.7284779E-2,-1.7776482E-1,-1.6183534E-1,1.9073176E-1,-1.796226E-1,-2.0954953E-1,2.9233566E-1,1.8684284E-1,-1.5099768E-1,1.6746938E-1,-1.6673163E-1,1.4353597E-1,-1.829406E-1,-1.8552487E-1,-1.5878087E-1,1.3773084E-1,-1.5518725E-1,-1.5772766E-1,2.93946E-2],"split_indices":[8,4,8,8,4,8,8,5,8,8,8,8,0,5,8,8,8,5,8,0,8,5,0,5,0,0,0,5,8,4,4,0,4,0,5,4,8,0,0,4,8,4,8,0,0,5,8,0,0,0,0,0,0,0,0,0,0,0,0,0,0,0,0,0,0,0,0,0,0,0,0],"split_type":[0,0,0,0,0,0,0,0,0,0,0,0,0,0,0,0,0,0,0,0,0,0,0,0,0,0,0,0,0,0,0,0,0,0,0,0,0,0,0,0,0,0,0,0,0,0,0,0,0,0,0,0,0,0,0,0,0,0,0,0,0,0,0,0,0,0,0,0,0,0,0],"sum_hessian":[3.6171638E5,1.3224997E5,2.294664E5,9.921733E4,3.3032637E4,7.065916E4,1.5880725E5,7.6900516E4,2.231681E4,2.3839963E4,9.192674E3,2.688891E4,4.3770246E4,2.0935568E4,1.3787169E5,5.223968E3,7.167655E4,1.1297189E4,1.1019622E4,3.8989478E3,1.9941016E4,6.3095366E3,2.8831367E3,1.7330152E4,9.558758E3,1.1438148E3,1.9791752E4,3.0857785E4,1.070139E5,4.703995E3,5.199725E2,5.109944E3,6.65666E4,3.888768E3,7.4084214E3,6.0387314E3,4.9808906E3,1.5763812E4,4.177204E3,6.6588184E2,5.643655E3,3.9112249E3,1.3418927E4,3.0468262E4,3.8952408E2,4.0786438E4,6.622746E4,4.5853926E3,1.1860257E2,4.1159567E2,1.0837681E2,4.2802492E4,2.3764111E4,6.640351E3,7.6806995E2,5.5298525E3,5.0887888E2,4.6670693E3,3.1382092E2,6.571577E2,8.724134E0,3.3831216E2,5.305343E3,2.6954636E3,1.2157614E3,1.6376327E3,1.1781294E4,3.980623E4,9.802079E2,3.60177E4,3.0209762E4],"tree_param":{"num_deleted":"0","num_feature":"9","num_nodes":"71","size_leaf_vector":"1"}},{"base_weights":[-8.521802E-2,-2.2206442E-1,3.391351E-1,-6.871083E-2,-4.4935164E-1,-2.1877838E-2,5.4240775E-1,-5.2810663E-1,-2.485719E-2,-5.148537E-1,-6.992489E-2,-4.5395818E-1,1.6272426E-1,5.4648316E-1,1.6143496E-1,-1.5992722E-1,-1.5689246E-1,3.9439577E-1,-7.055649E-2,-5.17896E-1,1.6202995E-1,-1.5615767E-1,5.4818064E-1,1.6386536E-1,-5.5724716E-1,1.6307782E-1,1.6578251E-1,8.566154E-2,9.870698E-1,-3.626513E-1,1.3810518E-2,-1.5516862E-1,-1.5687032E-1,1.6593736E-1,1.6069001E-1,-1.5491155E-1,-1.7529273E-1,1.3961676E-1,-1.6331707E-1,3.342878E-1,2.7508295E-1,3.076471E-1,-1.6381891E-1,5.494041E-1,-6.577881E-4],"categories":[],"categories_nodes":[],"categories_segments":[],"categories_sizes":[],"default_left":[0,0,0,0,0,0,0,0,0,0,0,0,0,0,0,0,0,0,0,0,0,0,0,0,0,0,0,0,0,0,0,0,0,0,0,0,0,0,0,0,0,0,0,0,0],"id":26,"left_children":[1,3,5,7,9,11,13,15,17,19,21,23,-1,25,-1,-1,-1,27,29,31,-1,-1,33,-1,35,-1,-1,37,39,41,43,-1,-1,-1,-1,-1,-1,-1,-1,-1,-1,-1,-1,-1,-1],"loss_changes":[1.973624E4,8.957373E3,6.081667E3,3.091483E3,2.573166E3,7.2794277E3,6.3378906E-1,6.37207E-2,2.6839434E3,2.836504E2,4.245923E3,1.7470947E3,0E0,1.8017578E-1,0E0,0E0,0E0,2.5192725E3,3.112798E3,2.1484375E-2,0E0,0E0,1.0241699E-1,0E0,1.6651367E1,0E0,0E0,2.1663828E3,4.1050293E1,7.2077656E3,2.85069E3,0E0,0E0,0E0,0E0,0E0,0E0,0E0,0E0,0E0,0E0,0E0,0E0,0E0,0E0],"parents":[2147483647,0,0,1,1,2,2,3,3,4,4,5,5,6,6,7,7,8,8,9,9,10,10,11,11,13,13,17,17,18,18,19,19,22,22,24,24,27,27,28,28,29,29,30,30],"right_children":[2,4,6,8,10,12,14,16,18,20,22,24,-1,26,-1,-1,-1,28,30,32,-1,-1,34,-1,36,-1,-1,38,40,42,44,-1,-1,-1,-1,-1,-1,-1,-1,-1,-1,-1,-1,-1,-1],"split_conditions":[1.11E2,-7.524789E1,-1.22593094E2,5E0,1.08E2,1.35E2,-7.515008E1,1E0,1.3E1,2.018E3,3.9950188E1,1.31E2,1.6272426E-1,-7.519949E1,1.6143496E-1,-1.5992722E-1,-1.5689246E-1,1.1E1,2.1E1,1.07E2,1.6202995E-1,-1.5615767E-1,-7.519949E1,1.6386536E-1,1.33E2,1.6307782E-1,1.6578251E-1,9E0,3.41005E1,-1.184487E2,2.2E1,-1.5516862E-1,-1.5687032E-1,1.6593736E-1,1.6069001E-1,-1.5491155E-1,-1.7529273E-1,1.3961676E-1,-1.6331707E-1,3.342878E-1,2.7508295E-1,3.076471E-1,-1.6381891E-1,5.494041E-1,-6.577881E-4],"split_indices":[8,5,5,8,8,8,5,8,8,0,4,8,0,5,0,0,0,8,8,8,0,0,5,0,8,0,0,8,4,5,8,0,0,0,0,0,0,0,0,0,0,0,0,0,0],"split_type":[0,0,0,0,0,0,0,0,0,0,0,0,0,0,0,0,0,0,0,0,0,0,0,0,0,0,0,0,0,0,0,0,0,0,0,0,0,0,0,0,0,0,0,0,0],"sum_hessian":[3.398605E5,2.5698716E5,8.287335E4,1.5345227E5,1.035349E5,2.9853795E4,5.301956E4,1.3371015E4,1.4008125E5,8.8292266E4,1.5242631E4,1.6907703E4,1.2946092E4,2.7128686E4,2.5890871E4,6.730876E3,6.640138E3,1.3767578E4,1.2631367E5,8.803889E4,2.5337585E2,8.815942E3,6.426689E3,1.5822311E3,1.5325473E4,1.8492006E4,8.63668E3,9.052906E3,4.7146724E3,2.8306799E4,9.800687E4,7.7774484E4,1.0264408E4,4.5792764E3,1.847413E3,6.1126978E3,9.212775E3,5.648723E3,3.404183E3,1.670032E3,3.0446401E3,3.3030737E3,2.5003727E4,8.544146E2,9.715245E4],"tree_param":{"num_deleted":"0","num_feature":"9","num_nodes":"45","size_leaf_vector":"1"}},{"base_weights":[9.0673566E-2,1.942848E-1,-3.113266E-1,-9.7769625E-2,4.1672784E-1,3.1371766E-1,-5.223594E-1,4.6478078E-2,-5.492798E-1,4.763126E-1,-1.5374595E-1,4.9311823E-1,-1.5358469E-1,-5.111242E-1,-5.479793E-1,-5.514287E-1,1.2765788E-1,-5.783691E-1,-5.350876E-1,2.5810188E-1,5.183604E-1,-1.5332308E-1,1.6011702E-1,1.5847978E-1,-1.5428753E-1,-1.712702E-1,-1.5361074E-1,-5.2877486E-1,-5.7017916E-1,2.3656744E-1,-4.6881422E-1,-6.1288446E-1,-5.597142E-1,-5.276333E-1,-5.570109E-1,4.647414E-1,-3.9028022E-1,1.5792948E-1,1.2104847E-1,-1.7014217E-1,-1.5680327E-1,-1.62677E-1,-1.8118164E-1,3.6002393E-4,1.6597192E-1,1.7574494E-1,-1.5198343E-1,-1.5715204E-1,-1.9176663E-1,-1.5894127E-1,-1.7199889E-1,-1.554983E-1,-1.6277616E-1,-1.5407376E-1,-1.8633932E-1,-1.6852175E-1,1.6133642E-1,-1.54769E-1,1.6329958E-1,1.6607636E-1,-2.6949687E-2],"categories":[],"categories_nodes":[],"categories_segments":[],"categories_sizes":[],"default_left":[0,0,0,0,0,0,0,0,0,0,0,0,0,0,0,0,0,0,0,0,0,0,0,0,0,0,0,0,0,0,0,0,0,0,0,0,0,0,0,0,0,0,0,0,0,0,0,0,0,0,0,0,0,0,0,0,0,0,0,0,0],"id":27,"left_children":[1,3,5,7,9,11,13,15,17,19,-1,21,-1,23,25,27,29,31,33,35,37,-1,-1,-1,-1,-1,-1,39,41,43,45,47,49,51,53,55,57,-1,59,-1,-1,-1,-1,-1,-1,-1,-1,-1,-1,-1,-1,-1,-1,-1,-1,-1,-1,-1,-1,-1,-1],"loss_changes":[1.1882838E4,1.4735987E4,7.7116577E3,6.3872334E3,7.1292266E3,2.1861426E3,1.2300781E1,3.6076765E3,9.493652E0,1.1100801E3,0E0,4.94614E2,0E0,1.0035156E2,1.067334E1,3.4729004E0,4.2512725E3,4.6623535E0,2.3164062E0,2.619649E3,3.2526172E2,0E0,0E0,0E0,0E0,0E0,0E0,6.480713E-1,4.243164E0,4.124572E3,4.0307617E2,6.036865E0,1.7559814E0,1.3803711E0,1.091748E1,1.1119998E3,5.5507623E2,0E0,1.8441058E2,0E0,0E0,0E0,0E0,0E0,0E0,0E0,0E0,0E0,0E0,0E0,0E0,0E0,0E0,0E0,0E0,0E0,0E0,0E0,0E0,0E0,0E0],"parents":[2147483647,0,0,1,1,2,2,3,3,4,4,5,5,6,6,7,7,8,8,9,9,11,11,13,13,14,14,15,15,16,16,17,17,18,18,19,19,20,20,27,27,28,28,29,29,30,30,31,31,32,32,33,33,34,34,35,35,36,36,38,38],"right_children":[2,4,6,8,10,12,14,16,18,20,-1,22,-1,24,26,28,30,32,34,36,38,-1,-1,-1,-1,-1,-1,40,42,44,46,48,50,52,54,56,58,-1,60,-1,-1,-1,-1,-1,-1,-1,-1,-1,-1,-1,-1,-1,-1,-1,-1,-1,-1,-1,-1,-1,-1],"split_conditions":[1.07E2,-7.665399E1,-1.2265064E2,3.41005E1,-7.509935E1,1.33E2,1.34E2,-1.183563E2,3.41512E1,-7.524789E1,-1.5374595E-1,1.31E2,-1.5358469E-1,-1.22643524E2,1.35E2,3.40417E1,-1.182509E2,1.2E1,-1.183563E2,8.6E1,-7.51014E1,-1.5332308E-1,1.6011702E-1,1.5847978E-1,-1.5428753E-1,-1.712702E-1,-1.5361074E-1,1.6E1,2.6E1,3.40491E1,1E0,1.1E1,2.3E1,3.42427E1,2.018E3,8.3E1,1.06E2,1.5792948E-1,1.01E2,-1.7014217E-1,-1.5680327E-1,-1.62677E-1,-1.8118164E-1,3.6002393E-4,1.6597192E-1,1.7574494E-1,-1.5198343E-1,-1.5715204E-1,-1.9176663E-1,-1.5894127E-1,-1.7199889E-1,-1.554983E-1,-1.6277616E-1,-1.5407376E-1,-1.8633932E-1,-1.6852175E-1,1.6133642E-1,-1.54769E-1,1.6329958E-1,1.6607636E-1,-2.6949687E-2],"split_indices":[8,5,5,4,5,8,8,5,